svm_type epsilon_svr
kernel_type rbf
gamma 0.05
nr_class 2
total_sv 819
rho -72.6648
probA 1.22184
SV
1024 1:-0.666187 2:-0.956567 3:-0.847725 4:-0.94223 5:-0.87628 6:-0.940863 7:-0.84674 8:-0.931274 9:-0.848587 10:0.591331 11:-0.225771 12:0.423631 13:-0.504348 14:-0.717514 15:-0.712644 16:-0.562842 17:0.0847458 18:-0.506173 19:-0.770492 20:-0.818182 21:-1 22:-0.620253 23:-0.622857 24:-0.623693 25:-0.632558 
-322.1621709527921 1:0.0884358 2:-0.528014 3:-0.303398 4:-0.413733 5:-0.48583 6:-0.430424 7:-0.178941 8:-0.310493 9:-0.202722 10:-0.7678 11:-0.290747 12:0.40634 13:-0.408696 14:-0.333333 15:-0.494253 16:-0.693989 17:-0.661017 18:-0.481481 19:-0.934426 20:-1 21:-1 22:0.240506 23:0.337143 24:0.449477 25:0.6 
-624.1370787738144 1:-0.648718 2:-0.941225 3:-0.787866 4:-0.925691 5:-0.907098 6:-0.947877 7:-0.852787 8:-0.936428 9:-0.863184 10:0.402546 11:-0.561068 12:0.244957 13:-0.443478 14:-0.457627 15:-0.724138 16:-0.486339 17:-0.355932 18:-0.259259 19:-0.672131 20:0.090909 22:-0.670886 23:-0.645714 24:-0.623693 25:-0.618605 
-1024 1:-0.101109 2:-0.561651 3:-0.107854 4:-0.309583 5:-0.443045 6:-0.416688 7:-0.506952 8:-0.272831 9:-0.542365 10:0.270071 11:0.190128 12:0.210375 13:-0.556522 14:-0.310734 15:-0.287356 16:-0.497268 17:-0.491525 18:-0.654321 19:-0.639344 20:-0.818182 21:-1 22:-0.64557 23:-0.588571 24:-0.554007 25:-0.539535 
1024 1:-0.0164787 2:-0.311574 3:-0.436204 4:-0.166724 5:-0.650111 6:-0.522911 7:-0.210796 8:-0.319015 9:-0.402957 10:-0.66609 11:-0.691176 12:0.73487 13:-0.426087 14:-0.548023 15:-0.724138 16:-0.803279 17:-0.745763 18:-0.604938 19:-0.836066 20:-0.818182 21:-1 22:-0.113924 23:0.0171429 24:0.163763 25:0.4 
1024 1:0.0715427 2:-0.749352 3:-0.218203 4:-0.77088 5:-0.400564 6:-0.637577 7:-0.269407 8:-0.598525 9:-0.318594 10:-0.238341 11:0.412296 12:-0.325648 13:-0.730435 14:-0.446328 15:-0.137931 16:0.289618 17:0.288136 18:-0.703704 19:-0.737705 20:-1 21:-1 22:0.0379747 23:0.0742857 24:0.0731707 25:0.055814 
1024 1:-0.416175 2:-0.72748 3:-0.69612 4:-0.735815 5:-0.760347 6:-0.721256 7:-0.731623 8:-0.687502 9:-0.694263 10:-0.164424 11:-0.899898 12:0.763689 13:-0.365217 14:-0.638418 15:-0.816092 16:-0.759563 17:-0.661017 18:-0.777778 19:-0.836066 20:-0.454546 21:-1 22:-0.468354 23:-0.348571 24:-0.254355 25:-0.125581 
668.8210654335459 1:-0.649085 2:-0.900798 3:-0.887553 4:-0.901227 5:-0.919181 6:-0.924343 7:-0.893891 8:-0.896361 9:-0.902926 10:-0.0467355 11:-0.83202 12:-0.164265 13:-0.652174 14:-0.367232 15:-0.0114943 16:-0.103825 17:-0.101695 18:-0.580247 19:-0.803279 20:-0.818182 21:-1 22:-0.316456 23:-0.257143 24:-0.247387 25:-0.24186 
1024 1:0.618886 2:-0.38683 3:0.0959726 4:-0.958539 5:0.448796 6:-0.509359 7:0.279906 8:-0.420364 9:0.228228 10:-0.401206 11:0.294886 12:-0.498559 13:-0.634783 14:-0.683616 15:-0.0689655 16:0.89071 17:-0.118644 18:-0.530864 19:-0.934426 20:-0.636363 21:-1 22:0.265823 23:0.337143 24:0.303136 25:0.246512 
-1024 1:-0.81677 2:-0.926765 3:-0.975688 4:-0.934253 5:-0.986283 6:-0.96447 7:-0.977259 8:-0.956107 9:-0.978847 10:0.793305 11:-0.71345 12:0.694524 13:-0.686957 14:-0.79661 15:-0.689655 16:-0.68306 17:-0.254237 18:-0.358025 19:-0.737705 20:-0.454546 21:-0.666667 22:-0.924051 23:-0.908571 24:-0.916376 25:-0.925581 
9.730964137121877 1:0.109283 2:-0.772805 3:-0.301031 4:-0.744913 5:-0.464745 6:-0.572378 7:-0.169826 8:-0.557701 9:-0.160347 10:-0.80183 11:0.579025 12:0.342939 13:-0.478261 14:-0.412429 15:-0.666667 16:-0.0928962 17:-0.644068 18:-0.851852 19:-0.967213 20:-0.818182 21:-1 22:0.443038 23:0.451429 24:0.505226 25:0.632558 
973.4687275146265 1:0.0167951 2:-0.622162 3:-0.457991 4:-0.753169 5:-0.517613 6:-0.574283 7:-0.132331 8:-0.28983 9:-0.347052 10:-0.727925 11:-0.20379 12:0.400576 13:-0.495652 14:-0.389831 15:-0.551724 16:-0.497268 17:-0.491525 18:-0.703704 19:-0.868852 20:-1 21:-1 22:0.240506 23:0.302857 24:0.372822 25:0.516279 
-1024 1:-0.213919 2:-0.777055 3:-0.511275 4:-0.700725 5:-0.66281 6:-0.65613 7:-0.623258 8:-0.623816 9:-0.606795 10:-0.0353844 11:0.101643 12:-0.193084 13:-0.626087 14:-0.446328 15:0.0229885 16:-0.103825 17:-0.186441 18:-0.481481 19:-0.704918 20:-0.090909 21:-1 22:-0.291139 23:-0.222857 24:-0.170732 25:-0.153488 
-1024 1:-0.581411 2:-0.991578 3:-0.777802 4:-0.981627 5:-0.873244 6:-0.988242 7:-0.796085 8:-0.976175 9:-0.82419 10:0.48521 11:-0.759057 12:0.389049 13:-0.721739 14:-0.762712 15:-0.471264 16:-0.26776 17:-0.135593 18:-0.432099 19:-0.868852 20:-0.818182 21:-1 22:-0.670886 23:-0.657143 24:-0.658537 25:-0.674419 
212.2170054437865 1:0.0677275 2:-0.746113 3:-0.303715 4:-0.623231 5:-0.512817 6:-0.582982 7:0.000699369 8:-0.212925 9:-0.265128 10:-0.74869 11:-0.0191345 12:0.302594 13:-0.313043 14:-0.378531 15:-0.494253 16:-0.650273 17:-0.508475 18:-0.530864 19:-0.934426 20:-1 21:-1 22:0.21519 23:0.337143 24:0.43554 25:0.581395 
1024 1:-0.70761 2:-0.965637 3:-0.943569 4:-0.968732 5:-0.949749 6:-0.980697 7:-0.92525 8:-0.975854 9:-0.931841 10:0.0994304 11:-0.459807 12:-0.0951009 13:-0.582609 14:-0.355932 15:-0.597701 16:-0.26776 17:-0.0847458 18:0.358025 19:-0.672131 20:-0.454546 21:-1 22:-0.392405 23:-0.405714 24:-0.38676 25:-0.367442 
723.0033513455641 1:0.273906 2:-0.142324 3:-0.165505 4:-0.145955 5:-0.256697 6:-0.334109 7:-0.0454139 8:-0.0676838 9:-0.225054 10:-0.834262 11:-0.208002 12:0.354467 13:-0.443478 14:-0.220339 15:-0.528736 16:-0.595628 17:-0.491525 18:-0.876543 19:-0.836066 20:-1 21:-1 22:0.367089 23:0.485714 24:0.574913 25:0.706977 
1024 1:-0.202721 2:-0.336322 3:-0.596165 4:-0.443115 5:-0.702657 6:-0.526116 7:-0.686698 8:-0.427282 9:-0.671128 10:-0.574064 11:0.146664 12:0.337176 13:-0.521739 14:-0.265537 15:-0.413793 16:-0.584699 17:-0.59322 18:-0.679012 19:-0.836066 20:-0.454546 21:-1 22:0.0632911 23:0.177143 24:0.275261 25:0.4 
1024 1:-0.684421 2:-0.966337 3:-0.896324 4:-0.960526 5:-0.917502 6:-0.970349 7:-0.886311 8:-0.967745 9:-0.889493 10:0.800215 11:-0.345953 12:0.682997 13:-0.73913 14:-0.819209 15:-0.712644 16:-0.628415 17:0.0338983 18:-0.506173 19:-0.770492 20:-0.818182 21:-1 22:-0.822785 23:-0.794286 24:-0.804878 25:-0.823256 
1024 1:-0.604878 2:-0.930445 3:-0.81441 4:-0.963584 5:-0.780815 6:-0.946815 7:-0.767073 8:-0.936451 9:-0.765361 10:0.204469 11:-0.198928 12:-0.164265 13:-0.547826 14:-0.60452 15:-0.862069 16:-0.377049 17:0.135593 18:0.283951 19:0.737705 20:0.272727 21:1 22:-0.341772 23:-0.36 24:-0.358885 25:-0.35814 
-1024 1:-0.310621 2:-0.851508 3:-0.719908 4:-0.972376 5:-0.709266 6:-0.895553 7:-0.651804 8:-0.870222 9:-0.680637 10:0.0193057 11:0.224671 12:-0.285303 13:-0.165217 14:-0.299435 15:-0.298851 16:-0.409836 17:0.0847458 18:-0.506173 19:-0.836066 20:-1 21:-1 22:-0.316456 23:-0.291429 24:-0.324042 25:-0.288372 
-1024 1:-0.126531 2:-0.534804 3:-0.526401 4:-0.495585 5:-0.671785 6:-0.58203 7:-0.447649 8:-0.508883 9:-0.488942 10:-0.635202 11:-0.879768 12:0.56196 13:-0.330435 14:-0.333333 15:-0.735632 16:-0.759563 17:-0.661017 18:-0.827161 19:-0.803279 20:-0.818182 21:-1 22:-0.0886076 23:0.0628571 24:0.198606 25:0.390698 
1024 1:0.580323 2:0.180963 3:0.267961 4:0.223806 5:-0.102944 6:0.12549 7:0.332125 8:0.282499 9:0.383675 10:-0.838522 11:-0.619488 12:0.538905 13:-0.191304 14:-0.118644 15:-0.724138 16:-0.879781 17:-0.881356 18:-0.876543 19:-0.967213 20:-1 21:-1 22:0.291139 23:0.451429 24:0.554007 25:0.688372 
-1024 1:-0.552927 2:-0.977195 3:-0.677664 4:-0.968401 5:-0.804052 6:-0.954141 7:-0.734601 8:-0.963713 9:-0.685433 10:0.0543185 11:-0.651356 12:-0.631124 13:0.365217 14:-0.548023 15:-0.54023 16:-0.486339 17:0.59322 18:-0.333333 19:-0.540984 20:-0.454546 21:-1 22:-0.341772 23:-0.268571 24:-0.275261 25:-0.269767 
-153.8448172858521 1:0.335582 2:-0.424173 3:0.385031 4:0.264478 5:-0.505432 6:-0.138456 7:-0.138964 8:0.0725176 9:-0.218553 10:-0.802778 11:-0.136006 12:0.0835735 13:-0.373913 14:-0.129943 15:-0.356322 16:-0.508197 17:-0.440678 18:-0.802469 19:-0.803279 20:-0.818182 21:-1 22:0.392405 23:0.497143 24:0.574913 25:0.674419 
-1024 1:-0.864906 2:-0.895926 3:-0.990729 4:-0.924213 5:-0.98372 6:-0.982565 7:-0.972055 8:-0.974823 9:-0.97516 10:0.227177 11:-0.888925 12:0.164265 13:-0.452174 14:-0.536723 15:-0.402299 16:-0.409836 17:-0.271186 18:-0.481481 19:-0.704918 20:-0.818182 21:-1 22:-0.493671 23:-0.462857 24:-0.43554 25:-0.404651 
1024 1:0.781547 2:0.0409454 3:0.753856 4:0.18785 5:0.247998 6:0.475972 7:0.465953 8:0.428198 9:0.650834 10:-0.906582 11:0.305223 12:0.216138 13:-0.252174 14:-0.141243 15:-0.298851 16:-0.617486 17:-0.728814 18:-0.975309 19:-1 20:-1 21:-1 22:0.670886 23:0.748571 24:0.804878 25:0.860465 
-146.6709633763969 1:-0.515996 2:-0.467036 3:-0.691936 4:-0.254947 5:-0.835174 6:-0.487858 7:-0.809005 8:-0.40277 9:-0.810772 10:-0.915616 11:-0.367101 12:0.204611 13:-0.0956522 14:-0.0508475 15:-0.724138 16:-0.540984 17:-0.711864 18:-0.901235 19:-0.934426 20:-1 21:-1 22:0.56962 23:0.657143 24:0.777003 25:0.874419 
-1024 1:-0.688907 2:-0.957733 3:-0.868657 4:-0.942382 5:-0.895069 6:-0.953665 7:-0.859299 8:-0.946233 9:-0.865443 10:0.793667 11:-0.0601856 12:0.504323 13:-0.269565 14:-0.740113 15:-0.735632 16:-0.584699 17:-0.491525 18:-0.62963 19:-0.639344 20:-0.818182 21:-1 22:-0.848101 23:-0.828571 24:-0.825784 25:-0.813953 
600.5982972228109 1:0.2462 2:-0.558179 3:-0.0974487 4:-0.588497 5:-0.311904 6:-0.379876 7:0.231927 8:-0.0498379 9:-0.0395132 10:-0.797248 11:-0.0649205 12:0.279539 13:-0.356522 14:-0.276836 15:-0.390805 16:-0.530055 17:-0.644068 18:-0.851852 19:-0.934426 20:-0.818182 21:-1 22:0.392405 23:0.462857 24:0.54007 25:0.646512 
1024 1:-0.186897 2:-0.926169 3:-0.517264 4:-0.929539 5:-0.531508 6:-0.913043 7:-0.493582 8:-0.915192 9:-0.501237 10:0.109249 11:-0.344763 12:-0.054755 13:-0.591304 14:-0.59322 15:-0.528736 16:0.26776 17:-0.305085 18:-0.209877 19:-0.803279 20:-0.454546 21:-1 22:-0.265823 23:-0.268571 24:-0.226481 25:-0.246512 
-1024 1:-0.232869 2:-0.564968 3:-0.720176 4:-0.544895 5:-0.77977 6:-0.66569 7:-0.716853 8:-0.63905 9:-0.68255 10:-0.81228 11:-0.499214 12:0.688761 13:-0.286957 14:-0.717514 15:-0.862069 16:-0.770492 17:-0.457627 18:-0.530864 19:-0.934426 20:-1 21:-1 22:0.13924 23:0.268571 24:0.442509 25:0.702326 
-1024 1:-0.0531121 2:-0.705763 3:-0.532647 4:-0.838436 5:-0.562202 6:-0.727373 7:-0.219955 8:-0.416469 9:-0.418011 10:-0.743301 11:0.173807 12:0.475504 13:-0.513043 14:-0.615819 15:-0.482759 16:-0.333333 17:-0.610169 18:-0.802469 19:-0.901639 20:-1 21:-1 22:0.291139 23:0.337143 24:0.379791 25:0.544186 
1024 1:-0.761478 2:-0.966648 3:-0.988338 4:-0.969038 5:-0.970351 6:-0.980733 7:-0.968626 8:-0.978901 9:-0.968658 10:0.549151 11:-0.455012 12:0.446686 13:-0.782609 14:-0.706215 15:-0.563218 16:-0.344262 17:-0.220339 18:-0.45679 19:-0.639344 20:0.272727 21:-1 22:-0.721519 23:-0.668571 24:-0.658537 25:-0.655814 
1024 1:-0.743952 2:-0.980227 3:-0.957744 4:-0.980403 5:-0.955331 6:-0.986942 7:-0.934695 8:-0.988408 9:-0.937386 10:0.21042 11:-0.56979 12:0.0489914 13:-0.6 14:-0.762712 15:-0.298851 16:-0.409836 17:0.355932 18:-0.382716 19:-0.573771 20:-0.272728 21:-1 22:-0.493671 23:-0.417143 24:-0.407666 25:-0.446512 
-1024 1:-0.869936 2:-0.952395 3:-0.977603 4:-0.959431 5:-0.986667 6:-0.970349 7:-0.982749 8:-0.96243 9:-0.984392 10:0.61391 11:-0.678037 12:0.412104 13:-0.73913 14:-0.265537 15:-0.758621 16:-0.540984 17:-0.305085 18:-0.283951 19:-0.704918 20:-0.454546 21:-0.666667 22:-0.797468 23:-0.737143 24:-0.74216 25:-0.725581 
1024 1:-0.680543 2:-0.995206 3:-0.920038 4:-0.999286 5:-0.930219 6:-1 7:-0.894237 8:-0.999565 9:-0.900389 10:0.449934 11:-0.206497 12:0.256484 13:-0.669565 14:-0.774011 15:-0.632184 16:-0.191257 17:0.20339 18:-0.283951 19:-0.901639 20:-0.818182 21:-1 22:-0.518987 23:-0.497143 24:-0.519164 25:-0.534884 
224.7009697703599 1:-0.178963 2:-0.587385 3:-0.449476 4:-0.459705 5:-0.656568 6:-0.473664 7:-0.644465 8:-0.462287 9:-0.609734 10:-0.745958 11:0.0918534 12:-0.233429 13:-0.330435 14:0.59322 15:0.0114942 16:-0.715847 17:-0.830508 18:-0.901235 19:-0.836066 20:-0.636363 21:-1 22:0.291139 23:0.485714 24:0.533101 25:0.576744 
164.3183830701828 1:-0.743016 2:-0.971416 3:-0.945558 4:-0.973599 5:-0.942819 6:-0.993004 7:-0.929492 8:-0.994777 9:-0.932701 10:-0.191936 11:-0.49591 12:-0.152738 13:-0.0347826 14:-0.762712 15:-0.54023 16:-0.26776 17:0.118644 18:-0.530864 19:-0.606557 20:-0.454546 21:-1 22:-0.164557 23:-0.0628571 24:-0.108014 25:-0.0558139 
90.27514126743239 1:0.452619 2:-0.410646 3:0.135606 4:-0.0867576 5:-0.277897 6:-0.0583861 7:0.571911 8:0.786766 9:-0.0279663 10:-0.686674 11:-0.438415 12:0.389049 13:-0.408696 14:-0.19774 15:-0.367816 16:-0.693989 17:-0.830508 18:-0.777778 19:-0.868852 20:-1 21:-1 22:0.13924 23:0.28 24:0.344948 25:0.451163 
579.8185650195938 1:0.197773 2:-0.590132 3:-0.166481 4:-0.675471 5:-0.344204 6:-0.551701 7:0.230062 8:-0.0806043 9:-0.146873 10:-0.784358 11:-0.0655887 12:0.377522 13:-0.443478 14:-0.367232 15:-0.425287 16:-0.442623 17:-0.694915 18:-0.876543 19:-0.934426 20:-0.818182 21:-1 22:0.367089 23:0.428571 24:0.491289 25:0.623256 
-1024 1:-0.569624 2:-0.959702 3:-0.827341 4:-0.97625 5:-0.870439 6:-0.958719 7:-0.823413 8:-0.960139 9:-0.825992 10:0.556552 11:-0.358474 12:0.498559 13:-0.773913 14:-0.841808 15:-0.54023 16:-0.36612 17:0.0677966 18:-0.580247 19:-0.770492 20:-0.818182 21:-1 22:-0.594937 23:-0.565714 24:-0.581882 25:-0.581395 
1024 1:-0.636811 2:-0.956463 3:-0.802773 4:-0.961062 5:-0.840782 6:-0.954507 7:-0.834603 8:-0.949761 9:-0.834919 10:0.572578 11:-0.206085 12:0.544669 13:-0.513043 14:-0.864407 15:-0.758621 16:-0.540984 17:-0.0169491 18:-0.481481 19:-0.770492 20:-0.818182 21:-1 22:-0.594937 23:-0.588571 24:-0.595819 25:-0.595349 
70.89631876060133 1:-0.86738 2:-0.889707 3:-0.981129 4:-0.90268 5:-0.981461 6:-0.965148 7:-0.969032 8:-0.956244 9:-0.971639 10:-0.0256131 11:-0.767338 12:0.573487 13:-0.547826 14:-0.80791 15:-0.574713 16:-0.377049 17:-0.40678 18:-0.777778 19:-0.836066 20:-0.818182 21:-1 22:-0.797468 23:-0.782857 24:-0.797909 25:-0.795349 
1024 1:-0.484886 2:-0.968358 3:-0.780303 4:-0.982697 5:-0.823689 6:-0.968078 7:-0.765553 8:-0.958856 9:-0.786126 10:0.00305719 11:-0.13344 12:-0.14121 13:-0.617391 14:-0.423729 15:-0.586207 16:-0.180328 17:-0.0677966 18:0.358025 19:-0.409836 20:-0.454546 21:-1 22:-0.341772 23:-0.325714 24:-0.303136 25:-0.283721 
1024 1:0.334936 2:-0.942521 3:0.143547 4:-0.940369 5:-0.0861192 6:-0.818944 7:-0.0520917 8:-0.882776 9:0.430902 10:-0.239388 11:0.189296 12:-0.533141 13:0.0521739 14:-0.118644 15:0.0229885 16:-0.213115 17:-0.508475 18:-0.753086 19:-0.803279 20:-1 21:-1 22:-0.13924 23:0.0742857 24:0.0174216 25:-0.0465116 
-1024 1:-0.550713 2:-0.976469 3:-0.690887 4:-0.977396 5:-0.806972 6:-0.96958 7:-0.743971 8:-0.979199 9:-0.694679 10:0.314522 11:-0.68107 12:0.18732 13:-0.626087 14:-0.988701 15:-0.356322 16:-0.431694 17:0.423729 18:-0.333333 19:-0.540984 20:-0.454546 21:-1 22:-0.544304 23:-0.485714 24:-0.477352 25:-0.511628 
-1024 1:-0.174414 2:-0.588836 3:-0.640165 4:-0.94279 5:-0.606648 6:-0.712062 7:-0.563188 8:-0.639875 9:-0.598173 10:-0.22345 11:0.376561 12:-0.360231 13:-0.234783 14:-0.299435 15:-0.137931 16:-0.344262 17:0.101695 18:-0.506173 19:-0.836066 20:-1 21:-1 22:-0.164557 23:-0.165714 24:-0.170732 25:-0.134884 
-52.05383053931017 1:-0.908986 2:-0.964367 3:-0.998585 4:-0.974848 5:-0.988391 6:-0.982711 7:-0.980448 8:-0.974617 9:-0.983227 10:0.461378 11:-0.909693 12:-0.51585 13:0.582609 14:-0.570621 15:-0.551724 16:-0.333333 17:-0.355932 18:-0.308642 19:-0.508197 20:-0.818182 21:-1 22:-0.620253 23:-0.588571 24:-0.567944 25:-0.553488 
784.0733013773757 1:-0.163424 2:-0.365139 3:-0.353998 4:-0.703528 5:-0.291051 6:-0.504597 7:-0.580348 8:-0.388956 9:-0.601292 10:0.468599 11:0.425801 12:0.348703 13:-0.756522 14:-0.672316 15:-0.678161 16:-0.355191 17:-0.152542 18:-0.135803 19:-0.508197 20:0.272727 21:-0.666667 22:-0.670886 23:-0.622857 24:-0.630662 25:-0.623256 
401.8179437414315 1:-0.583037 2:-0.47989 3:-0.146963 4:-0.457895 5:-0.447715 6:-0.454342 7:-0.638689 8:-0.300528 9:-0.669561 10:-0.494513 11:-0.270053 12:-0.659942 13:-0.6 14:-0.514124 15:-0.45977 16:-0.0163934 17:0.288136 18:1 19:0.0163934 20:0.454546 21:0.666667 22:0.164557 23:0.177143 24:0.205575 25:0.24186 
1024 1:-0.223676 2:-0.727895 3:-0.551335 4:-0.801588 5:-0.612184 6:-0.750559 7:-0.589779 8:-0.707043 9:-0.601888 10:-0.483466 11:-0.684071 12:0.308357 13:-0.373913 14:-0.435028 15:-0.241379 16:-0.617486 17:-0.559322 18:-0.851852 19:-0.868852 20:-1 21:-1 22:-0.0632911 23:0.0628571 24:0.114983 25:0.227907 
-1024 1:-0.678468 2:-0.931689 3:-0.912512 4:-0.941949 5:-0.934166 6:-0.935607 7:-0.906615 8:-0.918537 9:-0.915304 10:0.713508 11:-0.743638 12:0.636888 13:-0.669565 14:-0.79661 15:-0.666667 16:-0.661202 17:-0.186441 18:-0.382716 19:-0.672131 20:-0.454546 21:-1 22:-0.746835 23:-0.748571 24:-0.74216 25:-0.744186 
-1024 1:0.533193 2:0.055665 3:0.413185 4:0.0961864 5:-0.0794394 6:0.0663712 7:0.288975 8:0.21304 9:0.3053 10:-0.918518 11:0.796083 12:0.25072 13:-0.365217 14:-0.254237 15:-0.356322 16:-0.431694 17:-0.745763 18:-0.851852 19:-0.967213 20:-1 21:-1 22:0.696203 23:0.737143 24:0.777003 25:0.855814 
-1024 1:-0.631312 2:-0.972504 3:-0.871756 4:-0.971077 5:-0.906777 6:-0.966631 7:-0.85787 8:-0.950288 9:-0.887192 10:0.454708 11:-0.630717 12:0.0835735 13:-0.113043 14:-0.830508 15:-0.758621 16:-0.519126 17:0.186441 18:-0.160494 19:-0.639344 20:-0.818182 21:-1 22:-0.544304 23:-0.508571 24:-0.519164 25:-0.525581 
1024 1:-0.871903 2:-0.899347 3:-0.98946 4:-0.911522 5:-0.987123 6:-0.969616 7:-0.978462 8:-0.961468 9:-0.980233 10:0.626601 11:-0.771793 12:0.602305 13:-0.547826 14:-0.819209 15:-0.528736 16:-0.377049 17:-0.508475 18:-0.827161 19:-0.836066 20:-0.818182 21:-1 22:-0.873418 23:-0.805714 24:-0.811847 25:-0.809302 
-1024 1:-0.47699 2:-0.931507 3:-0.758919 4:-0.965292 5:-0.80198 6:-0.936449 7:-0.746693 8:-0.919453 9:-0.766165 10:-0.155332 11:-0.102789 12:-0.769452 13:0.026087 14:0.0734463 15:-0.678161 16:-0.202186 17:-0.0677966 18:0.382716 19:-0.409836 20:-0.454546 21:-1 22:-0.189873 23:-0.188571 24:-0.149826 25:-0.102326 
-1024 1:-0.431885 2:-0.989582 3:-0.742792 4:-0.999236 5:-0.794461 6:-0.985715 7:-0.707679 8:-0.982658 9:-0.730152 10:0.416231 11:0.0321035 12:0.325648 13:-0.713043 14:-0.774011 15:-0.574713 16:-0.224044 17:0.186441 18:-0.604938 19:-0.704918 20:-1 21:-1 22:-0.544304 23:-0.508571 24:-0.519164 25:-0.544186 
-525.9211910640598 1:0.61173 2:0.230175 3:-0.0642806 4:-0.84287 5:0.382158 6:-0.124757 7:0.117366 8:0.1116 9:0.0229344 10:-0.528315 11:0.876993 12:-0.654179 13:-0.365217 14:-0.40113 15:0.45977 16:-0.0710382 17:0.118644 18:-0.555556 19:-0.868852 20:-1 21:-1 22:0.240506 23:0.2 24:0.261324 25:0.246512 
-1024 1:-0.530453 2:-0.987509 3:-0.767263 4:-0.979078 5:-0.839362 6:-0.988718 7:-0.723817 8:-0.943736 9:-0.813336 10:0.373975 11:-0.467714 12:0.233429 13:-0.730435 14:-0.79661 15:-0.448276 16:-0.344262 17:0.135593 18:-0.234568 19:-0.540984 20:-0.454546 21:-1 22:-0.594937 23:-0.542857 24:-0.533101 25:-0.539535 
-1024 1:-0.634577 2:-0.987354 3:-0.887651 4:-0.995923 5:-0.907491 6:-0.988755 7:-0.872128 8:-0.987858 9:-0.879901 10:0.670824 11:-0.0911262 12:0.0144092 13:0.156522 14:-0.932203 15:-0.712644 16:-0.387978 17:0.0847458 18:-0.506173 19:-0.836066 20:-0.818182 21:-1 22:-0.56962 23:-0.565714 24:-0.574913 25:-0.581395 
1024 1:-0.437219 2:-0.984788 3:-0.769922 4:-0.99949 5:-0.809722 6:-0.988993 7:-0.725186 8:-0.984399 9:-0.750833 10:0.383313 11:0.115779 12:0.25072 13:-0.617391 14:-0.774011 15:-0.586207 16:-0.136612 17:0.118644 18:-0.62963 19:-0.704918 20:-1 21:-1 22:-0.518987 23:-0.485714 24:-0.491289 25:-0.511628 
-1024 1:-0.358625 2:-0.963797 3:-0.692924 4:-0.981346 5:-0.755971 6:-0.969342 7:-0.668544 8:-0.960047 9:-0.698949 10:-0.133653 11:0.279648 12:0.423631 13:-0.556522 14:-0.853107 15:-0.586207 16:-0.114754 17:-0.220339 18:-0.827161 19:-0.836066 20:-1 21:-1 22:-0.113924 23:-0.0971429 24:-0.114983 25:-0.0883721 
1024 1:-0.602012 2:-0.949466 3:-0.834916 4:-0.953034 5:-0.880995 6:-0.953903 7:-0.817999 8:-0.944378 9:-0.830622 10:0.812642 11:-0.064211 12:0.400576 13:-0.408696 14:-0.548023 15:-0.712644 16:-0.693989 17:-0.169492 18:-0.530864 19:-0.672131 20:-0.454546 21:-0.666667 22:-0.873418 23:-0.851429 24:-0.853659 25:-0.837209 
-1024 1:-0.511548 2:-0.969239 3:-0.795319 4:-0.983614 5:-0.838853 6:-0.974506 7:-0.780579 8:-0.964148 9:-0.803522 10:0.0491111 11:-0.167218 12:-0.106628 13:-0.617391 14:-0.514124 15:-0.62069 16:-0.125683 17:-0.0677966 18:0.382716 19:-0.47541 20:-0.272728 21:-1 22:-0.341772 23:-0.348571 24:-0.33101 25:-0.306977 
1024 1:-0.58286 2:-0.971546 3:-0.842565 4:-0.979027 5:-0.879691 6:-0.968481 7:-0.835551 8:-0.97125 9:-0.835709 10:0.248481 11:-0.0768484 12:-0.423631 13:0.53913 14:-0.785311 15:-0.551724 16:-0.256831 17:-0.220339 18:-0.432099 19:-0.704918 20:-0.090909 21:-1 22:-0.493671 23:-0.405714 24:-0.38676 25:-0.362791 
-778.9825326846386 1:-0.180728 2:-0.714704 3:-0.564973 4:-0.876381 5:-0.561755 6:-0.750888 7:-0.520895 8:-0.706883 9:-0.563408 10:-0.582572 11:-0.300007 12:0.533141 13:-0.573913 14:-0.367232 15:-0.793103 16:-0.464481 17:-0.457627 18:-0.679012 19:-0.901639 20:-1 21:-1 22:0.0886076 23:0.177143 24:0.261324 25:0.427907 
50.33146648613351 1:-0.590845 2:-0.980953 3:-0.847273 4:-0.976301 5:-0.883915 6:-0.977455 7:-0.834513 8:-0.977962 9:-0.838274 10:0.484145 11:-0.288944 12:0.342939 13:-0.591304 14:-0.740113 15:-0.241379 16:-0.333333 17:-0.389831 18:-0.703704 19:-0.868852 20:-0.272728 21:-1 22:-0.772152 23:-0.714286 24:-0.686411 25:-0.688372 
53.57786156761706 1:-0.289021 2:-0.68174 3:-0.585406 4:-0.802148 5:-0.672973 6:-0.658639 7:-0.659505 8:-0.622785 9:-0.659221 10:-0.181363 11:0.0605204 12:-0.348703 13:-0.713043 14:-0.525424 15:-0.218391 16:0.355191 17:0.355932 18:-0.432099 19:-0.901639 20:-1 21:-1 22:0.0379747 23:0.0628571 24:0.0592335 25:0.0418605 
654.2901155589983 1:-0.619304 2:-0.96162 3:-0.875123 4:-0.972402 5:-0.891131 6:-0.963536 7:-0.864999 8:-0.956428 9:-0.867536 10:0.121489 11:-0.145119 12:-0.688761 13:0.817391 14:-0.841808 15:-0.804598 16:-0.409836 17:0.237288 18:0.432099 19:-0.770492 20:-1 21:-1 22:-0.240506 23:-0.234286 24:-0.240418 25:-0.227907 
1024 1:-0.87594 2:-0.911423 3:-0.972541 4:-0.930482 5:-0.975031 6:-0.944361 7:-0.964716 8:-0.929464 9:-0.967549 10:0.646542 11:-0.77042 12:0.67147 13:-0.843478 14:-0.728814 15:-0.505747 16:-0.36612 17:-0.40678 18:-0.703704 19:-0.836066 20:-0.818182 21:-1 22:-0.822785 23:-0.805714 24:-0.797909 25:-0.818605 
1024 1:-0.0937885 2:-0.646833 3:-0.346374 4:-0.496961 5:-0.595869 6:-0.565767 7:-0.480346 8:-0.371545 9:-0.586266 10:-0.741084 11:-0.560545 12:0.268012 13:-0.417391 14:-0.20904 15:-0.333333 16:-0.486339 17:-0.728814 18:-0.876543 19:-0.901639 20:-1 21:-1 22:0.341772 23:0.417143 24:0.484321 25:0.604651 
1024 1:-0.179171 2:-0.275811 3:-0.575586 4:-0.34791 5:-0.652924 6:-0.466228 7:-0.666348 8:-0.320275 9:-0.672209 10:-0.654915 11:0.0478383 12:0.440922 13:-0.591304 14:-0.751412 15:-0.482759 16:-0.377049 17:-0.101695 18:-0.728395 19:-0.967213 20:-1 21:-1 22:0.291139 23:0.337143 24:0.372822 25:0.544186 
-810.0986852643757 1:0.455314 2:-0.182388 3:0.0920569 4:-0.251303 5:-0.0734739 6:-0.201146 7:0.27222 8:0.106674 9:0.0721024 10:-0.873394 11:0.169301 12:0.377522 13:-0.408696 14:-0.355932 15:-0.390805 16:-0.530055 17:-0.559322 18:-1 19:-1 20:-1 21:-1 22:0.56962 23:0.622857 24:0.686411 25:0.8 
1024 1:-0.479932 2:-0.968799 3:-0.730764 4:-0.959329 5:-0.796648 6:-0.967968 7:-0.689826 8:-0.930037 9:-0.760592 10:0.193422 11:-0.276762 12:-0.227666 13:0.304348 14:-0.615819 15:-0.597701 16:-0.355191 17:-0.135593 18:-0.506173 19:-0.901639 20:-1 21:-1 22:-0.468354 23:-0.428571 24:-0.428571 25:-0.404651 
617.6735220565272 1:0.358473 2:-0.315409 3:-0.0544729 4:-0.363378 5:-0.282657 6:0.0708216 7:0.304526 8:0.296908 9:0.188999 10:-0.825807 11:-0.216792 12:0.360231 13:-0.33913 14:-0.254237 15:-0.344828 16:-0.650273 17:-0.79661 18:-0.901235 19:-0.934426 20:-0.818182 21:-1 22:0.417722 23:0.531429 24:0.581882 25:0.693023 
-1024 1:-0.484772 2:-0.973956 3:-0.740755 4:-0.972631 5:-0.810169 6:-0.98566 7:-0.69118 8:-0.946027 9:-0.779985 10:0.179614 11:-0.276815 12:0.279539 13:-0.408696 14:-0.502825 15:-0.678161 16:-0.355191 17:-0.220339 18:-0.604938 19:-0.901639 20:-1 21:-1 22:-0.493671 23:-0.44 24:-0.449477 25:-0.427907 
579.6680792978439 1:-0.0264374 2:-0.487094 3:-0.31151 4:-0.388912 5:-0.530446 6:-0.527838 7:-0.280026 8:-0.103605 9:-0.557835 10:-0.732781 11:-0.0215438 12:0.25072 13:-0.234783 14:-0.0847458 15:-0.563218 16:-0.584699 17:-0.661017 18:-0.901235 19:-1 20:-1 21:-1 22:0.240506 23:0.337143 24:0.449477 25:0.586047 
-1024 1:-0.438351 2:-0.981911 3:-0.766287 4:-0.999924 5:-0.806963 6:-0.987015 7:-0.726885 8:-0.983185 9:-0.751152 10:0.435704 11:0.109982 12:0.331412 13:-0.695652 14:-0.819209 15:-0.597701 16:-0.136612 17:0.118644 18:-0.62963 19:-0.704918 20:-1 21:-1 22:-0.544304 23:-0.531429 24:-0.519164 25:-0.553488 
-276.0207843643345 1:-0.117154 2:-0.899399 3:-0.366672 4:-0.850133 5:-0.531874 6:-0.850134 7:-0.424788 8:-0.785185 9:-0.541367 10:0.107991 11:-0.122487 12:0.0662824 13:-0.843478 14:-0.536723 15:0.114943 16:-0.300546 17:0.0338983 18:-0.580247 19:-0.901639 20:-1 21:-1 22:-0.392405 23:-0.348571 24:-0.358885 25:-0.348837 
-696.4474252738638 1:0.747135 2:0.599124 3:0.703452 4:0.340418 5:0.0959425 6:0.08203 7:0.729607 8:0.642647 9:0.445582 10:-0.887016 11:0.0862922 12:0.40634 13:-0.347826 14:-0.0508475 15:-0.655172 16:-0.68306 17:-0.677966 18:-0.925926 19:-0.934426 20:-1 21:-1 22:0.493671 23:0.622857 24:0.686411 25:0.809302 
1024 1:-0.0253175 2:-0.317715 3:-0.430581 4:-0.169629 5:-0.654246 6:-0.550346 7:-0.200794 8:-0.285569 9:-0.430209 10:-0.660813 11:-0.69388 12:0.729107 13:-0.434783 14:-0.536723 15:-0.712644 16:-0.814208 17:-0.728814 18:-0.604938 19:-0.836066 20:-0.818182 21:-1 22:-0.113924 23:0.0285714 24:0.163763 25:0.376744 
1024 1:-0.486171 2:-0.999793 3:-0.694693 4:-0.993043 5:-0.78537 6:-0.987326 7:-0.674169 8:-0.982314 9:-0.715583 10:0.504811 11:-0.566742 12:0.262248 13:-0.6 14:-0.751412 15:-0.54023 16:-0.311475 17:0.0169491 18:-0.333333 19:-0.737705 20:-0.818182 21:-1 22:-0.56962 23:-0.542857 24:-0.554007 25:-0.55814 
1024 1:-0.641619 2:-0.975225 3:-0.868816 4:-0.974975 5:-0.911751 6:-0.970734 7:-0.871271 8:-0.967057 9:-0.874578 10:0.547588 11:-0.695721 12:0.446686 13:-0.695652 14:-0.887006 15:-0.655172 16:-0.224044 17:0.0508475 18:-0.604938 19:-0.672131 20:-0.818182 21:-1 22:-0.594937 23:-0.565714 24:-0.567944 25:-0.567442 
1024 1:-0.653653 2:-0.914429 3:-0.754015 4:-0.894933 5:-0.879432 6:-0.923153 7:-0.823323 8:-0.902248 9:-0.83521 10:0.345732 11:-0.69458 12:0.302594 13:-0.730435 14:-0.548023 15:-0.321839 16:-0.15847 17:-0.372881 18:-0.753086 19:-0.836066 20:-0.818182 21:-1 22:-0.594937 23:-0.565714 24:-0.567944 25:-0.581395 
1024 1:0.571294 2:0.0461542 3:0.310949 4:0.293809 5:-0.136325 6:0.152998 7:0.282372 8:0.244035 9:0.390135 10:-0.845953 11:-0.634916 12:0.510086 13:-0.243478 14:-0.00564969 15:-0.62069 16:-0.89071 17:-0.949153 18:-0.925926 19:-1 20:-1 21:-1 22:0.341772 23:0.485714 24:0.567944 25:0.697674 
-1024 1:-0.269015 2:-0.960195 3:-0.366599 4:-0.888282 5:-0.673669 6:-0.897971 7:-0.517405 8:-0.867015 9:-0.56112 10:-0.287209 11:0.190004 12:-0.440922 13:-0.347826 14:-0.186441 15:-0.37931 16:-0.278689 17:0.457627 18:-0.308642 19:-0.770492 20:-0.818182 21:-1 22:0.0379747 23:0.04 24:0.0313589 25:0.0837209 
-518.9113596385282 1:0.1312 2:-0.521069 3:-0.2947 4:-0.597416 5:-0.415718 6:-0.353485 7:0.0429022 8:0.00585318 9:-0.14216 10:-0.891971 11:0.173947 12:0.29683 13:-0.547826 14:0.0169492 15:-0.091954 16:-0.79235 17:-0.711864 18:-0.901235 19:-1 20:-1 21:-1 22:0.64557 23:0.691429 24:0.735192 25:0.795349 
1024 1:-0.16629 2:-0.797294 3:-0.587797 4:-0.778551 5:-0.669865 6:-0.692685 7:-0.471367 8:-0.643494 9:-0.49335 10:-0.564059 11:-0.0723902 12:0.608069 13:-0.626087 14:-0.570621 15:-0.678161 16:-0.57377 17:-0.474576 18:-0.45679 19:-0.803279 20:-1 21:-1 22:-0.0379747 23:0.04 24:0.135888 25:0.293023 
-1024 1:0.304155 2:0.243858 3:-0.194867 4:-0.186703 5:-0.112669 6:-0.00833303 7:-0.186205 8:0.209489 9:-0.242062 10:-0.843179 11:-0.451765 12:0.100865 13:-0.026087 14:-0.152542 15:-0.471264 16:-0.726776 17:-0.559322 18:-0.851852 19:-0.836066 20:-1 21:-1 22:0.341772 23:0.474286 24:0.581882 25:0.702326 
1024 1:-0.498084 2:-0.949155 3:-0.733155 4:-0.921945 5:-0.817063 6:-0.919142 7:-0.755326 8:-0.9088 9:-0.756669 10:0.384829 11:-0.143695 12:0.193084 13:-0.521739 14:-0.717514 15:-0.333333 16:-0.0819672 17:-0.372881 18:-0.703704 19:-0.868852 20:-0.272728 21:-1 22:-0.620253 23:-0.542857 24:-0.512195 25:-0.52093 
5.702723910236452 1:0.196887 2:-0.831891 3:0.168737 4:-0.650319 5:-0.32404 6:-0.624373 7:0.0240568 8:-0.354982 9:-0.231181 10:-0.337101 11:-0.154145 12:-0.475504 13:-0.756522 14:-0.60452 15:-0.16092 16:0.759563 17:0.220339 18:-0.555556 19:-0.737705 20:-1 21:-1 22:0.164557 23:0.234286 24:0.233449 25:0.195349 
1024 1:-0.742351 2:-0.935809 3:-0.960598 4:-0.96175 5:-0.942319 6:-0.949306 7:-0.946246 8:-0.938834 9:-0.947838 10:0.181053 11:-0.388599 12:-0.475504 13:0.547826 14:-0.728814 15:-0.62069 16:-0.213115 17:-0.169492 18:-0.45679 19:-0.672131 20:0.272727 21:-1 22:-0.443038 23:-0.371429 24:-0.337979 25:-0.325581 
1024 1:-0.482507 2:-0.942417 3:-0.766689 4:-0.943911 5:-0.833022 6:-0.928904 7:-0.75316 8:-0.901836 9:-0.8019 10:0.411205 11:-0.580699 12:0.279539 13:-0.582609 14:-0.909605 15:-0.655172 16:-0.387978 17:0.322034 18:-0.209877 19:-0.639344 20:-0.818182 21:-1 22:-0.493671 23:-0.462857 24:-0.484321 25:-0.493023 
-1024 1:0.373942 2:-0.854411 3:0.619623 4:-0.202706 5:-0.271664 6:-0.413556 7:0.138287 8:0.00660917 9:-0.10307 10:-0.506549 11:0.553924 12:-0.383285 13:-0.678261 14:-0.581921 15:-0.16092 16:0.333333 17:0.423729 18:-0.555556 19:-0.803279 20:-0.636363 21:-1 22:0.367089 23:0.382857 24:0.365854 25:0.325581 
1024 1:-0.545512 2:-0.913108 3:-0.732521 4:-0.91035 5:-0.826779 6:-0.916468 7:-0.806703 8:-0.897713 9:-0.819824 10:0.584655 11:-0.526979 12:0.40634 13:-0.547826 14:-0.615819 15:-0.827586 16:-0.508197 17:-0.355932 18:-0.0864198 19:-0.606557 20:0.090909 22:-0.772152 23:-0.748571 24:-0.74216 25:-0.739535 
-1024 1:-0.846526 2:-0.937545 3:-0.903094 4:-0.89348 5:-0.928763 6:-0.914857 7:-0.900208 8:-0.899133 9:-0.893901 10:0.362776 11:-0.879286 12:0.0662824 13:-0.486957 14:-0.559322 15:-0.413793 16:-0.224044 17:-0.322034 18:-0.333333 19:-0.573771 20:-0.818182 21:-1 22:-0.56962 23:-0.531429 24:-0.505226 25:-0.497674 
242.3857681432206 1:-0.459629 2:-0.979916 3:-0.724555 4:-0.970363 5:-0.808195 6:-0.962547 7:-0.760229 8:-0.965316 9:-0.751748 10:0.166595 11:0.100775 12:-0.25072 13:0.252174 14:-0.740113 15:-0.643678 16:-0.322404 17:0.0338983 18:-0.358025 19:-0.770492 20:-0.636363 21:-1 22:-0.291139 23:-0.257143 24:-0.240418 25:-0.213953 
-1024 1:-0.882286 2:-0.955064 3:-0.988789 4:-0.961316 5:-0.993436 6:-0.971045 7:-0.991683 8:-0.964033 9:-0.992833 10:0.797166 11:-0.702943 12:0.481268 13:-0.634783 14:-0.491525 15:-0.735632 16:-0.606557 17:-0.322034 18:-0.259259 19:-0.704918 20:-0.454546 21:-0.666667 22:-0.873418 23:-0.851429 24:-0.839721 25:-0.84186 
1024 1:0.361181 2:-0.973541 3:0.200832 4:-0.975307 5:-0.0491925 6:-0.858668 7:-0.0495349 8:-0.928273 9:0.477658 10:-0.115088 11:0.304149 12:-0.14121 13:-0.452174 14:-0.276836 15:0.0574712 16:-0.224044 17:-0.491525 18:-0.728395 19:-0.803279 20:-1 21:-1 22:-0.265823 23:-0.0171428 24:-0.0731707 25:-0.172093 
-1024 1:-0.129764 2:-0.527832 3:-0.123176 4:-0.483888 5:-0.354242 6:-0.445533 7:-0.49689 8:-0.351866 9:-0.499199 10:0.204738 11:-0.057511 12:0.112392 13:-0.556522 14:-0.378531 15:-0.574713 16:-0.387978 17:0.169492 18:-0.580247 19:-0.770492 20:-0.818182 21:-1 22:-0.493671 23:-0.451429 24:-0.449477 25:-0.446512 
1024 1:-0.633565 2:-0.984529 3:-0.860411 4:-0.99075 5:-0.891488 6:-0.984891 7:-0.873196 8:-0.982933 9:-0.880054 10:0.0155844 11:-0.101164 12:-0.383285 13:0.269565 14:-0.774011 15:-0.643678 16:-0.125683 17:0.271186 18:-0.407407 19:-0.901639 20:-1 21:-1 22:-0.13924 23:-0.154286 24:-0.149826 25:-0.144186 
-107.4795596036702 1:0.588327 2:-0.496735 3:1 4:1 5:-0.408762 6:0.500092 7:-0.0316371 8:0.782528 9:-0.0729479 10:-0.857099 11:0.300513 12:-0.0259366 13:-0.13913 14:-0.00564969 15:-0.252874 16:-0.628415 17:-0.576271 18:-0.925926 19:-0.901639 20:-1 21:-1 22:0.594937 23:0.691429 24:0.763066 25:0.818605 
-1024 1:-0.209408 2:-0.840831 3:-0.439559 4:-0.747385 5:-0.680983 6:-0.71578 7:-0.610414 8:-0.680515 9:-0.625772 10:-0.409912 11:-0.209118 12:-0.481268 13:-0.66087 14:-0.570621 15:-0.0229885 16:0.355191 17:0.0677966 18:-0.111111 19:-0.639344 20:-1 21:-1 22:0.13924 23:0.188571 24:0.233449 25:0.232558 
601.7807291652809 1:-0.141361 2:-0.912874 3:-0.418663 4:-0.907267 5:-0.556138 6:-0.835317 7:-0.424472 8:-0.801931 9:-0.456782 10:-0.190655 11:0.0165208 12:-0.377522 13:-0.573913 14:-0.457627 15:-0.356322 16:-0.147541 17:0.457627 18:0.432099 19:-0.901639 20:-1 21:-1 22:0.0379747 23:0.0514286 24:0.0383275 25:0.0511628 
406.3200004121734 1:0.100641 2:-0.687468 3:-0.211115 4:-0.650931 5:-0.391767 6:-0.606644 7:-0.286268 8:-0.52107 9:-0.344363 10:-0.218085 11:0.552544 12:-0.325648 13:-0.713043 14:-0.468927 15:-0.126437 16:0.355191 17:0.169492 18:-0.654321 19:-0.803279 20:-1 21:-1 22:0.0379747 23:0.0742857 24:0.0662021 25:0.0465116 
1024 1:-0.0576169 2:-0.297113 3:-0.393619 4:-0.365672 5:-0.576401 6:-0.476924 7:-0.540868 8:-0.405313 9:-0.486668 10:-0.660602 11:0.357751 12:0.233429 13:-0.391304 14:-0.322034 15:-0.367816 16:-0.497268 17:-0.542373 18:-0.777778 19:-0.868852 20:-0.818182 21:-1 22:0.240506 23:0.337143 24:0.407665 25:0.539535 
-1024 1:-0.156426 2:-0.599953 3:-0.514019 4:-0.718028 5:-0.524239 6:-0.585272 7:-0.618987 8:-0.508241 9:-0.626423 10:-0.147632 11:-0.0095022 12:-0.354467 13:-0.617391 14:-0.423729 15:-0.310345 16:-0.0819672 17:0.271186 18:0.333333 19:-0.803279 20:-1 21:-1 22:-0.0126583 23:-0.0171428 24:-0.010453 25:6.97674e-09 
1024 1:-0.216071 2:-0.434099 3:-0.428495 4:-0.713365 5:-0.291025 6:-0.54357 7:-0.648074 8:-0.433192 9:-0.662838 10:0.420655 11:0.063044 12:0.371758 13:-0.826087 14:-0.525424 15:-0.678161 16:-0.344262 17:0.152542 18:-0.45679 19:-0.770492 20:-0.818182 21:-1 22:-0.594937 23:-0.554286 24:-0.567944 25:-0.586047 
1024 1:-0.754468 2:-0.851068 3:-0.843833 4:-0.539544 5:-0.92887 6:-0.72468 7:-0.892989 8:-0.655453 9:-0.900874 10:0.0289248 11:-0.688685 12:0.631124 13:-0.713043 14:-0.40113 15:-0.551724 16:-0.344262 17:-0.779661 18:-0.901235 19:-1 20:-0.818182 21:-1 22:-0.367089 23:-0.314286 24:-0.275261 25:-0.213953 
-858.3709148717808 1:-0.209845 2:-0.536281 3:-0.438705 4:-0.681358 5:-0.369817 6:-0.541445 7:-0.821909 8:-0.425174 9:-0.831593 10:-0.182902 11:-0.0140398 12:-0.0259366 13:-0.773913 14:-0.864407 15:-0.528736 16:-0.202186 17:0.0847458 18:0.555556 19:-0.114754 20:0.090909 21:0.666667 22:-0.0632911 23:-0.0285714 24:-0.010453 25:0.0232558 
-1024 1:-0.360383 2:-0.979346 3:-0.53017 4:-0.94093 5:-0.729368 6:-0.950368 7:-0.571655 8:-0.929945 9:-0.622916 10:0.152991 11:-0.0315575 12:0.037464 13:-0.713043 14:-0.717514 15:-0.37931 16:-0.344262 17:0.491525 18:-0.135803 19:-0.704918 20:-0.636363 21:-1 22:-0.341772 23:-0.337143 24:-0.33101 25:-0.35814 
-768.8194648437454 1:-0.219772 2:-0.668524 3:-0.536245 4:-0.78352 5:-0.617239 6:-0.64743 7:-0.646555 8:-0.593004 9:-0.646024 10:-0.138018 11:-0.00571505 12:-0.360231 13:-0.617391 14:-0.40113 15:-0.344828 16:-0.0601093 17:0.288136 18:0.308642 19:-0.803279 20:-1 21:-1 22:-0.0126583 23:-0.0171428 24:-0.010453 25:-0.00465117 
-550.42622958401 1:-0.193173 2:-0.903416 3:-0.455795 4:-0.926812 5:-0.584599 6:-0.847533 7:-0.481143 8:-0.815081 9:-0.50839 10:0.171042 11:-0.409403 12:-0.0259366 13:-0.826087 14:-0.581921 15:-0.436782 16:-0.191257 17:0.338983 18:0.135802 19:-0.639344 20:-0.818182 21:-1 22:-0.316456 23:-0.291429 24:-0.296167 25:-0.302326 
1024 1:0.100672 2:-0.546232 3:-0.260593 4:-0.50272 5:-0.473452 6:-0.288286 7:-0.210239 8:-0.208068 9:-0.16524 10:-0.818669 11:-0.17936 12:0.273775 13:-0.408696 14:-0.299435 15:-0.390805 16:-0.551913 17:-0.644068 18:-0.580247 19:-0.934426 20:-0.818182 21:-1 22:0.341772 23:0.474286 24:0.54007 25:0.665116 
1024 1:-0.19311 2:-0.872111 3:-0.558922 4:-0.877961 5:-0.668776 6:-0.75576 7:-0.432639 8:-0.782482 9:-0.37174 10:-0.565194 11:-0.26792 12:0.752161 13:-0.721739 14:-0.728814 15:-0.689655 16:-0.387978 17:-0.474576 18:-0.753086 19:-0.934426 20:-1 21:-1 22:0.0126583 23:0.04 24:0.108014 25:0.269767 
-1024 1:0.00128755 2:-0.647714 3:-0.40017 4:-0.602028 5:-0.52348 6:-0.437127 7:-0.302842 8:-0.34788 9:-0.317235 10:-0.844706 11:0.3522 12:0.152738 13:-0.13913 14:-0.627119 15:-0.206897 16:-0.584699 17:-0.40678 18:-0.753086 19:-0.934426 20:-1 21:-1 22:0.468354 23:0.542857 24:0.609756 25:0.734884 
-1024 1:-0.149175 2:-0.524775 3:-0.64807 4:-0.954461 5:-0.54861 6:-0.668895 7:-0.577792 8:-0.588216 9:-0.610344 10:-0.205376 11:0.380291 12:-0.227666 13:-0.373913 14:-0.333333 15:-0.16092 16:-0.311475 17:0.0508475 18:-0.555556 19:-0.836066 20:-1 21:-1 22:-0.189873 23:-0.177143 24:-0.191638 25:-0.162791 
-1024 1:-0.273412 2:-0.922152 3:-0.543247 4:-0.94065 5:-0.638904 6:-0.884088 7:-0.547591 8:-0.890359 9:-0.534048 10:0.0197971 11:-0.496344 12:-0.521614 13:0.373913 14:-0.649717 15:-0.517241 16:-0.114754 17:0.0677966 18:-0.506173 19:-0.737705 20:-1 21:-1 22:-0.291139 23:-0.268571 24:-0.240418 25:-0.24186 
1024 1:-0.0826213 2:-0.628926 3:-0.434923 4:-0.749984 5:-0.462817 6:-0.647101 7:-0.560165 8:-0.558801 9:-0.533022 10:0.0855575 11:0.219893 12:-0.0835735 13:-0.878261 14:-0.536723 15:-0.298851 16:0.0382514 17:0.474576 18:-0.407407 19:-0.868852 20:-0.818182 21:-1 22:-0.189873 23:-0.188571 24:-0.191638 25:-0.213953 
1024 1:-0.132592 2:-0.871385 3:-0.39651 4:-0.8405 5:-0.596717 6:-0.801418 7:-0.39582 8:-0.680355 9:-0.564932 10:-0.108424 11:-0.130085 12:-0.123919 13:-0.686957 14:-0.435028 15:0.229885 16:-0.289617 17:-0.0847458 18:-0.530864 19:-0.901639 20:-1 21:-1 22:-0.265823 23:-0.222857 24:-0.198606 25:-0.176744 
1024 1:-0.27028 2:-0.678268 3:-0.576867 4:-0.81173 5:-0.648191 6:-0.68177 7:-0.666393 8:-0.621869 9:-0.675328 10:-0.159123 11:0.0437772 12:-0.291066 13:-0.765217 14:-0.548023 15:-0.241379 16:0.36612 17:0.322034 18:-0.407407 19:-0.901639 20:-1 21:-1 22:0.0126583 23:0.04 24:0.0452962 25:0.027907 
1024 1:-0.640341 2:-0.950529 3:-0.814642 4:-0.953213 5:-0.848971 6:-0.94742 7:-0.819187 8:-0.942224 9:-0.820475 10:0.599932 11:-0.20715 12:0.423631 13:-0.573913 14:-0.59322 15:-0.781609 16:-0.508197 17:-0.0338983 18:-0.407407 19:-0.770492 20:-0.636363 21:-1 22:-0.670886 23:-0.611429 24:-0.623693 25:-0.623256 
1024 1:-0.676481 2:-0.72209 3:-0.743719 4:-0.631385 5:-0.839353 6:-0.693308 7:-0.805666 8:-0.654124 9:-0.793736 10:-0.72518 11:-0.835189 12:-0.0317003 13:0.182609 14:-0.152542 15:-0.494253 16:-0.770492 17:-0.576271 18:-0.62963 19:-0.934426 20:-1 21:-1 22:0.13924 23:0.314286 24:0.442509 25:0.586047 
-1024 1:-0.869259 2:-0.899891 3:-0.992486 4:-0.921282 5:-0.985997 6:-0.984982 7:-0.976086 8:-0.981375 9:-0.977655 10:0.376807 11:-0.870814 12:0.463977 13:-0.573913 14:-0.79661 15:-0.643678 16:-0.26776 17:-0.169492 18:-0.703704 19:-0.803279 20:-1 21:-1 22:-0.594937 23:-0.542857 24:-0.54007 25:-0.553488 
-0.3560334712734398 1:-0.84178 2:-0.923214 3:-0.984117 4:-0.930584 5:-0.984086 6:-0.967602 7:-0.975936 8:-0.958237 9:-0.978334 10:0.768648 11:-0.803367 12:0.723343 13:-0.747826 14:-0.751412 15:-0.609195 16:-0.442623 17:-0.40678 18:-0.753086 19:-0.836066 20:-0.818182 21:-1 22:-1 23:-0.954286 24:-0.958188 25:-0.962791 
1024 1:-0.405818 2:-0.939722 3:-0.670174 4:-0.958743 5:-0.749631 6:-0.94654 7:-0.618205 8:-0.89982 9:-0.711466 10:0.304575 11:-0.234092 12:0.198847 13:-0.478261 14:-0.672316 15:-0.425287 16:-0.311475 17:-0.0169491 18:-0.62963 19:-0.901639 20:-1 21:-1 22:-0.518987 23:-0.485714 24:-0.491289 25:-0.493023 
-533.0341200801712 1:-0.893542 2:-0.965041 3:-0.987435 4:-0.97388 5:-0.982559 6:-0.980275 7:-0.981831 8:-0.976198 9:-0.982839 10:0.380856 11:-0.874692 12:0.135447 13:-0.191304 14:-0.762712 15:-0.586207 16:-0.289617 17:-0.118644 18:-0.654321 19:-0.770492 20:-0.818182 21:-1 22:-0.56962 23:-0.52 24:-0.519164 25:-0.52093 
-695.4755766722521 1:0.261847 2:-0.177413 3:-0.131324 4:-0.180663 5:-0.283836 6:-0.314311 7:-0.114734 8:-0.0782218 9:-0.217499 10:-0.810694 11:-0.333831 12:0.365994 13:-0.356522 14:-0.333333 15:-0.551724 16:-0.606557 17:-0.508475 18:-0.802469 19:-0.868852 20:-1 21:-1 22:0.291139 23:0.405714 24:0.512195 25:0.674419 
-193.7715149188802 1:0.675488 2:0.625531 3:0.00634938 4:-0.365136 5:0.734806 6:0.29085 7:0.0775247 8:0.531173 9:0.0498541 10:-0.962418 11:0.671397 12:-0.314121 13:-0.452174 14:0.898305 15:0.126437 16:-0.803279 17:-0.762712 18:-0.925926 19:-0.901639 20:-1 21:-1 22:0.848101 23:0.977143 24:1 25:0.902326 
-1024 1:0.061584 2:-0.73186 3:-0.207297 4:-0.690353 5:-0.393151 6:-0.632321 7:-0.306286 8:-0.536488 9:-0.369508 10:-0.583959 11:0.210109 12:-0.573487 13:-0.565217 14:-0.468927 15:0.0229885 16:0.169399 17:-0.118644 18:0.283951 19:-0.606557 20:-0.454546 21:-1 22:0.240506 23:0.325714 24:0.372822 25:0.390698 
1024 1:-0.663903 2:-0.941433 3:-0.839027 4:-0.937133 5:-0.870752 6:-0.955588 7:-0.864277 8:-0.951456 9:-0.862657 10:0.62821 11:-0.220428 12:0.56196 13:-0.495652 14:-0.909605 15:-0.735632 16:-0.595628 17:0.0677966 18:-0.555556 19:-0.770492 20:-0.818182 21:-1 22:-0.721519 23:-0.668571 24:-0.679443 25:-0.67907 
-205.8108824703318 1:-0.470745 2:-0.744532 3:-0.748696 4:-0.790273 5:-0.785771 6:-0.754606 7:-0.774863 8:-0.74065 9:-0.737124 10:-0.126059 11:-0.954278 12:0.832853 13:-0.452174 14:-0.615819 15:-0.827586 16:-0.759563 17:-0.661017 18:-0.876543 19:-0.770492 20:-0.636363 21:-1 22:-0.493671 23:-0.394286 24:-0.310105 25:-0.172093 
-1024 1:-0.888518 2:-0.969887 3:-0.917794 4:-0.972809 5:-0.944079 6:-0.973994 7:-0.932951 8:-0.966439 9:-0.928556 10:0.200707 11:-0.885766 12:-0.268012 13:0.173913 14:-0.525424 15:-0.471264 16:-0.344262 17:-0.322034 18:-0.407407 19:-0.639344 20:-0.818182 21:-1 22:-0.468354 23:-0.405714 24:-0.365854 25:-0.334884 
803.4406626406947 1:-0.554085 2:-0.987924 3:-0.805249 4:-0.989475 5:-0.850337 6:-0.993627 7:-0.764546 8:-0.970081 9:-0.814889 10:0.423879 11:-0.364556 12:0.377522 13:-0.669565 14:-0.435028 15:-0.655172 16:-0.420765 17:-0.0508475 18:-0.580247 19:-0.901639 20:-1 21:-1 22:-0.670886 23:-0.645714 24:-0.651568 25:-0.665116 
-1024 1:0.252793 2:-0.715456 3:0.0449824 4:-0.69596 5:-0.180477 6:-0.632285 7:-0.200614 8:-0.542009 9:-0.26273 10:-0.255789 11:0.329448 12:-0.106628 13:-0.904348 14:-0.841808 15:-0.195402 16:0.213115 17:-0.0338983 18:0.308642 19:-0.606557 20:-0.454546 21:-1 22:0.113924 23:0.154286 24:0.198606 25:0.190698 
-1024 1:-0.708641 2:-0.973411 3:-0.886236 4:-0.971663 5:-0.899454 6:-0.964324 7:-0.875061 8:-0.959589 9:-0.878085 10:0.787775 11:-0.315206 12:0.435158 13:-0.391304 14:-0.80791 15:-0.781609 16:-0.606557 17:0.118644 18:-0.481481 19:-0.770492 20:-0.818182 21:-1 22:-0.772152 23:-0.737143 24:-0.735192 25:-0.734884 
1024 1:0.279455 2:-0.628278 3:-0.0591694 4:-0.541786 5:0.00766665 6:-0.454983 7:-0.236259 8:-0.570461 9:-0.139138 10:-0.335446 11:-0.0763475 12:-0.440922 13:-0.634783 14:-0.60452 15:-0.0804598 16:0.693989 17:-0.305085 18:-0.333333 19:-0.803279 20:-0.454546 21:-1 22:0.13924 23:0.211429 24:0.233449 25:0.204651 
-1024 1:0.72792 2:0.265756 3:0.49416 4:0.494387 5:-0.00940806 6:0.138621 7:0.967062 8:0.743147 9:0.504633 10:-0.895073 11:-0.375339 12:0.510086 13:-0.113043 14:-0.0960452 15:-0.643678 16:-0.945355 17:-0.966102 18:-0.925926 19:-0.967213 20:-1 21:-1 22:0.468354 23:0.6 24:0.679442 25:0.790698 
1024 1:-0.578191 2:-0.88429 3:-0.752795 4:-0.856224 5:-0.837326 6:-0.806619 7:-0.833475 8:-0.843923 9:-0.787595 10:-0.199273 11:-0.84009 12:-0.40634 13:-0.713043 14:-0.299435 15:0.528736 16:-0.136612 17:-0.288136 18:-0.432099 19:-0.672131 20:-0.818182 21:-1 22:-0.189873 23:-0.12 24:-0.0383275 25:6.97674e-09 
1024 1:0.063248 2:-0.109257 3:-0.492342 4:-0.712753 5:-0.115268 6:-0.328834 7:-0.483505 8:-0.181609 9:-0.516873 10:-0.674282 11:-0.582401 12:0.193084 13:-0.173913 14:-0.378531 15:-0.425287 16:-0.650273 17:-0.559322 18:-0.604938 19:-0.836066 20:-1 21:-1 22:0.113924 23:0.222857 24:0.344948 25:0.488372 
-912.4250775554304 1:0.722219 2:0.633565 3:0.375077 4:0.362231 5:0.161125 6:0.686605 7:0.278296 8:0.437751 9:0.757446 10:-0.887285 11:-0.0477928 12:0.279539 13:-0.0173913 14:-0.220339 15:-0.574713 16:-0.726776 17:-0.779661 18:-0.851852 19:-0.967213 20:-1 21:-1 22:0.493671 23:0.611429 24:0.707317 25:0.809302 
-1024 1:-0.759523 2:-0.838758 3:-0.837844 4:-0.518622 5:-0.924852 6:-0.706989 7:-0.887695 8:-0.636576 9:-0.895274 10:0.0312536 11:-0.687026 12:0.642651 13:-0.773913 14:-0.367232 15:-0.54023 16:-0.333333 17:-0.779661 18:-0.925926 19:-0.967213 20:-0.818182 21:-1 22:-0.341772 23:-0.291429 24:-0.254355 25:-0.2 
95.92205704789416 1:0.535831 2:-0.607883 3:0.872146 4:0.88688 5:-0.413709 6:0.46925 7:-0.0532949 8:0.682119 9:-0.0408994 10:-0.831138 11:0.284663 12:-0.0259366 13:-0.234783 14:0.0847458 15:-0.344828 16:-0.551913 17:-0.644068 18:-0.703704 19:-0.934426 20:-1 21:-1 22:0.518987 23:0.622857 24:0.69338 25:0.767442 
-1024 1:-0.60527 2:-0.991889 3:-0.793197 4:-0.980735 5:-0.885273 6:-0.987601 7:-0.814329 8:-0.978466 9:-0.837207 10:0.479242 11:-0.781416 12:0.40634 13:-0.730435 14:-0.751412 15:-0.551724 16:-0.234973 17:-0.0677966 18:-0.530864 19:-0.836066 20:-0.818182 21:-1 22:-0.696203 23:-0.668571 24:-0.665505 25:-0.674419 
-795.7833488854857 1:-0.781699 2:-0.975044 3:-0.984691 4:-0.985449 5:-0.963743 6:-0.975587 7:-0.969483 8:-0.970356 9:-0.969712 10:0.401733 11:-0.433888 12:-0.383285 13:0.565217 14:-0.774011 15:-0.655172 16:-0.311475 17:-0.237288 18:-0.432099 19:-0.639344 20:0.272727 21:-1 22:-0.56962 23:-0.508571 24:-0.484321 25:-0.474419 
1024 1:0.266193 2:-0.681715 3:-0.259202 4:-0.967585 5:-0.0762155 6:-0.802736 7:-0.0221467 8:-0.651879 9:-0.210665 10:-0.453655 11:0.0845232 12:0.181556 13:-0.330435 14:-0.785311 15:-0.402299 16:-0.125683 17:-0.288136 18:-0.802469 19:-0.901639 20:-1 21:-1 22:0.13924 23:0.222857 24:0.212544 25:0.293023 
-320.5681424670197 1:-0.446424 2:-0.967036 3:-0.620379 4:-0.816954 5:-0.822261 6:-0.887861 7:-0.685374 8:-0.810889 9:-0.761271 10:-0.166654 11:-0.378432 12:-0.51585 13:-0.347826 14:0.0960452 15:-0.574713 16:0.213115 17:-0.305085 18:-0.209877 19:-0.803279 20:-0.454546 21:-1 22:-0.164557 23:-0.142857 24:-0.087108 25:-0.0837209 
-1024 1:-0.562993 2:-0.894501 3:-0.729679 4:-0.833314 5:-0.85023 6:-0.749185 7:-0.84083 8:-0.843533 9:-0.743501 10:-0.205165 11:-0.819479 12:-0.40634 13:-0.721739 14:-0.265537 15:0.505747 16:-0.147541 17:-0.271186 18:-0.45679 19:-0.639344 20:-0.818182 21:-1 22:-0.189873 23:-0.0971429 24:-0.0243902 25:0.00930232 
-1024 1:-0.726876 2:-0.990956 3:-0.930834 4:-0.988329 5:-0.950151 6:-0.99185 7:-0.922588 8:-0.992852 9:-0.92534 10:0.704046 11:-0.74945 12:0.631124 13:-0.817391 14:-0.728814 15:-0.701149 16:-0.508197 17:-0.20339 18:-0.432099 19:-0.573771 20:-0.272728 21:-1 22:-0.797468 23:-0.794286 24:-0.790941 25:-0.8 
-1024 1:-0.246649 2:-0.381129 3:-0.63176 4:-0.429583 5:-0.717249 6:-0.574741 7:-0.697075 8:-0.484577 9:-0.707501 10:-0.580799 11:0.197182 12:0.550432 13:-0.46087 14:-0.638418 15:-0.586207 16:-0.453552 17:-0.440678 18:-1 19:-0.901639 20:-0.818182 21:-1 22:0.13924 23:0.177143 24:0.254355 25:0.460465 
1024 1:-0.864052 2:-0.934565 3:-0.99179 4:-0.942 5:-1 6:-0.972162 7:-0.9983 8:-0.967332 9:-0.998115 10:0.957305 11:-0.703786 12:0.740634 13:-0.634783 14:-0.774011 15:-0.896552 16:-0.715847 17:-0.423729 18:-0.209877 19:-0.672131 20:0.454546 22:-0.974683 23:-0.942857 24:-0.944251 25:-0.953488 
387.5816192677952 1:-0.671059 2:-0.965041 3:-0.846371 4:-0.970057 5:-0.883085 6:-0.957566 7:-0.874941 8:-0.955534 9:-0.871736 10:0.597832 11:-0.161234 12:0.573487 13:-0.513043 14:-0.898305 15:-0.735632 16:-0.584699 17:0.0677966 18:-0.604938 19:-0.770492 20:-0.818182 21:-1 22:-0.620253 23:-0.611429 24:-0.616725 25:-0.613953 
-1024 1:-0.630616 2:-0.967969 3:-0.855044 4:-0.977855 5:-0.867171 6:-0.981484 7:-0.843116 8:-0.979199 9:-0.851498 10:-0.190204 11:-0.351615 12:-0.221902 13:-0.121739 14:-0.389831 15:-0.517241 16:-0.431694 17:-0.20339 18:0.111111 19:-0.672131 20:-1 21:-1 22:-0.164557 23:-0.177143 24:-0.114983 25:-0.0697674 
872.505234615041 1:-0.306851 2:-0.832901 3:-0.630589 4:-0.848783 5:-0.670848 6:-0.803487 7:-0.641006 8:-0.755839 9:-0.665708 10:-0.516531 11:-0.178193 12:-0.504323 13:-0.617391 14:-0.514124 15:0.264368 16:0.0819672 17:-0.135593 18:0.0617284 19:-0.672131 20:-1 21:-1 22:0.13924 23:0.2 24:0.275261 25:0.297674 
-358.5138756332922 1:-0.0970216 2:-0.71175 3:-0.366575 4:-0.735892 5:-0.491554 6:-0.639189 7:-0.41247 8:-0.644273 9:-0.36004 10:-0.644558 11:-0.116966 12:0.533141 13:-0.495652 14:-0.785311 15:-0.482759 16:-0.530055 17:-0.389831 18:-0.580247 19:-0.934426 20:-1 21:-1 22:0.13924 23:0.211429 24:0.289199 25:0.493023 
8.710787863031767 1:-0.434005 2:1 3:0.135899 4:0.43333 5:0.43407 6:0.582378 7:-0.806643 8:1 9:-0.810564 10:-0.212263 11:-0.185856 12:-0.054755 13:-0.86087 14:-0.932203 15:-0.517241 16:-0.136612 17:-0.0338983 18:0.975309 19:-0.114754 20:1 21:0.333333 22:-0.0632911 23:-0.0285714 24:-0.010453 25:0.0186047 
-244.9409020909067 1:-0.273836 2:-0.861045 3:-0.578684 4:-0.850796 5:-0.663123 6:-0.835061 7:-0.56785 8:-0.796341 9:-0.602567 10:-0.0845686 11:0.0331889 12:-0.152738 13:-0.643478 14:-0.468927 15:-0.643678 16:-0.0491803 17:-0.0169491 18:0.358025 19:-0.442623 20:-0.454546 21:-1 22:-0.189873 23:-0.188571 24:-0.149826 25:-0.139535 
480.1437604609681 1:-0.463305 2:-0.964108 3:-0.588955 4:-0.954895 5:-0.749282 6:-0.939215 7:-0.671627 8:-0.947424 9:-0.609082 10:0.116931 11:-0.523623 12:0.00288184 13:-0.695652 14:-0.694915 15:-0.45977 16:-0.289617 17:0.610169 18:-0.358025 19:-0.540984 20:-0.454546 21:-1 22:-0.316456 23:-0.257143 24:-0.275261 25:-0.302326 
-1024 1:-0.416504 2:-0.982767 3:-0.674224 4:-0.98499 5:-0.752399 6:-0.9724 7:-0.655083 8:-0.966507 9:-0.683007 10:-0.0101194 11:-0.146296 12:0.538905 13:-0.826087 14:-0.909605 15:-0.793103 16:-0.344262 17:0.169492 18:0.037037 19:-0.934426 20:-1 21:-1 22:-0.13924 23:-0.154286 24:-0.149826 25:-0.130233 
-334.6025979877187 1:-0.886835 2:-0.936509 3:-0.96932 4:-0.951607 5:-0.974147 6:-0.968334 7:-0.971499 8:-0.960322 9:-0.973427 10:0.585615 11:-0.77237 12:0.544669 13:-0.573913 14:-0.694915 15:-0.563218 16:-0.431694 17:-0.40678 18:-0.728395 19:-0.836066 20:-0.818182 21:-1 22:-0.746835 23:-0.714286 24:-0.728223 25:-0.734884 
-1024 1:0.435561 2:-0.168653 3:-0.125249 4:-0.806124 5:0.173547 6:-0.382898 7:-0.0148071 8:-0.207267 9:-0.113023 10:-0.450121 11:0.588373 12:-0.608069 13:-0.304348 14:-0.774011 15:0.126437 16:0.36612 17:0.169492 18:-0.506173 19:-0.836066 20:-0.818182 21:-1 22:0.291139 23:0.234286 24:0.254355 25:0.209302 
-410.6444725488078 1:-0.126632 2:-0.776459 3:-0.284758 4:-0.745728 5:-0.619793 6:-0.678492 7:-0.601164 8:-0.662577 9:-0.591505 10:-0.499059 11:0.0180521 12:-0.538905 13:-0.626087 14:-0.502825 15:-0.0229885 16:0.300546 17:-0.101695 18:0.209877 19:-0.639344 20:-0.636363 21:-1 22:0.164557 23:0.257143 24:0.303136 25:0.311628 
1024 1:-0.675 2:-0.958355 3:-0.856069 4:-0.966107 5:-0.892381 6:-0.95209 7:-0.85975 8:-0.949418 9:-0.85714 10:0.621792 11:-0.162407 12:0.429395 13:-0.478261 14:-0.740113 15:-0.724138 16:-0.606557 17:0.135593 18:-0.506173 19:-0.770492 20:-0.818182 21:-1 22:-0.670886 23:-0.622857 24:-0.630662 25:-0.632558 
-149.2844786365474 1:0.397143 2:-0.368379 3:0.231377 4:-0.0476154 5:-0.258349 6:-0.383466 7:0.203697 8:0.00081326 9:0.0207997 10:-0.862488 11:0.245254 12:0.40634 13:-0.426087 14:-0.231638 15:-0.425287 16:-0.530055 17:-0.779661 18:-0.950617 19:-1 20:-1 21:-1 22:0.56962 23:0.634286 24:0.679442 25:0.795349 
-1024 1:-0.245953 2:-0.419172 3:-0.457515 4:-0.697794 5:-0.346491 6:-0.491868 7:-0.680516 8:-0.393217 9:-0.677477 10:0.43018 11:0.127004 12:0.354467 13:-0.782609 14:-0.559322 15:-0.701149 16:-0.344262 17:0.237288 18:-0.506173 19:-0.770492 20:-0.818182 21:-1 22:-0.56962 23:-0.554286 24:-0.574913 25:-0.586047 
-506.51763599624 1:-0.479458 2:-0.981108 3:-0.679591 4:-0.945568 5:-0.815706 6:-0.958042 7:-0.720538 8:-0.930884 9:-0.766788 10:0.143126 11:-0.685189 12:-0.18732 13:0.0956522 14:-0.751412 15:-0.517241 16:-0.136612 17:-0.118644 18:-0.481481 19:-0.934426 20:-0.818182 21:-1 22:-0.367089 23:-0.325714 24:-0.317073 25:-0.32093 
414.2696538860324 1:-0.364585 2:-0.64914 3:-0.638665 4:-0.60738 5:-0.739173 6:-0.641845 7:-0.718117 8:-0.569247 9:-0.733423 10:-0.877051 11:-0.127052 12:-0.170029 13:0.026087 14:-0.0960452 15:-0.37931 16:-0.715847 17:-0.152542 18:-0.777778 19:-0.836066 20:-1 21:-1 22:0.468354 23:0.6 24:0.700348 25:0.809302 
1024 1:-0.081204 2:-0.673318 3:-0.388032 4:-0.75345 5:-0.53909 6:-0.645123 7:-0.50053 8:-0.550027 9:-0.46424 10:-0.0557813 11:0.288084 12:-0.221902 13:-0.686957 14:-0.570621 15:-1.11022e-16 16:-0.0382513 17:0.118644 18:-0.333333 19:-0.803279 20:-0.454546 21:-1 22:-0.164557 23:-0.0971429 24:-0.0731707 25:-0.0651163 
-1024 1:-0.678619 2:-0.983363 3:-0.918965 4:-0.990571 5:-0.922503 6:-0.982418 7:-0.902028 8:-0.98078 9:-0.904977 10:0.323509 11:-0.209368 12:-0.677233 13:0.947826 14:-0.898305 15:-0.816092 16:-0.497268 17:0.186441 18:0.432099 19:-0.803279 20:-0.818182 21:-1 22:-0.341772 23:-0.36 24:-0.365854 25:-0.367442 
1024 1:-0.209003 2:-0.802659 3:-0.534293 4:-0.756304 5:-0.661882 6:-0.746603 7:-0.565835 8:-0.714374 9:-0.57605 10:-0.617907 11:-0.00351897 12:0.458213 13:-0.565217 14:-0.502825 15:-0.655172 16:-0.551913 17:-0.169492 18:-0.679012 19:-0.803279 20:-1 21:-1 22:0.164557 23:0.211429 24:0.289199 25:0.446512 
1024 1:-0.633033 2:-0.948689 3:-0.841821 4:-0.951582 5:-0.872467 6:-0.962602 7:-0.834122 8:-0.955145 9:-0.840561 10:0.843612 11:-0.340678 12:0.682997 13:-0.678261 14:-0.954802 15:-0.724138 16:-0.595628 17:-0.0169491 18:-0.382716 19:-0.770492 20:-0.636363 21:-1 22:-0.873418 23:-0.828571 24:-0.832753 25:-0.846512 
1024 1:-0.385761 2:-0.870322 3:-0.62943 4:-0.839481 5:-0.761704 6:-0.864895 7:-0.638148 8:-0.768164 9:-0.734019 10:-0.466346 11:-0.422271 12:0.567723 13:-0.530435 14:-0.514124 15:-0.735632 16:-0.595628 17:-0.355932 18:-0.679012 19:-0.803279 20:-1 21:-1 22:-0.0379747 23:0.04 24:0.12892 25:0.297674 
-1024 1:-0.895851 2:-0.941484 3:-0.985935 4:-0.954461 5:-0.983988 6:-0.970587 7:-0.977981 8:-0.96369 9:-0.979595 10:0.561959 11:-0.777423 12:0.435158 13:-0.695652 14:-0.435028 15:-0.45977 16:-0.442623 17:-0.389831 18:-0.703704 19:-0.836066 20:-0.818182 21:-1 22:-0.772152 23:-0.725714 24:-0.74216 25:-0.748837 
-82.29771408090011 1:-0.349476 2:-0.934461 3:-0.6686 4:-0.974287 5:-0.73644 6:-0.946357 7:-0.648059 8:-0.928112 9:-0.679237 10:-0.0565244 11:0.283658 12:-0.631124 13:0.591304 14:-0.762712 15:-0.609195 16:-0.114754 17:0.440678 18:-0.703704 19:-0.803279 20:-1 21:-1 22:-0.189873 23:-0.142857 24:-0.156794 25:-0.153488 
-851.8801982873312 1:0.242707 2:-0.527832 3:-0.153745 4:-0.430756 5:-0.361967 6:-0.222391 7:0.131564 8:-0.0178115 9:0.0104172 10:-0.745846 11:-0.00647822 12:0.29683 13:-0.295652 14:-0.378531 15:-0.505747 16:-0.617486 17:-0.559322 18:-0.530864 19:-0.934426 20:-1 21:-1 22:0.21519 23:0.337143 24:0.43554 25:0.586047 
1024 1:0.0956739 2:-0.485565 3:-0.304288 4:-0.564645 5:-0.408708 6:-0.435827 7:-0.0472939 8:-0.0635144 9:-0.286295 10:-0.796651 11:-0.113255 12:0.325648 13:-0.486957 14:-0.344633 15:-0.402299 16:-0.57377 17:-0.508475 18:-0.777778 19:-0.737705 20:-0.636363 21:-1 22:0.316456 23:0.428571 24:0.519164 25:0.646512 
1024 1:-0.377764 2:-0.909169 3:-0.647484 4:-0.95729 5:-0.718008 6:-0.914234 7:-0.672801 8:-0.894712 9:-0.699947 10:-0.333228 11:-0.00083713 12:-0.579251 13:0.13913 14:-0.355932 15:-0.643678 16:-0.224044 17:-0.118644 18:0.358025 19:-0.573771 20:-0.454546 21:-1 22:-0.0379747 23:-0.0171428 24:0.0383275 25:0.12093 
1024 1:-0.626422 2:-0.965507 3:-0.87505 4:-0.969395 5:-0.904741 6:-0.981612 7:-0.847899 8:-0.979955 9:-0.85854 10:0.960944 11:-0.18898 12:0.73487 13:-0.573913 14:-0.80791 15:-0.770115 16:-0.737705 17:-0.237288 18:-0.604938 19:-0.672131 20:-0.636363 21:-0.333333 22:-1 23:-0.988571 24:-0.993031 25:-0.986047 
982.1434992435298 1:-0.41875 2:-0.941096 3:-0.697194 4:-0.942204 5:-0.787843 6:-0.92645 7:-0.71001 8:-0.914321 9:-0.698463 10:0.352765 11:0.126707 12:0.123919 13:-0.478261 14:-0.785311 15:-0.551724 16:-0.213115 17:0.101695 18:-0.333333 19:-0.803279 20:-0.454546 21:-1 22:-0.417722 23:-0.371429 24:-0.372822 25:-0.386047 
27.13919897342887 1:-0.30687 2:-0.953327 3:-0.406903 4:-0.869755 5:-0.680367 6:-0.891561 7:-0.509329 8:-0.847611 9:-0.57056 10:-0.348839 11:0.0748416 12:-0.688761 13:-0.53913 14:0.242938 15:-0.45977 16:-0.289617 17:0.864407 18:-0.0864198 19:-0.737705 20:-0.636363 21:-1 22:0.0126583 23:0.04 24:0.0174216 25:0.0604651 
1024 1:-0.141576 2:-0.832098 3:-0.558983 4:-0.858568 5:-0.646718 6:-0.70893 7:-0.320499 8:-0.665533 9:-0.337487 10:-0.653224 11:-0.16945 12:0.619597 13:-0.643478 14:-0.661017 15:-0.62069 16:-0.497268 17:-0.372881 18:-0.62963 19:-0.901639 20:-1 21:-1 22:0.0632911 23:0.142857 24:0.212544 25:0.381395 
-833.0866437838482 1:0.166954 2:-0.825438 3:-0.282709 4:-0.990291 5:-0.124225 6:-0.861397 7:-0.136437 8:-0.838746 9:-0.181334 10:-0.0146482 11:-0.162914 12:-0.00864554 13:-0.834783 14:-0.581921 15:-0.425287 16:0.333333 17:2.22045e-16 18:-0.45679 19:-0.901639 20:-0.636363 21:-1 22:-0.21519 23:-0.177143 24:-0.1777 25:-0.209302 
429.924452548455 1:-0.589105 2:-0.942391 3:-0.862656 4:-0.952015 5:-0.886505 6:-0.942108 7:-0.861089 8:-0.929212 9:-0.868895 10:0.466463 11:-0.0368973 12:-0.0201729 13:-0.504348 14:-0.276836 15:-0.747126 16:-0.47541 17:-0.0338983 18:0.0123456 19:-0.508197 20:1 21:-0.666667 22:-0.594937 23:-0.554286 24:-0.554007 25:-0.534884 
-1024 1:0.110966 2:-0.65694 3:-0.288381 4:-0.957163 5:-0.125421 6:-0.761163 7:-0.122164 8:-0.714053 9:-0.172989 10:-0.163822 11:-0.0893207 12:-0.383285 13:-0.295652 14:-0.446328 15:-0.264368 16:0.213115 17:-0.288136 18:-0.407407 19:-0.803279 20:-0.636363 21:-1 22:-0.13924 23:-0.0971429 24:-0.0522648 25:-0.0372093 
-1024 1:-0.61409 2:-0.901446 3:-0.806432 4:-0.867717 5:-0.85374 6:-0.891835 7:-0.819458 8:-0.86745 9:-0.82724 10:0.666359 11:0.0801806 12:0.636888 13:-0.582609 14:-0.740113 15:-0.574713 16:-0.57377 17:-0.491525 18:-0.679012 19:-0.639344 20:-0.818182 21:-1 22:-0.797468 23:-0.76 24:-0.763066 25:-0.748837 
-1024 1:-0.603935 2:-0.891158 3:-0.80187 4:-0.883618 5:-0.849944 6:-0.893594 7:-0.808854 8:-0.86186 9:-0.821792 10:0.635548 11:0.0852071 12:0.636888 13:-0.582609 14:-0.740113 15:-0.597701 16:-0.551913 17:-0.508475 18:-0.604938 19:-0.704918 20:-0.818182 21:-1 22:-0.797468 23:-0.748571 24:-0.74216 25:-0.739535 
-360.4625813471245 1:0.137578 2:-0.988623 3:-0.129153 4:-0.994037 5:-0.291114 6:-0.939086 7:-0.0257864 8:-0.929968 9:-0.0577969 10:0.0916602 11:-0.170222 12:0.0432277 13:-0.452174 14:-0.412429 15:0.0804598 16:-0.387978 17:-0.576271 18:-0.777778 19:-0.803279 20:-1 21:-1 22:-0.518987 23:-0.337143 24:-0.296167 25:-0.353488 
1024 1:-0.153383 2:-0.702006 3:-0.598129 4:-0.725087 5:-0.682644 6:-0.626479 7:-0.501433 8:-0.553143 9:-0.545872 10:-0.636712 11:-0.234831 12:0.481268 13:-0.486957 14:-0.570621 15:-0.655172 16:-0.650273 17:-0.118644 18:-0.753086 19:-0.770492 20:-0.818182 21:-1 22:0.0886076 23:0.154286 24:0.240418 25:0.418605 
550.2712115469093 1:-0.027842 2:-0.858505 3:-0.447708 4:-0.826434 5:-0.567042 6:-0.787206 7:-0.252156 8:-0.601411 9:-0.381776 10:-0.753968 11:0.602071 12:0.417867 13:-0.626087 14:-0.322034 15:-0.908046 16:-0.15847 17:-0.372881 18:-0.679012 19:-0.934426 20:-1 21:-1 22:0.392405 23:0.36 24:0.43554 25:0.581395 
695.4562567568676 1:-0.646921 2:-0.889162 3:-0.844236 4:-0.712498 5:-0.928326 6:-0.810227 7:-0.892192 8:-0.765209 9:-0.89903 10:0.207424 11:-0.534427 12:0.585014 13:-0.347826 14:-0.60452 15:-0.885057 16:-0.672131 17:-0.457627 18:-0.679012 19:-0.672131 20:-0.454546 22:-0.493671 23:-0.451429 24:-0.407666 25:-0.32093 
-1024 1:-0.523911 2:-0.879781 3:-0.683214 4:-0.824777 5:-0.772787 6:-0.845409 7:-0.820631 8:-0.819617 9:-0.816622 10:0.0467355 11:-0.803642 12:-0.123919 13:-0.93913 14:-0.502825 15:0.241379 16:0.0382514 17:-0.254237 18:-0.407407 19:-0.639344 20:-0.818182 21:-1 22:-0.316456 23:-0.245714 24:-0.219512 25:-0.190698 
1024 1:-0.556255 2:-0.982067 3:-0.79205 4:-0.976683 5:-0.853356 6:-0.988169 7:-0.768065 8:-0.972991 9:-0.813919 10:0.261933 11:-0.30753 12:0.233429 13:-0.304348 14:-0.525424 15:-0.712644 16:-0.322404 17:-0.237288 18:-0.654321 19:-0.868852 20:-1 21:-1 22:-0.518987 23:-0.485714 24:-0.477352 25:-0.474419 
-1024 1:-0.644378 2:-0.994066 3:-0.874793 4:-0.992992 5:-0.906911 6:-0.987143 7:-0.863525 8:-0.991432 9:-0.867287 10:0.644997 11:-0.445815 12:0.383285 13:-0.330435 14:-0.864407 15:-0.724138 16:-0.47541 17:-0.186441 18:-0.358025 19:-0.672131 20:-0.818182 21:-1 22:-0.696203 23:-0.68 24:-0.679443 25:-0.669767 
1024 1:-0.223631 2:-0.93485 3:-0.434216 4:-0.896181 5:-0.656202 6:-0.900828 7:-0.478917 8:-0.815241 9:-0.590244 10:-0.226089 11:-0.569009 12:-0.371758 13:-0.617391 14:-0.389831 15:-0.0114943 16:0.224044 17:-0.0338983 18:-0.481481 19:-0.934426 20:-0.818182 21:-1 22:-0.0886076 23:-0.0171428 24:-0.00348432 25:-0.00930232 
1024 1:-0.470454 2:-0.971209 3:-0.720432 4:-0.963559 5:-0.788272 6:-0.969726 7:-0.699557 8:-0.93455 9:-0.770587 10:0.186588 11:-0.27515 12:0.054755 13:-0.0608696 14:-0.627119 15:-0.62069 16:-0.36612 17:-0.152542 18:-0.555556 19:-0.901639 20:-1 21:-1 22:-0.468354 23:-0.417143 24:-0.421603 25:-0.395349 
297.7011387812669 1:-0.696563 2:-0.961231 3:-0.891091 4:-0.980709 5:-0.894292 6:-0.981338 7:-0.863555 8:-0.980367 9:-0.862366 10:0.324282 11:-0.347277 12:-0.135447 13:-0.591304 14:-0.570621 15:-0.804598 16:-0.355191 17:0.0338983 18:0.135802 19:0.803279 20:0.272727 21:1 22:-0.493671 23:-0.52 24:-0.526132 25:-0.530233 
-233.487255509435 1:-1 2:-0.988675 3:-0.942154 4:-0.995082 5:-0.943177 6:-0.996099 7:-0.920633 8:-0.997159 9:-0.923621 10:0.158567 11:-0.376336 12:-0.907781 13:-0.33913 14:0.683616 15:-0.816092 16:-0.497268 17:0.101695 18:0.283951 19:0.737705 20:0.454546 21:0.666667 22:-0.341772 23:-0.36 24:-0.358885 25:-0.339535 
-1024 1:-0.595116 2:-0.978698 3:-0.847676 4:-0.979435 5:-0.886192 6:-0.971649 7:-0.843732 8:-0.977137 9:-0.848241 10:0.436125 11:-0.376937 12:0.181556 13:-0.226087 14:-0.875706 15:-0.54023 16:-0.409836 17:0.0508475 18:-0.580247 19:-0.770492 20:-0.818182 21:-1 22:-0.518987 23:-0.497143 24:-0.491289 25:-0.483721 
1024 1:-0.277335 2:-0.909091 3:-0.563546 4:-0.897354 5:-0.702559 6:-0.862478 7:-0.577942 8:-0.787659 9:-0.673678 10:-0.058467 11:-0.524375 12:-0.233429 13:-0.678261 14:-0.435028 15:-0.367816 16:-0.0928962 17:0.491525 18:-0.234568 19:-0.737705 20:-0.818182 21:-1 22:-0.164557 23:-0.154286 24:-0.142857 25:-0.144186 
608.125366197923 1:-0.284447 2:-0.686923 3:-0.528035 4:-0.589847 5:-0.714749 6:-0.734808 7:-0.511134 8:-0.540176 9:-0.698796 10:-0.388 11:-0.71691 12:0.631124 13:-0.417391 14:-0.548023 15:-0.632184 16:-0.781421 17:-0.644068 18:-0.654321 19:-0.770492 20:-0.636363 21:-1 22:-0.265823 23:-0.142857 24:-0.0313589 25:0.139535 
76.99878601935362 1:0.19223 2:0.186198 3:-0.443267 4:-0.488348 5:-0.0206781 6:-0.163767 7:-0.375456 8:0.00761715 9:-0.412923 10:-0.741903 11:-0.569356 12:0.279539 13:-0.2 14:-0.288136 15:-0.586207 16:-0.661202 17:-0.576271 18:-0.654321 19:-0.901639 20:-1 21:-1 22:0.13924 23:0.28 24:0.407665 25:0.562791 
-1024 1:-0.297221 2:-0.95921 3:-0.373406 4:-0.879796 5:-0.679849 6:-0.8983 7:-0.52112 8:-0.85666 9:-0.582675 10:-0.337967 11:0.0789488 12:-0.435158 13:-0.46087 14:0.00564973 15:-0.54023 16:-0.202186 17:0.525424 18:-0.382716 19:-0.770492 20:-0.636363 21:-1 22:0.0126583 23:0.0514286 24:0.0313589 25:0.0697674 
-1024 1:-0.419984 2:-0.841324 3:-0.748635 4:-0.873527 5:-0.691602 6:-0.840867 7:-0.798687 8:-0.815951 9:-0.811548 10:0.573883 11:-0.442766 12:0.423631 13:-0.921739 14:-0.344633 15:-0.287356 16:-0.36612 17:-0.457627 18:-0.703704 19:-0.803279 20:-0.636363 21:-1 22:-0.746835 23:-0.68 24:-0.665505 25:-0.655814 
1024 1:-0.544164 2:-0.992122 3:-0.77224 4:-0.97495 5:-0.837674 6:-0.981118 7:-0.771194 8:-0.967218 9:-0.812297 10:0.241354 11:-0.306201 12:-0.00864554 13:0.0173913 14:-0.627119 15:-0.574713 16:-0.377049 17:-0.135593 18:-0.654321 19:-0.836066 20:-1 21:-1 22:-0.493671 23:-0.451429 24:-0.442509 25:-0.423256 
-828.9719826799228 1:-0.221891 2:-0.755727 3:-0.619989 4:-0.699069 5:-0.705167 6:-0.639445 7:-0.548403 8:-0.612041 9:-0.499463 10:-0.634389 11:-0.622914 12:0.463977 13:-0.347826 14:-0.378531 15:-0.609195 16:-0.672131 17:-0.59322 18:-0.777778 19:-0.868852 20:-0.818182 21:-1 22:0.0126583 23:0.12 24:0.240418 25:0.4 
1024 1:-0.278664 2:-0.95268 3:-0.401463 4:-0.878445 5:-0.673214 6:-0.89059 7:-0.503959 8:-0.858401 9:-0.547397 10:-0.307887 11:0.185965 12:-0.700288 13:-0.452174 14:0.186441 15:-0.402299 16:-0.300546 17:0.745763 18:-0.111111 19:-0.704918 20:-0.636363 21:-1 22:-0.0126583 23:0.0285714 24:0.0174216 25:0.0697674 
-1024 1:-0.687553 2:-0.918006 3:-0.91794 4:-0.936419 5:-0.936095 6:-0.927548 7:-0.913594 8:-0.909602 9:-0.92035 10:0.646167 11:-0.749045 12:0.412104 13:-0.391304 14:-0.706215 15:-0.689655 16:-0.68306 17:-0.152542 18:-0.358025 19:-0.672131 20:-0.454546 21:-1 22:-0.721519 23:-0.725714 24:-0.714286 25:-0.697674 
1024 1:0.591218 2:0.0841972 3:0.487402 4:0.148937 5:-0.0272954 6:0.123695 7:0.363845 8:0.245914 9:0.381845 10:-0.914147 11:0.668217 12:0.198847 13:-0.347826 14:-0.186441 15:-0.287356 16:-0.453552 17:-0.745763 18:-0.925926 19:-0.967213 20:-1 21:-1 22:0.696203 23:0.748571 24:0.790941 25:0.860465 
-248.9565933065213 1:0.726331 2:0.634912 3:0.370002 4:0.369978 5:0.16525 6:0.679096 7:0.288764 8:0.449091 9:0.755422 10:-0.897033 11:-0.0502489 12:0.429395 13:-0.156522 14:-0.288136 15:-0.632184 16:-0.737705 17:-0.762712 18:-0.851852 19:-0.934426 20:-1 21:-1 22:0.468354 23:0.6 24:0.721254 25:0.837209 
-1024 1:-0.342351 2:-0.897274 3:-0.706648 4:-0.927908 5:-0.710766 6:-0.911578 7:-0.646826 8:-0.88564 9:-0.680928 10:-0.204311 11:0.00476355 12:-0.504323 13:-0.0608696 14:-0.299435 15:-0.241379 16:-0.245902 17:0.118644 18:-0.432099 19:-0.868852 20:-0.636363 21:-1 22:-0.21519 23:-0.177143 24:-0.184669 25:-0.153488 
226.2550384654537 1:0.425969 2:-0.889862 3:0.64019 4:-0.692392 5:-0.19264 6:-0.752976 7:0.218361 8:-0.654605 9:0.0554404 10:-0.0553776 11:0.538456 12:-0.170029 13:-0.947826 14:-0.898305 15:-0.275862 16:0.803279 17:0.288136 18:-0.62963 19:-0.836066 20:-0.454546 21:-1 22:0.0126583 23:0.04 24:0.0313589 25:-0.0186047 
1024 1:-0.758631 2:-0.938815 3:-0.932188 4:-0.930991 5:-0.951107 6:-0.95198 7:-0.929146 8:-0.936566 9:-0.939313 10:-0.0892261 11:-0.839022 12:-0.239193 13:-0.617391 14:-0.378531 15:0.0344828 16:-0.0491803 17:-0.0847458 18:-0.604938 19:-0.770492 20:-0.818182 21:-1 22:-0.291139 23:-0.234286 24:-0.219512 25:-0.209302 
-56.41848564932166 1:-0.67438 2:-0.969706 3:-0.885235 4:-0.963253 5:-0.892953 6:-0.968792 7:-0.896824 8:-0.961765 9:-0.903161 10:-0.21262 11:-0.378917 12:-0.45245 13:0.217391 14:-0.435028 15:-0.689655 16:-0.278689 17:-0.20339 18:0.209877 19:-0.639344 20:-0.818182 21:-1 22:-0.113924 23:-0.0971429 24:-0.0522648 25:0.00465117 
1024 1:0.526202 2:-0.0774852 3:0.249846 4:0.150491 5:-0.194756 6:-0.166404 7:0.56209 8:0.322108 9:0.210374 10:-0.829692 11:-0.531243 12:0.51585 13:-0.208696 14:-0.0847458 15:-0.666667 16:-0.912568 17:-0.813559 18:-1 19:-0.901639 20:-1 21:-1 22:0.265823 23:0.44 24:0.533101 25:0.674419 
-1024 1:-0.602252 2:-0.95921 3:-0.824072 4:-0.961928 5:-0.875565 6:-0.963042 7:-0.832723 8:-0.956313 9:-0.843763 10:0.819863 11:-0.0628975 12:0.62536 13:-0.426087 14:-0.819209 15:-0.747126 16:-0.715847 17:-0.220339 18:-0.62963 19:-0.704918 20:-0.454546 21:-0.666667 22:-0.873418 23:-0.84 24:-0.839721 25:-0.818605 
-147.8890656001052 1:0.831037 2:0.713953 3:0.477948 4:-0.185836 5:0.41153 6:0.352496 7:0.701918 8:0.79066 9:0.374277 10:-0.79946 11:-0.284677 12:0.14121 13:-0.226087 14:0.0508475 15:-0.172414 16:-0.814208 17:-0.779661 18:-0.925926 19:-0.967213 20:-1 21:-1 22:0.518987 23:0.565714 24:0.602787 25:0.655814 
-1024 1:-0.643201 2:-0.972012 3:-0.888224 4:-0.976504 5:-0.917448 6:-0.976191 7:-0.869993 8:-0.961834 9:-0.89526 10:0.60404 11:-0.648322 12:0.510086 13:-0.773913 14:-0.864407 15:-0.689655 16:-0.508197 17:0.152542 18:-0.160494 19:-0.639344 20:-0.818182 21:-1 22:-0.670886 23:-0.668571 24:-0.672474 25:-0.688372 
635.717061253759 1:0.46581 2:-0.001218 3:-0.0861649 4:-0.769683 5:0.232094 6:-0.273232 7:0.0393226 8:-0.062117 9:-0.0725043 10:-0.532182 11:0.576523 12:-0.694524 13:-0.304348 14:-0.581921 15:0.241379 16:0.245902 17:0.20339 18:-0.580247 19:-0.836066 20:-0.818182 21:-1 22:0.291139 23:0.268571 24:0.303136 25:0.255814 
-520.8948803405767 1:0.324737 2:-0.536566 3:0.0473001 4:-0.147994 5:-0.379979 6:-0.184279 7:0.381006 8:0.541757 9:-0.157755 10:-0.601512 11:-0.51757 12:0.498559 13:-0.426087 14:-0.310734 15:-0.494253 16:-0.715847 17:-0.728814 18:-0.827161 19:-0.836066 20:-0.818182 21:-1 22:0.0126583 23:0.131429 24:0.219512 25:0.344186 
-154.8826684172089 1:-0.107385 2:-0.602804 3:-0.109989 4:-0.355937 5:-0.441143 6:-0.452895 7:-0.508411 8:-0.303781 9:-0.549726 10:0.262465 11:0.190279 12:0.170029 13:-0.634783 14:-0.231638 15:-0.149425 16:-0.519126 17:-0.525424 18:-0.62963 19:-0.672131 20:-0.636363 21:-1 22:-0.64557 23:-0.588571 24:-0.554007 25:-0.516279 
1024 1:0.165746 2:-0.688271 3:-0.0707825 4:-0.646446 5:-0.338436 6:-0.568258 7:-0.253781 8:-0.474749 9:-0.308738 10:-0.549045 11:0.228462 12:-0.521614 13:-0.617391 14:-0.548023 15:-0.0574713 16:0.245902 17:-0.0508475 18:0.259259 19:-0.573771 20:-0.454546 21:-1 22:0.189873 23:0.28 24:0.337979 25:0.344186 
-1024 1:-0.660518 2:-0.926532 3:-0.863144 4:-0.979359 5:-0.864126 6:-0.961155 7:-0.834753 8:-0.954457 9:-0.834268 10:0.249318 11:-0.346315 12:-0.164265 13:-0.556522 14:-0.536723 15:-0.83908 16:-0.344262 17:0.0847458 18:0.209877 19:0.606557 20:0.272727 21:1 22:-0.493671 23:-0.462857 24:-0.477352 25:-0.474419 
776.8182465373916 1:0.543329 2:-0.229035 3:-0.102755 4:-0.92592 5:0.283746 6:-0.432438 7:0.0608 8:-0.280185 9:-0.0214789 10:-0.195991 11:0.882201 12:-0.0720461 13:-0.791304 14:-0.830508 15:-0.252874 16:0.26776 17:0.271186 18:-0.45679 19:-0.737705 20:-1 21:-1 22:-0.113924 23:-0.108571 24:-0.0940767 25:-0.125581 
-1024 1:-0.287699 2:-0.901342 3:-0.620379 4:-0.953544 5:-0.692557 6:-0.907549 7:-0.5885 8:-0.882891 9:-0.626645 10:0.188923 11:0.319357 12:0.0662824 13:-0.478261 14:-0.80791 15:-0.574713 16:0.00546449 17:0.338983 18:-0.753086 19:-0.803279 20:-1 21:-1 22:-0.291139 23:-0.268571 24:-0.296167 25:-0.325581 
1024 1:0.106 2:-0.620685 3:-0.286893 4:-0.953009 5:-0.14388 6:-0.738087 7:-0.113155 8:-0.685372 9:-0.166197 10:-0.191918 11:-0.093967 12:-0.463977 13:-0.417391 14:-0.20904 15:-0.264368 16:0.245902 17:-0.271186 18:-0.333333 19:-0.803279 20:-0.636363 21:-1 22:-0.13924 23:-0.0857143 24:-0.0522648 25:-0.0418605 
-587.0824835531625 1:-0.648009 2:-0.973126 3:-0.894714 4:-0.977371 5:-0.91001 6:-0.980404 7:-0.870113 8:-0.975144 9:-0.875451 10:0.248317 11:-0.391201 12:0.118156 13:-0.678261 14:-0.740113 15:-0.528736 16:0.224044 17:-0.169492 18:-0.407407 19:-0.868852 20:-0.636363 21:-1 22:-0.443038 23:-0.405714 24:-0.407666 25:-0.423256 
-1024 1:-0.146138 2:-0.781797 3:-0.496551 4:-0.803575 5:-0.558844 6:-0.702282 7:-0.55466 8:-0.67087 9:-0.566901 10:-0.397368 11:-0.163071 12:-0.463977 13:-0.652174 14:-0.581921 15:0.0344828 16:0.245902 17:-0.118644 18:0.209877 19:-0.704918 20:-0.636363 21:-1 22:0.0886076 23:0.131429 24:0.205575 25:0.218605 
-779.4594328374342 1:-0.231913 2:-0.532316 3:-0.677956 4:-0.47897 5:-0.759186 6:-0.592689 7:-0.499101 8:-0.458598 9:-0.564156 10:-0.42086 11:-0.763971 12:0.706052 13:-0.365217 14:-0.581921 15:-0.781609 16:-0.781421 17:-0.644068 18:-0.555556 19:-0.934426 20:-1 21:-1 22:-0.291139 23:-0.177143 24:-0.0662021 25:0.116279 
-1024 1:-0.381864 2:-0.611978 3:-0.745903 4:-0.627996 5:-0.788066 6:-0.717794 7:-0.735067 8:-0.678728 9:-0.707127 10:-0.375923 11:-0.992181 12:0.896254 13:-0.486957 14:-0.649717 15:-0.862069 16:-0.748634 17:-0.745763 18:-0.802469 19:-0.803279 20:-0.454546 21:-1 22:-0.367089 23:-0.268571 24:-0.156794 25:0.0325581 
-1024 1:-0.120425 2:-0.525656 3:-0.578684 4:-0.512863 5:-0.607639 6:-0.598018 7:-0.523587 8:-0.509158 9:-0.560219 10:-0.518549 11:-0.680009 12:0.56196 13:-0.478261 14:-0.480226 15:-0.574713 16:-0.661202 17:-0.59322 18:-0.802469 19:-0.704918 20:-1 21:-1 22:-0.13924 23:0.00571428 24:0.087108 25:0.260465 
1024 1:-0.607055 2:-0.92407 3:-0.875355 4:-0.943351 5:-0.900365 6:-0.950258 7:-0.871482 8:-0.939109 9:-0.87656 10:0.466609 11:-0.0325715 12:0.435158 13:-0.6 14:-0.841808 15:-0.724138 16:-0.595628 17:0.0508475 18:-0.209877 19:-0.606557 20:0.636363 21:-0.666667 22:-0.594937 23:-0.565714 24:-0.560976 25:-0.55814 
-125.8873389410723 1:-0.483874 2:-0.999404 3:-0.687191 4:-0.993553 5:-0.781878 6:-0.986997 7:-0.669808 8:-0.982681 9:-0.711008 10:0.557611 11:-0.568594 12:0.342939 13:-0.695652 14:-0.785311 15:-0.54023 16:-0.289617 17:2.22045e-16 18:-0.358025 19:-0.737705 20:-0.818182 21:-1 22:-0.620253 23:-0.588571 24:-0.58885 25:-0.6 
-1024 1:0.0317078 2:-0.685809 3:-0.362439 4:-0.984226 5:-0.225985 6:-0.786235 7:-0.200945 8:-0.741704 9:-0.249187 10:-0.0198615 11:-0.280009 12:-0.417867 13:-0.191304 14:-0.344633 15:-0.390805 16:0.147541 17:-0.305085 18:-0.333333 19:-0.803279 20:-0.636363 21:-1 22:-0.265823 23:-0.234286 24:-0.191638 25:-0.176744 
-1024 1:-0.746496 2:-0.943376 3:-0.858325 4:-0.9433 5:-0.943962 6:-0.958317 7:-0.901427 8:-0.947814 9:-0.908761 10:0.854642 11:-0.652769 12:0.746398 13:-0.765217 14:-0.661017 15:-0.954023 16:-0.650273 17:-0.338983 18:-0.259259 19:-0.606557 20:0.090909 22:-0.873418 23:-0.84 24:-0.839721 25:-0.837209 
1024 1:-0.583037 2:-0.96968 3:-0.843089 4:-0.987207 5:-0.871949 6:-0.976594 7:-0.848229 8:-0.972807 9:-0.855684 10:0.434136 11:-0.0158211 12:0.0662824 13:0.00869564 14:-0.875706 15:-0.689655 16:-0.311475 17:0.118644 18:-0.703704 19:-0.836066 20:-0.818182 21:-1 22:-0.417722 23:-0.428571 24:-0.421603 25:-0.432558 
-1024 1:0.269705 2:-0.816368 3:0.313181 4:-0.603761 5:-0.252535 6:-0.602231 7:-0.0300879 8:-0.498734 9:-0.0982319 10:-0.253279 11:0.620286 12:-0.0720461 13:-0.965217 14:-0.762712 15:-0.16092 16:0.125683 17:0.610169 18:-0.530864 19:-0.672131 20:-1 21:-1 22:0.164557 23:0.211429 24:0.205575 25:0.172093 
-1024 1:-0.641897 2:-0.968099 3:-0.8897 4:-0.975562 5:-0.911135 6:-0.980385 7:-0.883634 8:-0.982131 9:-0.878265 10:0.201754 11:-0.260747 12:0.533141 13:-0.617391 14:-0.841808 15:-0.551724 16:-0.442623 17:-0.254237 18:-0.604938 19:-0.737705 20:-0.272728 21:-1 22:-0.468354 23:-0.405714 24:-0.38676 25:-0.35814 
-98.88813209301119 1:-0.465273 2:-0.980512 3:-0.71626 4:-0.977982 5:-0.782164 6:-0.975184 7:-0.673477 8:-0.941125 9:-0.748588 10:0.365228 11:-0.551431 12:0.256484 13:-0.747826 14:-0.819209 15:-0.436782 16:-0.377049 17:0.118644 18:-0.160494 19:-0.508197 20:-0.636363 21:-1 22:-0.544304 23:-0.531429 24:-0.533101 25:-0.534884 
1024 1:-0.648073 2:-0.893749 3:-0.839344 4:-0.724119 5:-0.924611 6:-0.82041 7:-0.885905 8:-0.775036 9:-0.894484 10:-0.0388015 11:-0.551812 12:0.538905 13:-0.495652 14:-0.457627 15:-0.712644 16:-0.562842 17:-0.508475 18:-0.753086 19:-0.737705 20:-0.818182 21:-1 22:-0.367089 23:-0.302857 24:-0.233449 25:-0.144186 
1024 1:-0.971402 2:-0.944283 3:-0.963197 4:-0.970771 5:-0.964127 6:-0.971027 7:-0.937418 8:-0.964606 9:-0.939798 10:0.356954 11:-0.396827 12:-0.216138 13:-0.495652 14:-0.559322 15:-0.701149 16:-0.431694 17:0.0169491 18:0.333333 19:0.606557 20:0.272727 21:0.666667 22:-0.518987 23:-0.52 24:-0.54007 25:-0.548837 
104.717544931119 1:-0.935724 2:-0.0927231 3:-0.804578 4:-0.187977 5:-0.823618 6:-0.248013 7:-0.877813 8:-0.0939143 9:-0.868077 10:-0.544879 11:-0.0787833 12:-0.51585 13:-0.565217 14:-0.446328 15:-0.505747 16:-0.114754 17:0.118644 18:0.876543 19:-0.147541 20:0.272727 21:0.333333 22:0.240506 23:0.234286 24:0.268293 25:0.325581 
1024 1:-0.438339 2:-0.971053 3:-0.636481 4:-0.933897 5:-0.802096 6:-0.936504 7:-0.70619 8:-0.924951 9:-0.725355 10:0.0565595 11:-0.624626 12:-0.100865 13:-0.66087 14:-0.480226 15:-0.275862 16:-0.0273224 17:0.135593 18:-0.604938 19:-0.737705 20:-0.636363 21:-1 22:-0.291139 23:-0.245714 24:-0.240418 25:-0.251163 
1024 1:-0.557818 2:-0.881466 3:-0.744866 4:-0.869934 5:-0.831075 6:-0.897824 7:-0.813772 8:-0.874689 9:-0.825355 10:0.415664 11:-0.677365 12:0.365994 13:-0.791304 14:-0.60452 15:-0.310345 16:-0.125683 17:-0.40678 18:-0.777778 19:-0.836066 20:-0.818182 21:-1 22:-0.696203 23:-0.634286 24:-0.637631 25:-0.655814 
658.4000374666707 1:-0.429974 2:-0.902483 3:-0.705001 4:-0.959533 5:-0.760311 6:-0.92112 7:-0.695286 8:-0.898583 9:-0.721654 10:-0.299058 11:-0.0393527 12:-0.78098 13:-0.521739 14:0.661017 15:-0.689655 16:-0.0601093 17:-0.0508475 18:0.382716 19:-0.442623 20:-0.272728 21:-1 22:-0.113924 23:-0.0857143 24:-0.0243902 25:0.027907 
-1024 1:-0.628168 2:-0.993729 3:-0.853434 4:-0.990138 5:-0.890175 6:-0.995586 7:-0.826782 8:-0.989645 9:-0.854534 10:0.55956 11:-0.398942 12:0.469741 13:-0.66087 14:-0.570621 15:-0.666667 16:-0.420765 17:-0.101695 18:-0.654321 19:-0.836066 20:-1 21:-1 22:-0.772152 23:-0.737143 24:-0.735192 25:-0.744186 
-896.5266528267357 1:0.362889 2:-0.6197 3:0.0970949 4:-0.105233 5:-0.401912 6:-0.263031 7:0.417283 8:0.584184 9:-0.1974 10:-0.72277 11:-0.465298 12:0.389049 13:-0.469565 14:-0.231638 15:-0.218391 16:-0.748634 17:-0.762712 18:-0.876543 19:-0.836066 20:-0.818182 21:-1 22:0.21519 23:0.36 24:0.428571 25:0.539535 
1024 1:-0.582734 2:-0.953923 3:-0.713637 4:-0.939987 5:-0.813929 6:-0.940698 7:-0.783466 8:-0.927792 9:-0.800251 10:0.318068 11:-0.579787 12:0.25072 13:-0.782609 14:-0.480226 15:-0.482759 16:-0.245902 17:-0.169492 18:-0.382716 19:-0.770492 20:-0.454546 21:-1 22:-0.56962 23:-0.554286 24:-0.54007 25:-0.539535 
308.2965934810014 1:0.542468 2:0.11856 3:0.188365 4:0.14491 5:0.372299 6:0.331819 7:-0.198433 8:0.271342 9:-0.0772174 10:-0.8668 11:0.037309 12:0.00288184 13:-0.130435 14:-0.00564969 15:-0.195402 16:-0.79235 17:-0.576271 18:-0.876543 19:-0.836066 20:-1 21:-1 22:0.493671 23:0.702857 24:0.728223 25:0.809302 
1024 1:-0.419668 2:-0.908754 3:-0.687532 4:-0.967076 5:-0.749443 6:-0.925955 7:-0.709634 8:-0.906166 9:-0.735904 10:-0.334697 11:-0.0366582 12:-0.550432 13:0.121739 14:-0.355932 15:-0.632184 16:-0.26776 17:-0.118644 18:0.358025 19:-0.573771 20:-0.454546 21:-1 22:-0.0379747 23:-0.0171428 24:0.0383275 25:0.116279 
-1024 1:-0.663915 2:-0.987768 3:-0.838929 4:-0.986749 5:-0.893149 6:-0.986319 7:-0.871903 8:-0.983002 9:-0.880968 10:-0.23194 11:-0.377549 12:-0.400576 13:0.0869565 14:-0.412429 15:-0.517241 16:-0.333333 17:-0.0508475 18:-0.135803 19:-0.639344 20:-1 21:-1 22:-0.113924 23:-0.0971429 24:-0.0452962 25:0.0139535 
-1024 1:-0.456459 2:-0.973049 3:-0.621001 4:-0.894678 5:-0.83671 6:-0.947914 7:-0.691977 8:-0.871574 9:-0.794956 10:-0.132313 11:-0.370732 12:-0.262248 13:-0.0173913 14:-0.570621 15:-0.505747 16:-0.0163934 17:-0.355932 18:-0.333333 19:-0.770492 20:-0.636363 21:-1 22:-0.13924 23:-0.0857143 24:-0.0452962 25:-0.0325581 
-1024 1:-0.246769 2:-0.710843 3:-0.477155 4:-0.538448 5:-0.715856 6:-0.665543 7:-0.536988 8:-0.457155 9:-0.697756 10:-0.6225 11:-0.20238 12:0.446686 13:-0.391304 14:-0.20904 15:-0.747126 16:-0.551913 17:-0.59322 18:-0.802469 19:-1 20:-1 21:-1 22:0.113924 23:0.188571 24:0.317073 25:0.47907 
-1024 1:-0.749045 2:-0.93244 3:-0.835331 4:-0.905432 5:-0.887791 6:-0.897257 7:-0.856231 8:-0.89856 9:-0.837844 10:-0.362208 11:-0.849399 12:-0.51585 13:-0.521739 14:0.039548 15:0.390805 16:-0.300546 17:-0.322034 18:-0.481481 19:-0.737705 20:-0.818182 21:-1 22:-0.113924 23:0.00571428 24:0.101045 25:0.153488 
-343.4857255245429 1:0.815555 2:0.165492 3:0.802944 4:0.289783 5:0.291462 6:0.569961 7:0.458749 8:0.520727 9:0.697867 10:-0.912836 11:0.251628 12:0.268012 13:-0.243478 14:-0.152542 15:-0.367816 16:-0.617486 17:-0.813559 18:-0.925926 19:-1 20:-1 21:-1 22:0.696203 23:0.725714 24:0.783972 25:0.865116 
1024 1:-0.626978 2:-0.977221 3:-0.844882 4:-0.986468 5:-0.862742 6:-0.980605 7:-0.83537 8:-0.977 9:-0.844734 10:-0.175424 11:-0.349811 12:-0.613833 13:-0.0782609 14:0.039548 15:-0.712644 16:-0.147541 17:-0.135593 18:0.333333 19:-0.639344 20:-0.636363 21:-1 22:-0.189873 23:-0.177143 24:-0.135889 25:-0.0976744 
1024 1:-0.435283 2:-0.991008 3:-0.749001 4:-0.998726 5:-0.798551 6:-0.987125 7:-0.710912 8:-0.983895 9:-0.733118 10:0.359125 11:0.0355486 12:0.25072 13:-0.643478 14:-0.79661 15:-0.528736 16:-0.180328 17:0.186441 18:-0.654321 19:-0.672131 20:-1 21:-1 22:-0.493671 23:-0.462857 24:-0.477352 25:-0.497674 
1024 1:-0.639759 2:-0.989142 3:-0.900215 4:-0.991769 5:-0.917082 6:-0.991246 7:-0.871602 8:-0.995945 9:-0.875784 10:0.532656 11:-0.192822 12:0.446686 13:-0.704348 14:-0.683616 15:-0.551724 16:-0.464481 17:-0.169492 18:-0.506173 19:-0.606557 20:-0.272728 21:-1 22:-0.696203 23:-0.668571 24:-0.658537 25:-0.655814 
1024 1:-0.885937 2:-0.952213 3:-0.99867 4:-0.961622 5:-0.991168 6:-0.987345 7:-0.984749 8:-0.986117 9:-0.985182 10:0.593256 11:-0.898011 12:0.475504 13:-0.695652 14:-0.717514 15:-0.574713 16:-0.355191 17:-0.169492 18:-0.580247 19:-0.770492 20:-0.818182 21:-1 22:-0.797468 23:-0.76 24:-0.763066 25:-0.781395 
-1024 1:0.456491 2:-0.16842 3:0.0937281 4:-0.282494 5:-0.0670352 6:-0.217922 7:0.288133 8:0.0893555 9:0.0755262 10:-0.872833 11:0.169068 12:0.400576 13:-0.443478 14:-0.299435 15:-0.448276 16:-0.530055 17:-0.559322 18:-1 19:-1 20:-1 21:-1 22:0.56962 23:0.611429 24:0.686411 25:0.804651 
1024 1:-0.737157 2:-0.954856 3:-0.954097 4:-0.961801 5:-0.962037 6:-0.967858 7:-0.941433 8:-0.958375 9:-0.94623 10:0.856754 11:-0.783941 12:0.700288 13:-0.652174 14:-0.819209 15:-0.712644 16:-0.693989 17:-0.254237 18:-0.382716 19:-0.672131 20:-0.454546 21:-1 22:-0.898734 23:-0.874286 24:-0.874564 25:-0.883721 
174.3706894113229 1:0.751057 2:0.277599 3:0.501223 4:0.518112 5:0.0123283 6:0.154884 7:1 8:0.854117 9:0.490009 10:-0.897969 11:-0.400133 12:0.533141 13:-0.165217 14:-0.0169492 15:-0.643678 16:-0.978142 17:-0.966102 18:-0.950617 19:-1 20:-1 21:-1 22:0.493671 23:0.611429 24:0.686411 25:0.790698 
-1024 1:-0.13697 2:-0.740023 3:-0.577867 4:-0.794784 5:-0.650076 6:-0.585766 7:-0.323297 8:-0.433147 9:-0.405438 10:-0.661515 11:-0.690934 12:0.458213 13:-0.269565 14:-0.265537 15:-0.735632 16:-0.693989 17:-0.627119 18:-0.876543 19:-0.803279 20:-1 21:-1 22:-0.0126583 23:0.108571 24:0.240418 25:0.4 
-1024 1:-0.590902 2:-0.915492 3:-0.810934 4:-0.896028 5:-0.871315 6:-0.899839 7:-0.809757 8:-0.873842 9:-0.823567 10:0.00763859 11:-0.357727 12:-0.0201729 13:-0.730435 14:-0.40113 15:-0.712644 16:-0.0163934 17:0.0508475 18:0.0617284 19:-0.639344 20:-0.818182 21:-1 22:-0.265823 23:-0.245714 24:-0.219512 25:-0.218605 
366.1905267868668 1:0.833384 2:0.737742 3:0.476472 4:-0.200693 5:0.412762 6:0.370481 7:0.697316 8:0.808117 9:0.375205 10:-0.79523 11:-0.283694 12:0.112392 13:-0.234783 14:0.0734463 15:-0.149425 16:-0.814208 17:-0.745763 18:-0.925926 19:-0.967213 20:-1 21:-1 22:0.493671 23:0.554286 24:0.595819 25:0.651163 
-611.5631890513172 1:-0.10438 2:-0.634938 3:-0.418931 4:-0.66724 5:-0.496984 6:-0.491209 7:-0.46872 8:-0.51768 9:-0.357046 10:-0.813596 11:-0.278135 12:0.135447 13:-0.26087 14:0.107345 15:-0.206897 16:-0.79235 17:-0.79661 18:-0.876543 19:-0.967213 20:-1 21:-1 22:0.493671 23:0.565714 24:0.602787 25:0.660465 
1024 1:0.0339729 2:-0.498056 3:-0.295225 4:-0.571347 5:-0.44108 6:-0.519596 7:-0.349677 8:-0.384374 9:-0.396844 10:-0.688008 11:0.093704 12:0.383285 13:-0.573913 14:-0.706215 15:-0.563218 16:-0.300546 17:-0.0508475 18:-0.703704 19:-0.967213 20:-1 21:-1 22:0.367089 23:0.371429 24:0.421603 25:0.590698 
1024 1:-0.687794 2:-0.990671 3:-0.894287 4:-0.998853 5:-0.900213 6:-0.993517 7:-0.879167 8:-0.992738 9:-0.885501 10:0.0131503 11:-0.420284 12:-0.619597 13:0.208696 14:-0.20904 15:-0.712644 16:-0.256831 17:-0.20339 18:0.432099 19:-0.639344 20:-0.636363 21:-1 22:-0.316456 23:-0.314286 24:-0.28223 25:-0.24186 
1024 1:-0.676209 2:-0.994869 3:-0.911462 4:-0.999006 5:-0.925316 6:-0.999469 7:-0.88962 8:-1 9:-0.89562 10:0.490944 11:-0.21151 12:0.331412 13:-0.747826 14:-0.785311 15:-0.655172 16:-0.191257 17:0.186441 18:-0.283951 19:-0.901639 20:-0.818182 21:-1 22:-0.518987 23:-0.52 24:-0.54007 25:-0.55814 
-1024 1:-0.0589393 2:-0.582772 3:-0.152159 4:-0.563753 5:-0.381051 6:-0.490147 7:-0.515149 8:-0.399929 9:-0.526549 10:0.0640138 11:0.0810649 12:-0.135447 13:-0.556522 14:-0.514124 15:-0.448276 16:-0.114754 17:-0.0169491 18:-0.160494 19:-0.573771 20:0.272727 21:-0.666667 22:-0.367089 23:-0.314286 24:-0.296167 25:-0.274419 
1024 1:0.167156 2:-0.501218 3:-0.234537 4:-0.481926 5:-0.406359 6:-0.207099 7:0.0316371 8:0.0495401 9:-0.0855483 10:-0.896576 11:0.242273 12:0.239193 13:-0.504348 14:0.0621469 15:-0.126437 16:-0.759563 17:-0.677966 18:-0.950617 19:-0.967213 20:-1 21:-1 22:0.64557 23:0.691429 24:0.74216 25:0.8 
1024 1:-0.643334 2:-0.981004 3:-0.872024 4:-0.988125 5:-0.899427 6:-0.982327 7:-0.864398 8:-0.979565 9:-0.871196 10:-0.00471305 11:-0.102349 12:-0.62536 13:0.565217 14:-0.762712 15:-0.689655 16:-0.0710382 17:0.305085 18:-0.333333 19:-0.901639 20:-0.818182 21:-1 22:-0.164557 23:-0.154286 24:-0.170732 25:-0.15814 
-1024 1:-0.648946 2:-0.971105 3:-0.895543 4:-0.975485 5:-0.914475 6:-0.966906 7:-0.884461 8:-0.958627 9:-0.892099 10:0.644822 11:-0.123046 12:0.256484 13:-0.686957 14:-0.446328 15:-0.770115 16:-0.519126 17:-0.0677966 18:-0.0864198 19:-0.508197 20:1 21:-0.666667 22:-0.670886 23:-0.657143 24:-0.658537 25:-0.651163 
1024 1:-0.451353 2:-0.97875 3:-0.643105 4:-0.936802 5:-0.813643 6:-0.94209 7:-0.715981 8:-0.934504 9:-0.730664 10:-0.00979764 11:-0.625209 12:-0.14121 13:-0.704348 14:-0.367232 15:-0.264368 16:-0.00546446 17:0.118644 18:-0.580247 19:-0.770492 20:-0.636363 21:-1 22:-0.291139 23:-0.222857 24:-0.198606 25:-0.209302 
-87.19527923598362 1:-0.691451 2:-0.969187 3:-0.8715 4:-0.985882 5:-0.860857 6:-0.975953 7:-0.842815 8:-0.972899 9:-0.843805 10:0.147415 11:-0.316375 12:-0.942363 13:-0.608696 14:0.977401 15:-0.781609 16:-0.409836 17:-0.0508475 18:0.283951 19:1 20:0.454546 21:1 22:-0.341772 23:-0.348571 24:-0.344948 25:-0.334884 
-1024 1:-0.393322 2:-0.981549 3:-0.540271 4:-0.943962 5:-0.737467 6:-0.95458 7:-0.579988 8:-0.930724 9:-0.647161 10:0.169924 11:-0.127126 12:0.054755 13:-0.765217 14:-0.581921 15:-0.505747 16:-0.191257 17:0.135593 18:0.0617284 19:-0.672131 20:-0.636363 21:-1 22:-0.367089 23:-0.348571 24:-0.324042 25:-0.344186 
1024 1:-0.881103 2:-0.948507 3:-0.986825 4:-0.961826 5:-0.980461 6:-0.96469 7:-0.96992 8:-0.956794 9:-0.971805 10:0.476082 11:-0.871208 12:0.342939 13:-0.652174 14:-0.79661 15:-0.471264 16:-0.245902 17:-0.0338983 18:-0.62963 19:-0.770492 20:-0.818182 21:-1 22:-0.620253 23:-0.6 24:-0.602787 25:-0.623256 
1024 1:-0.584233 2:-0.921582 3:-0.726739 4:-0.920008 5:-0.828994 6:-0.931852 7:-0.800011 8:-0.917895 9:-0.813434 10:0.44984 11:-0.646153 12:0.389049 13:-0.73913 14:-0.435028 15:-0.413793 16:-0.442623 17:-0.389831 18:-0.62963 19:-0.639344 20:-0.818182 21:-1 22:-0.696203 23:-0.668571 24:-0.658537 25:-0.64186 
-1024 1:-0.255298 2:-0.677309 3:-0.485487 4:-0.55858 5:-0.694441 6:-0.684425 7:-0.535739 8:-0.531081 9:-0.661092 10:-0.49222 11:-0.713474 12:0.579251 13:-0.373913 14:-0.446328 15:-0.643678 16:-0.803279 17:-0.677966 18:-0.654321 19:-0.770492 20:-0.636363 21:-1 22:-0.189873 23:-0.0514286 24:0.0731707 25:0.260465 
1024 1:-0.387482 2:-0.899762 3:-0.664587 4:-0.947097 5:-0.727823 6:-0.90645 7:-0.656467 8:-0.883188 9:-0.683936 10:-0.298689 11:-0.00356133 12:-0.78098 13:-0.452174 14:0.559322 15:-0.666667 16:-0.0819672 17:-0.0338983 18:0.382716 19:-0.409836 20:-0.454546 21:-1 22:-0.0886076 23:-0.0742857 24:-0.0313589 25:0.027907 
-1024 1:-0.421604 2:-0.963408 3:-0.735473 4:-0.988634 5:-0.788352 6:-0.96958 7:-0.70804 8:-0.961468 9:-0.732259 10:0.148381 11:0.164883 12:-0.602305 13:0.756522 14:-0.830508 15:-0.678161 16:-0.180328 17:0.237288 18:-0.62963 19:-0.704918 20:-1 21:-1 22:-0.341772 23:-0.302857 24:-0.310105 25:-0.306977 
594.2233291790444 1:-0.337752 2:-0.618716 3:-0.73368 4:-0.641833 5:-0.808678 6:-0.708454 7:-0.770938 8:-0.624412 9:-0.787318 10:0.0584611 11:0.17313 12:0.694524 13:-0.443478 14:-0.548023 15:-0.83908 16:-0.650273 17:-0.559322 18:-0.851852 19:-0.770492 20:-0.636363 21:-0.666667 22:-0.493671 23:-0.405714 24:-0.344948 25:-0.255814 
-1024 1:-0.141804 2:-0.695631 3:-0.572231 4:-0.907343 5:-0.554209 6:-0.767444 7:-0.502395 8:-0.708097 9:-0.551985 10:-0.091941 11:0.187655 12:-0.00864554 13:-0.756522 14:-0.638418 15:-0.149425 16:-0.0601093 17:0.118644 18:-0.45679 19:-0.868852 20:-0.636363 21:-1 22:-0.240506 23:-0.177143 24:-0.198606 25:-0.218605 
1024 1:-0.801977 2:-0.904685 3:-0.979104 4:-0.913077 5:-0.979889 6:-0.953811 7:-0.969468 8:-0.944263 9:-0.971736 10:0.728451 11:-0.798972 12:0.700288 13:-0.756522 14:-0.728814 15:-0.563218 16:-0.453552 17:-0.40678 18:-0.753086 19:-0.836066 20:-0.818182 21:-1 22:-0.974683 23:-0.931429 24:-0.930314 25:-0.944186 
1024 1:-0.731545 2:-0.977039 3:-0.932054 4:-0.981779 5:-0.936613 6:-0.975477 7:-0.91394 8:-0.970975 9:-0.921611 10:-0.129909 11:-0.494378 12:-0.648415 13:-0.0782609 14:-0.107345 15:-0.505747 16:-0.289617 17:0.474576 18:-0.308642 19:-0.573771 20:-0.272728 21:-1 22:-0.21519 23:-0.12 24:-0.149826 25:-0.12093 
1024 1:-0.343933 2:-0.718773 3:-0.694681 4:-0.727279 5:-0.795059 6:-0.756126 7:-0.756725 8:-0.724271 9:-0.746273 10:-0.328863 11:-0.200726 12:0.429395 13:-0.617391 14:-0.502825 15:-0.321839 16:-0.486339 17:-0.474576 18:-0.753086 19:-0.901639 20:-1 21:-1 22:-0.0126583 23:0.0514286 24:0.114983 25:0.186047 
1024 1:-0.27631 2:-0.784363 3:-0.630504 4:-0.771543 5:-0.689324 6:-0.77217 7:-0.623363 8:-0.684387 9:-0.680845 10:-0.571742 11:-0.24895 12:0.458213 13:-0.478261 14:-0.559322 15:-0.666667 16:-0.540984 17:-0.20339 18:-0.753086 19:-0.803279 20:-1 21:-1 22:0.113924 23:0.142857 24:0.247387 25:0.409302 
1024 1:-0.161291 2:-0.83202 3:-0.459186 4:-0.863486 5:-0.596423 6:-0.773653 7:-0.626236 8:-0.763376 9:-0.604106 10:0.0782436 11:0.111851 12:-0.037464 13:-0.869565 14:-0.548023 15:-0.0574713 16:-0.0273224 17:0.0338983 18:-0.555556 19:-0.672131 20:-0.272728 21:-1 22:-0.316456 23:-0.268571 24:-0.233449 25:-0.227907 
-161.371725569733 1:0.663125 2:-0.349772 3:0.153904 4:-0.959609 5:0.455726 6:-0.478517 7:0.348594 8:-0.393125 9:0.304108 10:-0.341531 11:0.329862 12:-0.429395 13:-0.652174 14:-0.649717 15:-0.218391 16:0.879781 17:-0.101695 18:-0.530864 19:-0.934426 20:-0.636363 21:-1 22:0.240506 23:0.291429 24:0.268293 25:0.2 
-513.6028068855943 1:0.128714 2:-0.71232 3:-0.140485 4:-0.671113 5:-0.316163 6:-0.600637 7:-0.235056 8:-0.492572 9:-0.306187 10:-0.581437 11:0.264391 12:-0.585014 13:-0.608696 14:-0.423729 15:0.0229885 16:0.180328 17:-0.101695 18:0.308642 19:-0.606557 20:-0.454546 21:-1 22:0.240506 23:0.325714 24:0.372822 25:0.390698 
1024 1:-0.673457 2:-0.985876 3:-0.852409 4:-0.983028 5:-0.901812 6:-0.982528 7:-0.858261 8:-0.978305 9:-0.868465 10:-0.217523 11:-0.379296 12:-0.631124 13:-0.104348 14:0.118644 15:-0.747126 16:-0.103825 17:0.0169491 18:0.0617284 19:-0.606557 20:-0.818182 21:-1 22:-0.113924 23:-0.12 24:-0.087108 25:-0.0418605 
700.5345647833625 1:0.181354 2:-0.950244 3:-0.175886 4:-0.975256 5:-0.164009 6:-0.93894 7:-0.00871579 8:-0.927013 9:-0.163189 10:-0.148702 11:1 12:-0.285303 13:-0.756522 14:-0.525424 15:0.609195 16:0.125683 17:-0.440678 18:-0.654321 19:-0.967213 20:-0.818182 21:-1 22:0.0886076 23:0.142857 24:0.0452962 25:0.00930232 
614.6720719238798 1:-0.64644 2:-0.939774 3:-0.839405 4:-0.916262 5:-0.877092 6:-0.931797 7:-0.836287 8:-0.911893 9:-0.847811 10:0.612781 11:0.0497428 12:0.446686 13:-0.26087 14:-0.751412 15:-0.632184 16:-0.562842 17:-0.491525 18:-0.604938 19:-0.704918 20:-0.818182 21:-1 22:-0.746835 23:-0.714286 24:-0.700348 25:-0.688372 
-1024 1:-0.564746 2:-0.896056 3:-0.808762 4:-0.931679 5:-0.859687 6:-0.9146 7:-0.787828 8:-0.894505 9:-0.802954 10:0.864085 11:-0.0397287 12:0.665706 13:-0.626087 14:-0.751412 15:-0.735632 16:-0.68306 17:-0.169492 18:-0.580247 19:-0.672131 20:-0.454546 21:-0.666667 22:-0.898734 23:-0.885714 24:-0.881533 25:-0.883721 
-420.5383632157868 1:0.205751 2:-0.214056 3:-0.254481 4:-0.234204 5:-0.361833 6:-0.374528 7:-0.167931 8:-0.193384 9:-0.280266 10:-0.767425 11:-0.276909 12:0.446686 13:-0.426087 14:-0.40113 15:-0.551724 16:-0.628415 17:-0.576271 18:-0.604938 19:-0.934426 20:-1 21:-1 22:0.240506 23:0.348571 24:0.463415 25:0.627907 
-1024 1:-0.0983629 2:-0.56401 3:-0.0904101 4:-0.483175 5:-0.456244 6:-0.492784 7:-0.499989 8:-0.389414 9:-0.526091 10:0.298432 11:0.197853 12:0.210375 13:-0.478261 14:-0.378531 15:-0.321839 16:-0.519126 17:-0.457627 18:-0.654321 19:-0.639344 20:-0.818182 21:-1 22:-0.670886 23:-0.6 24:-0.581882 25:-0.553488 
-235.1033703356674 1:-0.0239256 2:-0.484192 3:-0.110574 4:-0.0445829 5:-0.574981 6:-0.19796 7:-0.447694 8:-0.23533 9:-0.373237 10:-0.900953 11:-0.221564 12:0.0893372 13:-0.208696 14:-0.0282486 15:-0.482759 16:-0.551913 17:-0.694915 18:-0.753086 19:-0.868852 20:-0.636363 21:-1 22:0.64557 23:0.68 24:0.763066 25:0.855814 
-1024 1:0.331937 2:-0.966518 3:0.0892512 4:-0.961954 5:-0.105694 6:-0.806271 7:-0.228694 8:-0.968249 9:0.42655 10:-0.437793 11:0.176127 12:0.0662824 13:-0.147826 14:-0.378531 15:-0.0344828 16:-0.595628 17:-0.694915 18:-0.851852 19:-0.901639 20:-1 21:-1 22:-0.0379747 23:0.222857 24:0.135888 25:0.162791 
-1024 1:0.174331 2:-0.69094 3:0.00554427 4:-0.382185 5:-0.427042 6:-0.580345 7:-0.112538 8:-0.354203 9:-0.170119 10:-0.798383 11:0.0739568 12:0.400576 13:-0.4 14:-0.423729 15:-0.517241 16:-0.398907 17:-0.694915 18:-0.827161 19:-0.967213 20:-1 21:-1 22:0.417722 23:0.462857 24:0.54007 25:0.683721 
-1024 1:-0.702219 2:-0.933814 3:-0.881088 4:-0.920696 5:-0.905455 6:-0.971063 7:-0.875076 8:-0.969463 9:-0.870322 10:-0.172341 11:-0.568909 12:-0.0489914 13:-0.243478 14:-0.412429 15:-0.54023 16:-0.431694 17:0.135593 18:-0.555556 19:-0.836066 20:-1 21:-1 22:-0.189873 23:-0.177143 24:-0.156794 25:-0.106977 
1024 1:-0.0617675 2:-0.830362 3:-0.449842 4:-0.793 5:-0.408324 6:-0.784898 7:-0.627018 8:-0.724431 9:-0.653274 10:-0.0671909 11:-0.160998 12:-0.227666 13:-0.965217 14:-0.762712 15:-0.0689655 16:0.278689 17:0.0169491 18:0.407407 19:-0.672131 20:-0.636363 21:-1 22:-0.0379747 23:-0.04 24:0.00348432 25:-0.0186047 
-1024 1:-0.327553 2:-0.531616 3:-0.71809 4:-0.556643 5:-0.754114 6:-0.66351 7:-0.702385 8:-0.621342 9:-0.670823 10:-0.376807 11:-0.974035 12:0.948127 13:-0.521739 14:-0.672316 15:-0.83908 16:-0.814208 17:-0.711864 18:-0.827161 19:-0.836066 20:-0.272728 21:-1 22:-0.392405 23:-0.268571 24:-0.163763 25:0.0372093 
-1024 1:-0.0743645 2:-0.550067 3:-0.343849 4:-0.406164 5:-0.577446 6:-0.560767 7:-0.382209 8:-0.297321 9:-0.588054 10:-0.669221 11:-0.0618332 12:0.308357 13:-0.304348 14:-0.141243 15:-0.643678 16:-0.540984 17:-0.610169 18:-0.851852 19:-0.967213 20:-1 21:-1 22:0.164557 23:0.222857 24:0.358885 25:0.506977 
-1024 1:-0.37491 2:-0.902457 3:-0.651376 4:-0.811679 5:-0.77877 6:-0.821692 7:-0.721501 8:-0.780328 9:-0.734698 10:0.0776936 11:-0.23942 12:-0.0720461 13:-0.713043 14:-0.40113 15:-0.321839 16:-0.0273224 17:0.152542 18:-0.604938 19:-0.803279 20:-0.818182 21:-1 22:-0.291139 23:-0.28 24:-0.275261 25:-0.269767 
-1024 1:0.457769 2:-0.130818 3:0.0979122 4:-0.293427 5:-0.0658832 6:-0.183656 7:0.282778 8:0.133592 9:0.0746529 10:-0.873084 11:0.17647 12:0.394813 13:-0.434783 14:-0.344633 15:-0.425287 16:-0.508197 17:-0.576271 18:-0.975309 19:-1 20:-1 21:-1 22:0.56962 23:0.622857 24:0.69338 25:0.804651 
-1024 1:-0.104456 2:-0.909402 3:-0.309143 4:-0.883847 5:-0.543868 6:-0.865463 7:-0.381201 8:-0.784039 9:-0.505715 10:0.0425813 11:-0.526711 12:-0.054755 13:-0.904348 14:-0.661017 15:-0.137931 16:0.278689 17:0.0508475 18:-0.432099 19:-0.901639 20:-0.818182 21:-1 22:-0.21519 23:-0.177143 24:-0.163763 25:-0.190698 
-1024 1:-0.648667 2:-0.994169 3:-0.860509 4:-0.995107 5:-0.901901 6:-0.99859 7:-0.837205 8:-0.991867 9:-0.870669 10:0.594017 11:-0.45993 12:0.556196 13:-0.756522 14:-0.491525 15:-0.735632 16:-0.562842 17:-0.101695 18:-0.432099 19:-0.868852 20:-1 21:-1 22:-0.746835 23:-0.748571 24:-0.749129 25:-0.762791 
1024 1:-0.46986 2:-0.978206 3:-0.738974 4:-0.965929 5:-0.816518 6:-0.960093 7:-0.749626 8:-0.96243 9:-0.743126 10:0.171721 11:0.0987947 12:-0.579251 13:0.634783 14:-0.751412 15:-0.643678 16:-0.224044 17:0.101695 18:-0.333333 19:-0.803279 20:-0.454546 21:-1 22:-0.341772 23:-0.28 24:-0.261324 25:-0.24186 
-1024 1:0.017219 2:-0.954364 3:-0.0702945 4:-0.801384 5:-0.451779 6:-0.766053 7:-0.197079 8:-0.712679 9:-0.263881 10:-0.0901038 11:-0.311831 12:-0.239193 13:-0.73913 14:-0.457627 15:-0.0574713 16:0.0273224 17:0.169492 18:-0.432099 19:-0.770492 20:-0.818182 21:-1 22:-0.113924 23:-0.0514286 24:-0.0313589 25:-0.0325581 
-1024 1:-0.579039 2:-0.893464 3:-0.787988 4:-0.877273 5:-0.856865 6:-0.88059 7:-0.79228 8:-0.851529 9:-0.80312 10:-0.053634 11:-0.174904 12:-0.152738 13:-0.669565 14:-0.468927 15:-0.62069 16:0.00546449 17:-0.0677966 18:0.432099 19:-0.573771 20:-0.454546 21:-1 22:-0.21519 23:-0.211429 24:-0.1777 25:-0.167442 
-1024 1:-0.473378 2:-0.968436 3:-0.769605 4:-0.977116 5:-0.816545 6:-0.966723 7:-0.753822 8:-0.95794 9:-0.776561 10:0.038035 11:-0.139376 12:-0.106628 13:-0.617391 14:-0.491525 15:-0.643678 16:-0.125683 17:-0.0508475 18:0.333333 19:-0.409836 20:-0.454546 21:-1 22:-0.341772 23:-0.337143 24:-0.33101 25:-0.311628 
1024 1:0.121431 2:-0.537291 3:-0.246223 4:-0.440745 5:-0.465138 6:-0.255503 7:-0.184942 8:-0.117556 9:-0.187031 10:-0.808839 11:-0.193231 12:0.319885 13:-0.495652 14:-0.333333 15:-0.425287 16:-0.540984 17:-0.576271 18:-0.555556 19:-0.868852 20:-0.818182 21:-1 22:0.341772 23:0.44 24:0.519164 25:0.651163 
177.2238881230519 1:-0.639854 2:-0.949777 3:-0.839991 4:-0.965343 5:-0.814447 6:-0.957639 7:-0.802718 8:-0.948684 9:-0.804645 10:-0.020037 11:-0.23234 12:-1 13:-0.634783 14:1 15:-0.770115 16:-0.387978 17:0.0677966 18:0.333333 19:1 20:0.272727 21:1 22:-0.21519 23:-0.234286 24:-0.212544 25:-0.176744 
-1024 1:0.032853 2:-0.889733 3:-0.360658 4:-0.983946 5:-0.225825 6:-0.921212 7:-0.204825 8:-0.908869 9:-0.249118 10:0.26384 11:-0.299551 12:0.262248 13:-0.930435 14:-0.785311 15:-0.310345 16:0.15847 17:-0.338983 18:-0.358025 19:-0.770492 20:-0.636363 21:-1 22:-0.493671 23:-0.462857 24:-0.442509 25:-0.451163 
-377.5446815914656 1:0.305996 2:-0.273608 3:0.274426 4:0.0666259 5:-0.287077 6:-0.0593568 7:-0.0669364 8:0.208824 9:-0.133691 10:-0.92379 11:0.820669 12:-0.210375 13:-0.0173913 14:-0.0169492 15:-0.344828 16:-0.278689 17:-0.728814 18:-0.876543 19:-0.836066 20:-1 21:-1 22:0.772152 23:0.805714 24:0.853659 25:0.874419 
927.5118054210017 1:0.727217 2:0.267803 3:0.504639 4:0.487838 5:-0.0130516 6:0.139958 7:0.956594 8:0.742437 9:0.493308 10:-0.894961 11:-0.375386 12:0.492795 13:-0.104348 14:-0.039548 15:-0.62069 16:-0.967213 17:-0.966102 18:-0.975309 19:-1 20:-1 21:-1 22:0.493671 23:0.611429 24:0.686411 25:0.781395 
560.8961204235382 1:-0.502203 2:-0.942106 3:-0.700329 4:-0.926328 5:-0.844818 6:-0.926944 7:-0.769344 8:-0.906624 9:-0.788108 10:0.264191 11:-0.673532 12:0.158501 13:-0.53913 14:-0.333333 15:-0.471264 16:-0.530055 17:-0.186441 18:-0.432099 19:-0.672131 20:-0.454546 21:-1 22:-0.56962 23:-0.542857 24:-0.519164 25:-0.506977 
1024 1:-0.0187754 2:-0.807168 3:-0.493294 4:-0.949849 5:-0.384909 6:-0.858632 7:-0.361905 8:-0.806582 9:-0.432247 10:-0.436242 11:0.00816765 12:0.268012 13:-0.417391 14:-0.60452 15:-0.666667 16:-0.136612 17:-0.423729 18:-0.506173 19:-0.934426 20:-1 21:-1 22:0.0886076 23:0.12 24:0.135888 25:0.24186 
-1024 1:-0.653704 2:-0.972971 3:-0.883137 4:-0.988991 5:-0.896427 6:-0.972217 7:-0.862111 8:-0.966393 9:-0.867245 10:-0.0295977 11:-0.354266 12:-0.504323 13:-0.226087 14:-0.0169492 15:-0.586207 16:0.191257 17:-0.169492 18:-0.382716 19:-0.901639 20:-0.636363 21:-1 22:-0.240506 23:-0.177143 24:-0.170732 25:-0.162791 
721.5734563462522 1:-0.45234 2:-0.991785 3:-0.650961 4:-0.967534 5:-0.761981 6:-0.964379 7:-0.641998 8:-0.953472 9:-0.68815 10:0.30832 11:-0.53395 12:-0.567723 13:0.730435 14:-0.79661 15:-0.643678 16:-0.300546 17:0.0508475 18:-0.308642 19:-0.737705 20:-0.818182 21:-1 22:-0.417722 23:-0.36 24:-0.358885 25:-0.348837 
-1024 1:0.308995 2:-0.814321 3:0.323538 4:-0.681995 5:-0.198123 6:-0.628915 7:0.0885792 8:-0.464394 9:-0.0961111 10:-0.0798527 11:-0.0773303 12:-0.285303 13:-0.991304 14:-0.841808 15:-0.436782 16:0.836066 17:0.677966 18:-0.432099 19:-0.737705 20:-1 21:-1 22:0.0379747 23:0.0971429 24:0.0731707 25:0.0232558 
