svm_type epsilon_svr
kernel_type rbf
gamma 0.05
nr_class 2
total_sv 648
rho -91.1867
probA 4.53104
SV
1024 1:-0.391316 2:-0.586107 3:-0.65196 4:-0.657391 5:-0.673575 6:-0.659696 7:-0.661043 8:-0.645623 9:-0.668925 10:-0.755299 11:-0.720351 
-1024 1:-0.763714 2:-0.965407 3:-0.925845 4:-0.98152 5:-0.922405 6:-0.977793 7:-0.905155 8:-0.975036 9:-0.903018 10:0.715831 11:-0.931484 
-1024 1:-0.70681 2:-0.930757 3:-0.890735 4:-0.953671 5:-0.886794 6:-0.952522 7:-0.862883 8:-0.950102 9:-0.86007 10:0.505812 11:-0.880555 
-1024 1:-0.707968 2:-0.938792 3:-0.889694 4:-0.959267 5:-0.886205 6:-0.958587 7:-0.865082 8:-0.955851 9:-0.862479 10:0.507187 11:-0.879306 
-1024 1:-0.692933 2:-0.945432 3:-0.878167 4:-0.963128 5:-0.874781 6:-0.96241 7:-0.845448 8:-0.959444 9:-0.843372 10:0.501855 11:-0.86205 
-347.5855047365716 1:-0.701652 2:-0.865811 3:-0.912112 4:-0.923479 5:-0.907411 6:-0.983005 7:-0.881712 8:-0.980597 9:-0.878848 10:0.524828 11:-0.878485 
-1024 1:-0.726788 2:-0.931594 3:-0.926886 4:-0.958313 5:-0.922977 6:-0.980889 7:-0.900515 8:-0.976317 9:-0.900417 10:0.636835 11:-0.949161 
-1024 1:-0.740184 2:-0.934831 3:-0.930876 4:-0.958876 5:-0.926386 6:-0.981931 7:-0.904163 8:-0.979504 9:-0.902799 10:0.621587 11:-0.94276 
-1024 1:-0.547167 2:-0.90219 3:-0.770315 4:-0.926342 5:-0.763968 6:-0.914111 7:-0.72649 8:-0.907453 9:-0.728379 10:-0.113264 11:-0.751174 
-1024 1:-0.474661 2:-0.861124 3:-0.755858 4:-0.891899 5:-0.750973 6:-0.895758 7:-0.707044 8:-0.885051 9:-0.707712 10:-0.102512 11:-0.747067 
-1024 1:-0.410076 2:-0.854819 3:-0.684316 4:-0.875502 5:-0.680608 6:-0.877689 7:-0.636822 8:-0.871616 9:-0.638623 10:0.0387028 11:-0.745612 
1024 1:-0.264618 2:-0.772576 3:-0.612949 4:-0.818458 5:-0.638035 6:-0.805667 7:-0.615069 8:-0.829654 9:-0.572217 10:-0.613464 11:0.279964 
-1024 1:-0.628597 2:-0.983038 3:-0.873419 4:-0.987333 5:-0.878976 6:-0.976561 7:-0.856311 8:-0.97766 9:-0.839376 10:0.667762 11:-0.132972 
-1024 1:-0.547476 2:-0.94253 3:-0.826995 4:-0.95237 5:-0.832155 6:-0.945668 7:-0.799608 8:-0.948759 9:-0.783836 10:0.47498 11:-0.0201832 
-1024 1:-0.553208 2:-0.953913 3:-0.827419 4:-0.959961 5:-0.835172 6:-0.955239 7:-0.805617 8:-0.958757 9:-0.787942 10:0.479166 11:-0.0181613 
-1024 1:-0.532097 2:-0.957818 3:-0.81282 4:-0.965253 5:-0.822927 6:-0.959819 7:-0.782844 8:-0.964412 9:-0.760953 10:0.520474 11:0.0100861 
-1024 1:-0.575194 2:-0.934719 3:-0.864205 4:-0.953801 5:-0.867088 6:-0.98768 7:-0.82965 8:-0.989346 9:-0.813946 10:0.488219 11:-0.0274743 
-1024 1:-0.608739 2:-0.957651 3:-0.884646 4:-0.970112 5:-0.883528 6:-0.979941 7:-0.849874 8:-0.980441 9:-0.83839 10:0.564 11:-0.192717 
-1024 1:-0.610293 2:-0.955866 3:-0.886605 4:-0.967899 5:-0.886634 6:-0.978583 7:-0.852207 8:-0.981316 9:-0.839568 10:0.510956 11:-0.183746 
-1024 1:-0.377217 2:-0.930367 3:-0.704244 4:-0.941742 5:-0.712845 6:-0.926272 7:-0.661901 8:-0.937792 9:-0.622501 10:-0.0818444 11:0.199323 
-1024 1:-0.388004 2:-0.920045 3:-0.722726 4:-0.930767 5:-0.735104 6:-0.929305 7:-0.675447 8:-0.928544 9:-0.654718 10:-0.043172 11:0.2319 
-1024 1:-0.607512 2:-0.840089 3:-0.909429 4:-0.86162 5:-0.909 6:-0.895347 7:-0.916957 8:-0.895799 9:-0.908575 10:0.0381972 11:-0.225714 
-532.4137223172273 1:-0.656711 2:-0.868824 3:-0.890277 4:-0.928207 5:-0.883189 6:-0.92602 7:-0.884851 8:-0.922826 9:-0.886977 10:-0.722309 11:0.791611 
896.5532437590206 1:-0.811282 2:-0.980583 3:-0.965897 4:-0.997137 5:-0.962675 6:-0.986891 7:-0.959256 8:-0.984628 9:-0.960446 10:0.6312 11:0.138141 
1024 1:-0.765774 2:-0.951123 3:-0.946692 4:-0.977877 5:-0.944807 6:-0.966611 7:-0.939327 8:-0.964944 9:-0.93926 10:0.535459 11:0.276123 
1024 1:-0.767396 2:-0.95899 3:-0.946533 4:-0.982518 5:-0.945039 6:-0.973781 7:-0.941232 8:-0.971755 9:-0.941449 10:0.53978 11:0.277032 
1024 1:-0.759029 2:-0.957651 3:-0.942402 4:-0.97779 5:-0.940577 6:-0.970559 7:-0.932756 8:-0.968693 9:-0.932581 10:0.637758 11:0.321347 
1024 1:-0.771944 2:-0.911843 3:-0.964873 4:-0.944822 5:-0.961908 6:-0.996241 7:-0.943753 8:-0.993907 9:-0.943913 10:0.520568 11:0.268844 
-1024 1:-0.751057 2:-0.941917 3:-0.958412 4:-0.967249 5:-0.953947 6:-0.984964 7:-0.941741 8:-0.980285 9:-0.943119 10:0.532661 11:0.083181 
1024 1:-0.761252 2:-0.946492 3:-0.961025 4:-0.967509 5:-0.958588 6:-0.986859 7:-0.94496 8:-0.984315 9:-0.945227 10:0.457089 11:0.0856824 
1024 1:-0.669214 2:-0.924341 3:-0.893065 4:-0.949637 5:-0.88608 6:-0.954734 7:-0.878842 8:-0.952446 9:-0.878163 10:0.0975035 11:0.420154 
1024 1:-0.605916 2:-0.893765 3:-0.87116 4:-0.927427 5:-0.866231 6:-0.937613 7:-0.850759 8:-0.927106 9:-0.858181 10:0.100921 11:0.437584 
-1024 1:-0.63366 2:-0.90431 3:-0.87522 4:-0.94031 5:-0.853004 6:-0.940835 7:-0.866879 8:-0.938511 9:-0.866831 10:-0.149469 11:0.648848 
1024 1:-0.654136 2:-0.841094 3:-0.912006 4:-0.873897 5:-0.935561 6:-0.9143 7:-0.920551 8:-0.912546 9:-0.91914 10:-0.670101 11:-0.441822 
1024 1:-0.812166 2:-0.91095 3:-0.971386 4:-0.934194 5:-0.974528 6:-0.947089 7:-0.979186 8:-0.945478 9:-0.977062 10:0.607923 11:-0.638684 
1024 1:-0.816903 2:-0.915748 3:-0.972234 4:-0.941178 5:-0.976045 6:-0.953123 7:-0.980473 8:-0.951477 9:-0.978375 10:0.609514 11:-0.637303 
1024 1:-0.812758 2:-0.913851 3:-0.97031 4:-0.944518 5:-0.974564 6:-0.955271 7:-0.976718 8:-0.953508 9:-0.974516 10:0.580542 11:-0.615227 
1024 1:-0.785134 2:-0.812136 3:-0.986461 4:-0.885435 5:-0.991914 6:-0.968222 7:-0.973821 8:-0.966412 9:-0.971724 10:0.583609 11:-0.636154 
-1024 1:-0.733619 2:-0.872004 3:-0.963143 4:-0.916191 5:-0.966353 6:-0.958208 7:-0.956655 8:-0.952946 9:-0.957326 10:0.604816 11:-0.729649 
1024 1:-0.7229 2:-0.863189 3:-0.962631 4:-0.910942 5:-0.96621 6:-0.951543 7:-0.957164 8:-0.950758 9:-0.954205 10:0.581984 11:-0.722021 
-1024 1:-0.684704 2:-0.886177 3:-0.927028 4:-0.917102 5:-0.941648 6:-0.950659 7:-0.919559 8:-0.946947 9:-0.918265 10:-0.136837 11:-0.478577 
-1024 1:-0.61963 2:-0.856605 3:-0.907752 4:-0.893504 5:-0.923726 6:-0.933411 7:-0.894909 8:-0.918514 9:-0.903647 10:-0.107682 11:-0.465745 
-1024 1:-0.606337 2:-0.863356 3:-0.896578 4:-0.876109 5:-0.921477 6:-0.908962 7:-0.909581 8:-0.90736 9:-0.90748 10:0.021136 11:-0.42499 
1024 1:0.214956 2:-0.248766 3:-0.0726283 4:-0.437805 5:-0.123452 6:-0.374988 7:-0.118717 8:-0.409914 9:-0.0390201 10:-0.57525 11:0.393776 
-1024 1:-0.489172 2:-0.979635 3:-0.739548 4:-0.976792 5:-0.755096 6:-0.967243 7:-0.691621 8:-0.96938 9:-0.666051 10:0.789145 11:0.0135004 
1024 1:-0.376925 2:-0.933436 3:-0.648588 4:-0.93658 5:-0.669398 6:-0.92583 7:-0.589614 8:-0.931106 9:-0.554972 10:0.537218 11:0.107597 
1024 1:-0.37254 2:-0.942698 3:-0.640062 4:-0.941395 5:-0.665542 6:-0.930821 7:-0.594496 8:-0.935699 9:-0.558667 10:0.52956 11:0.109119 
1024 1:-0.341123 2:-0.954861 3:-0.612614 4:-0.960829 5:-0.636607 6:-0.945194 7:-0.551499 8:-0.950384 9:-0.50852 10:0.65823 11:0.134186 
1024 1:-0.409647 2:-0.943646 3:-0.698207 4:-0.961262 5:-0.715469 6:-0.976119 7:-0.654766 8:-0.980847 9:-0.618203 10:0.535445 11:0.103473 
-1024 1:-0.505572 2:-0.972269 3:-0.769432 4:-0.983082 5:-0.777819 6:-0.986322 7:-0.712462 8:-0.985409 9:-0.691535 10:0.839109 11:-0.0321156 
1024 1:-0.506919 2:-0.97372 3:-0.772063 4:-0.983125 5:-0.781122 6:-0.986259 7:-0.714876 8:-0.986815 9:-0.693944 10:0.837565 11:-0.026658 
1024 1:-0.065602 2:-0.863914 3:-0.338588 4:-0.871337 5:-0.376709 6:-0.800518 7:-0.284641 8:-0.826592 9:-0.210347 10:0.025403 11:0.317485 
1024 1:-0.0891842 2:-0.857832 3:-0.379946 4:-0.869298 5:-0.416087 6:-0.808257 7:-0.328872 8:-0.837434 9:-0.247136 10:0.0448235 11:0.33381 
-621.4075067907744 1:0.0800963 2:-0.835068 3:-0.179457 4:-0.85815 5:-0.217789 6:-0.774489 7:-0.134515 8:-0.799066 9:-0.0488195 10:0.21797 11:0.457897 
-420.7899967110577 1:-0.00973582 2:-0.135277 3:-0.309374 4:-0.372563 5:-0.220645 6:-0.365227 7:-0.462985 8:-0.336489 9:-0.480736 10:-0.827649 11:0.19225 
-1024 1:-0.591053 2:-0.912568 3:-0.821664 4:-0.946513 5:-0.798972 6:-0.940329 7:-0.775173 8:-0.937042 9:-0.773024 10:0.344543 11:-0.197489 
1024 1:-0.513801 2:-0.845613 3:-0.763996 4:-0.900488 5:-0.734372 6:-0.895094 7:-0.708814 8:-0.891362 9:-0.706453 10:0.12289 11:-0.0926086 
1024 1:-0.510806 2:-0.852197 3:-0.758983 4:-0.90552 5:-0.723501 6:-0.899548 7:-0.718336 8:-0.895768 9:-0.716198 10:0.141353 11:-0.0903611 
1024 1:-0.483071 2:-0.869717 3:-0.737324 4:-0.923436 5:-0.704652 6:-0.912247 7:-0.678719 8:-0.90761 9:-0.67856 10:0.327536 11:-0.0648637 
-1024 1:-0.518169 2:-0.844107 3:-0.787931 4:-0.907689 5:-0.754454 6:-0.953059 7:-0.754922 8:-0.947165 9:-0.755587 10:-0.03482 11:-0.0981687 
-1024 1:-0.548788 2:-0.903417 3:-0.816827 4:-0.941698 5:-0.793278 6:-0.958556 7:-0.762191 8:-0.953133 9:-0.761692 10:0.52497 11:-0.251411 
1024 1:-0.550333 2:-0.90777 3:-0.822317 4:-0.936363 5:-0.803666 6:-0.959282 7:-0.77056 8:-0.95557 9:-0.769685 10:0.42935 11:-0.243745 
1024 1:-0.217565 2:-0.634091 3:-0.489758 4:-0.797115 5:-0.395291 6:-0.73554 7:-0.446221 8:-0.715455 9:-0.460535 10:-0.246895 11:0.128067 
1024 1:-0.139944 2:-0.669577 3:-0.46704 4:-0.798677 5:-0.361929 6:-0.753388 7:-0.418003 8:-0.738857 9:-0.421255 10:-0.166935 11:0.158609 
1024 1:-0.0474948 2:-0.676273 3:-0.380334 4:-0.807006 5:-0.210703 6:-0.734056 7:-0.331179 8:-0.729078 9:-0.327749 10:0.111767 11:0.154034 
1024 1:0.154147 2:-0.220254 3:-0.14846 4:-0.460579 5:-0.122613 6:-0.364564 7:-0.146156 8:-0.348893 9:-0.168822 10:-0.80202 11:-0.550021 
-1024 1:-0.564321 2:-0.934719 3:-0.796846 4:-0.964646 5:-0.794152 6:-0.956313 7:-0.742369 8:-0.952133 9:-0.745432 10:0.497723 11:-0.805399 
-1024 1:-0.475648 2:-0.891756 3:-0.720413 4:-0.935885 5:-0.716326 6:-0.924693 7:-0.649295 8:-0.919358 9:-0.653925 10:0.303727 11:-0.740998 
-1024 1:-0.472558 2:-0.899623 3:-0.7154 4:-0.941698 5:-0.712131 6:-0.929368 7:-0.652728 8:-0.923951 9:-0.657948 10:0.313043 11:-0.739555 
-1024 1:-0.447054 2:-0.922109 3:-0.690423 4:-0.9525 5:-0.684802 6:-0.942193 7:-0.608819 8:-0.936167 9:-0.616396 10:0.396394 11:-0.718478 
-1024 1:-0.490648 2:-0.874292 3:-0.768338 4:-0.919835 5:-0.75706 6:-0.964147 7:-0.709243 8:-0.960132 9:-0.71305 10:0.308763 11:-0.740123 
-1024 1:-0.54981 2:-0.922946 3:-0.814391 4:-0.954452 5:-0.805666 6:-0.971318 7:-0.750174 8:-0.964756 9:-0.755724 10:0.505408 11:-0.829378 
-1024 1:-0.559696 2:-0.925178 3:-0.817604 4:-0.954278 5:-0.810003 6:-0.972044 7:-0.755297 8:-0.968193 9:-0.758982 10:0.488785 11:-0.823025 
-1024 1:-0.213394 2:-0.825136 3:-0.463068 4:-0.891205 5:-0.432027 6:-0.831601 7:-0.351376 8:-0.807408 9:-0.38192 10:-0.0884303 11:-0.591534 
-1024 1:-0.158077 2:-0.801032 3:-0.456449 4:-0.868951 5:-0.433098 6:-0.825094 7:-0.346119 8:-0.802159 9:-0.367303 10:-0.0909716 11:-0.586103 
-1024 1:-0.0299455 2:-0.795787 3:-0.295464 4:-0.859408 5:-0.265788 6:-0.793032 7:-0.178236 8:-0.782037 9:-0.193677 10:0.154093 11:-0.536702 
1024 1:-0.530484 2:-0.77704 3:-0.828478 4:-0.834682 5:-0.841027 6:-0.850839 7:-0.833244 8:-0.84887 9:-0.829878 10:-0.629393 11:0.785432 
-1024 1:-0.761929 2:-0.916753 3:-0.950822 4:-0.947251 5:-0.953018 6:-0.95227 7:-0.951424 8:-0.95054 9:-0.94832 10:0.744837 11:0.148166 
-1024 1:-0.730735 2:-0.889413 3:-0.932658 4:-0.923522 5:-0.935704 6:-0.933948 7:-0.932139 8:-0.932387 9:-0.928256 10:0.53432 11:0.272931 
-1024 1:-0.732452 2:-0.895885 3:-0.93287 4:-0.929248 5:-0.936257 6:-0.939508 7:-0.934151 8:-0.937854 9:-0.930227 10:0.550457 11:0.272494 
-1024 1:-0.723767 2:-0.897336 3:-0.928016 4:-0.928771 5:-0.932651 6:-0.93995 7:-0.925728 8:-0.938292 9:-0.921549 10:0.667438 11:0.317174 
-1024 1:-0.713143 2:-0.829321 3:-0.953011 4:-0.883223 5:-0.958445 6:-0.96083 7:-0.93407 8:-0.958945 9:-0.930254 10:0.523231 11:0.278446 
-1024 1:-0.700151 2:-0.871279 3:-0.948898 4:-0.917753 5:-0.948574 6:-0.952743 7:-0.93517 8:-0.948196 9:-0.934004 10:0.731982 11:0.0926699 
-1024 1:-0.73083 2:-0.878812 3:-0.952323 4:-0.920095 5:-0.954393 6:-0.956945 7:-0.940186 8:-0.954883 9:-0.937453 10:0.74264 11:0.0954721 
-1024 1:-0.572259 2:-0.870386 3:-0.840322 4:-0.904305 5:-0.848292 6:-0.916353 7:-0.82906 8:-0.912171 9:-0.825799 10:-0.0312137 11:0.427722 
-1024 1:-0.56923 2:-0.841931 3:-0.854232 4:-0.878842 5:-0.863536 6:-0.904255 7:-0.840754 8:-0.894924 9:-0.843756 10:-0.0226797 11:0.47868 
143.6251267512826 1:-1 2:-0.725931 3:-0.54559 4:-0.763757 5:-0.556246 6:-0.754557 7:-0.619843 8:-0.757354 9:-0.603668 10:-0.0779819 11:0.517955 
1024 1:-0.136083 2:-0.472172 3:-0.633778 4:-0.632448 5:-0.601924 6:-0.591496 7:-0.633067 8:-0.583697 9:-0.636105 10:-0.761743 11:-0.417385 
-1024 1:-0.689261 2:-0.951625 3:-0.939348 4:-0.969461 5:-0.936793 6:-0.949553 7:-0.937047 8:-0.947322 9:-0.936057 10:0.700725 11:-0.691525 
1024 1:-0.618248 2:-0.861347 3:-0.902968 4:-0.904566 5:-0.901574 6:-0.896516 7:-0.901293 8:-0.895143 9:-0.898748 10:0.475943 11:-0.621064 
1024 1:-0.630931 2:-0.879983 3:-0.906834 4:-0.917883 5:-0.906144 6:-0.911362 7:-0.904914 8:-0.909422 9:-0.902635 10:0.461356 11:-0.619634 
1024 1:-0.626941 2:-0.89728 3:-0.904769 4:-0.924173 5:-0.907161 6:-0.923019 7:-0.89845 8:-0.920795 9:-0.89653 10:0.460905 11:-0.597302 
1024 1:-0.6546 2:-0.868099 3:-0.953293 4:-0.90526 5:-0.951037 6:-0.968096 7:-0.924038 8:-0.96535 9:-0.922781 10:0.555439 11:-0.61919 
-1024 1:-0.662254 2:-0.912456 3:-0.943091 4:-0.941438 5:-0.939827 6:-0.959093 7:-0.922322 8:-0.953758 9:-0.922808 10:0.598661 11:-0.715839 
-1024 1:-0.662846 2:-0.915469 3:-0.94302 4:-0.941612 5:-0.94088 6:-0.958998 7:-0.921946 8:-0.956632 9:-0.920482 10:0.578526 11:-0.711936 
-1024 1:-0.48852 2:-0.897447 3:-0.843376 4:-0.929682 5:-0.836832 6:-0.921471 7:-0.803766 8:-0.917358 9:-0.80412 10:-0.16558 11:-0.463906 
-1024 1:-0.444153 2:-0.865309 3:-0.825547 4:-0.899447 5:-0.824087 6:-0.903813 7:-0.777989 8:-0.883301 9:-0.795552 10:-0.166705 11:-0.456605 
-1024 1:-0.321342 2:-0.843883 3:-0.716018 4:-0.872335 5:-0.715415 6:-0.842942 7:-0.706775 8:-0.842027 9:-0.703333 10:0.143476 11:0.560249 
1024 1:0.344813 2:0.174222 3:-0.043291 4:-0.15931 5:-0.0132269 6:-0.128186 7:-0.0672174 8:-0.112777 9:-0.0720318 10:-0.558 11:0.169455 
-1024 1:-0.493514 2:-0.964235 3:-0.774993 4:-0.974276 5:-0.781925 6:-0.956818 7:-0.721581 8:-0.954227 9:-0.715678 10:0.806355 11:-0.170676 
-1024 1:-0.371845 2:-0.885284 3:-0.687157 4:-0.921831 5:-0.697387 6:-0.903718 7:-0.621265 8:-0.901142 9:-0.613248 10:0.549109 11:-0.083063 
-1024 1:-0.371029 2:-0.898173 3:-0.68308 4:-0.930203 5:-0.694798 6:-0.912658 7:-0.627541 8:-0.910203 9:-0.619873 10:0.546891 11:-0.0816344 
-1024 1:-0.337106 2:-0.918036 3:-0.65572 4:-0.937968 5:-0.667702 6:-0.92245 7:-0.58079 8:-0.919951 9:-0.57249 10:0.68971 11:-0.0578284 
-1024 1:-0.414478 2:-0.914521 3:-0.742478 4:-0.941872 5:-0.750491 6:-0.968001 7:-0.682608 8:-0.9651 9:-0.675905 10:0.553154 11:-0.0855864 
-1024 1:-0.501564 2:-0.946101 3:-0.798311 4:-0.966988 5:-0.801578 6:-0.969485 7:-0.734054 8:-0.963662 9:-0.731116 10:0.845566 11:-0.213395 
-1024 1:-0.506825 2:-0.947831 3:-0.80373 4:-0.966815 5:-0.806808 6:-0.96977 7:-0.740062 8:-0.966631 9:-0.735386 10:0.841953 11:-0.208255 
-1024 1:-0.0160519 2:-0.808565 3:-0.3639 4:-0.859061 5:-0.368373 6:-0.77411 7:-0.265302 8:-0.764197 9:-0.261014 10:0.0297172 11:0.102857 
-1024 1:-0.0630361 2:-0.813642 3:-0.423863 4:-0.863702 5:-0.433348 6:-0.802192 7:-0.326887 8:-0.787318 9:-0.322165 10:0.0461784 11:0.126349 
-1024 1:0.117126 2:-0.764542 3:-0.228652 4:-0.833033 5:-0.22086 6:-0.736772 7:-0.144547 8:-0.735608 9:-0.125327 10:0.236015 11:0.146673 
1024 1:-0.364018 2:-0.549784 3:-0.628518 4:-0.624379 5:-0.652351 6:-0.636921 7:-0.638646 8:-0.626627 9:-0.643851 10:-0.736701 11:-0.722267 
-1024 1:-0.754 2:-0.964793 3:-0.918943 4:-0.981043 5:-0.915444 6:-0.977383 7:-0.896062 8:-0.974723 9:-0.893136 10:0.727864 11:-0.933777 
-1024 1:-0.695886 2:-0.93059 3:-0.881345 4:-0.953541 5:-0.87753 6:-0.952586 7:-0.851108 8:-0.949727 9:-0.847314 10:0.521188 11:-0.882802 
-1024 1:-0.69634 2:-0.938792 3:-0.87958 4:-0.95918 5:-0.876316 6:-0.958682 7:-0.854273 8:-0.955695 9:-0.850873 10:0.51471 11:-0.881649 
-1024 1:-0.677023 2:-0.93762 3:-0.866588 4:-0.957488 5:-0.863393 6:-0.956503 7:-0.831018 8:-0.95382 9:-0.827387 10:0.542584 11:-0.864279 
-1024 1:-0.690925 2:-0.870944 3:-0.903798 4:-0.923783 5:-0.899022 6:-0.981963 7:-0.870876 8:-0.979597 9:-0.86653 10:0.506534 11:-0.880149 
-1024 1:-0.721596 2:-0.933436 3:-0.925121 4:-0.959527 5:-0.921049 6:-0.981742 7:-0.897752 8:-0.976848 9:-0.896804 10:0.666245 11:-0.951173 
-1024 1:-0.732134 2:-0.935891 3:-0.926357 4:-0.959267 5:-0.921781 6:-0.981963 7:-0.897645 8:-0.979129 9:-0.895572 10:0.640886 11:-0.944969 
-1024 1:-0.527661 2:-0.897894 3:-0.760465 4:-0.922655 5:-0.754489 6:-0.905076 7:-0.717183 8:-0.901517 9:-0.714665 10:-0.14657 11:-0.753607 
-1024 1:-0.448864 2:-0.855433 3:-0.734323 4:-0.88665 5:-0.729731 6:-0.878005 7:-0.689233 8:-0.877209 9:-0.681106 10:-0.0757035 11:-0.748868 
-1024 1:-0.371596 2:-0.843549 3:-0.657361 4:-0.865351 5:-0.644122 6:-0.866033 7:-0.615605 8:-0.861743 9:-0.612728 10:0.122822 11:-0.716823 
-1024 1:0.481148 2:0.890975 3:-0.0212263 4:0.264158 5:0.11026 6:0.444767 7:-0.139773 8:0.422662 9:-0.14394 10:-0.804036 11:-0.215038 
-1024 1:-0.5682 2:-0.917924 3:-0.81305 4:-0.939399 5:-0.811271 6:-0.924219 7:-0.777104 8:-0.919764 9:-0.778334 10:0.502233 11:-0.528168 
-1024 1:-0.474103 2:-0.798912 3:-0.747032 4:-0.851643 5:-0.745636 6:-0.855293 7:-0.705407 8:-0.850963 9:-0.706809 10:0.247421 11:-0.447561 
-1024 1:-0.477407 2:-0.813307 3:-0.744102 4:-0.861794 5:-0.745332 6:-0.865211 7:-0.712006 8:-0.860743 9:-0.713844 10:0.2116 11:-0.446127 
-1024 1:-0.463651 2:-0.846841 3:-0.73141 4:-0.889079 5:-0.734426 6:-0.888619 7:-0.68985 8:-0.88452 9:-0.694108 10:0.416462 11:-0.420211 
-1024 1:-0.513621 2:-0.849407 3:-0.795839 4:-0.890077 5:-0.790564 6:-0.952333 7:-0.775924 8:-0.946447 9:-0.781783 10:0.225513 11:-0.445241 
-1024 1:-0.535744 2:-0.88852 3:-0.81628 4:-0.92465 5:-0.812359 6:-0.94254 7:-0.771659 8:-0.931512 9:-0.775789 10:0.678622 11:-0.556617 
-1024 1:-0.54364 2:-0.892091 3:-0.819581 4:-0.924477 5:-0.817643 6:-0.941214 7:-0.776568 8:-0.936386 9:-0.779812 10:0.616619 11:-0.550675 
-1024 1:-0.185161 2:-0.743618 3:-0.496465 4:-0.833727 5:-0.488005 6:-0.771867 7:-0.458184 8:-0.749262 9:-0.479231 10:-0.137868 11:-0.267148 
-1024 1:-0.195682 2:-0.742056 3:-0.521019 4:-0.820236 5:-0.521634 6:-0.785513 7:-0.484523 8:-0.760447 9:-0.49831 10:-0.0604893 11:-0.248657 
-1024 1:-0.34997 2:-0.838415 3:-0.556234 4:-0.806225 5:-0.640409 6:-0.827905 7:-0.609248 8:-0.835403 9:-0.580237 10:0.204043 11:-0.193099 
-1024 1:0.0652845 2:-0.0770261 3:-0.280001 4:-0.333391 5:-0.173753 6:-0.308905 7:-0.423877 8:-0.27928 9:-0.445453 10:-0.812502 11:-0.0180901 
-1024 1:-0.590667 2:-0.911396 3:-0.823853 4:-0.94673 5:-0.801828 6:-0.938876 7:-0.779089 8:-0.93548 9:-0.777951 10:0.376839 11:-0.525509 
1024 1:-0.512969 2:-0.844999 3:-0.766273 4:-0.898102 5:-0.737799 6:-0.893831 7:-0.71222 8:-0.889894 9:-0.710942 10:0.158158 11:-0.423681 
1024 1:-0.51109 2:-0.852978 3:-0.761542 4:-0.903178 5:-0.728981 6:-0.898917 7:-0.720589 8:-0.895018 9:-0.71962 10:0.17466 11:-0.421492 
1024 1:-0.485662 2:-0.874906 3:-0.742125 4:-0.921397 5:-0.710042 6:-0.914269 7:-0.685344 8:-0.909516 9:-0.68658 10:0.347166 11:-0.389732 
1024 1:-0.520941 2:-0.845669 3:-0.793598 4:-0.90565 5:-0.76038 6:-0.954418 7:-0.76254 8:-0.948321 9:-0.764703 10:0.143079 11:-0.420327 
-1024 1:-0.549303 2:-0.900683 3:-0.820252 4:-0.939399 5:-0.796134 6:-0.95685 7:-0.766885 8:-0.950883 9:-0.767358 10:0.55978 11:-0.561072 
1024 1:-0.553397 2:-0.905761 3:-0.825795 4:-0.935625 5:-0.806647 6:-0.957861 7:-0.775978 8:-0.954164 9:-0.775898 10:0.467133 11:-0.560791 
1024 1:-0.233887 2:-0.683359 3:-0.505168 4:-0.812428 5:-0.426118 6:-0.763907 7:-0.460061 8:-0.741513 9:-0.477233 10:-0.201718 11:-0.0926166 
1024 1:-0.15534 2:-0.701437 3:-0.481797 4:-0.808437 5:-0.391507 6:-0.773415 7:-0.432112 8:-0.753917 9:-0.438911 10:-0.11381 11:-0.0854304 
1024 1:-0.0562566 2:-0.706458 3:-0.389319 4:-0.815248 5:-0.240941 6:-0.747639 7:-0.340486 8:-0.742482 9:-0.337768 10:0.151545 11:-0.0360173 
1024 1:-0.651896 2:-0.841931 3:-0.906746 4:-0.87433 5:-0.932259 6:-0.914427 7:-0.915026 8:-0.91264 9:-0.914514 10:-0.64485 11:-0.431654 
-1024 1:-0.833706 2:-0.926461 3:-0.977918 4:-0.958443 5:-0.983721 6:-0.963326 7:-0.987045 8:-0.961257 9:-0.985766 10:0.788188 11:-0.698062 
1024 1:-0.809883 2:-0.912177 3:-0.96858 4:-0.934975 5:-0.972725 6:-0.947879 7:-0.975752 8:-0.945947 9:-0.973886 10:0.613471 11:-0.629842 
1024 1:-0.814578 2:-0.917087 3:-0.969339 4:-0.942002 5:-0.974296 6:-0.954039 7:-0.97704 8:-0.951977 9:-0.975255 10:0.604701 11:-0.62861 
1024 1:-0.810115 2:-0.914967 3:-0.967203 4:-0.945386 5:-0.9726 6:-0.956218 7:-0.972909 8:-0.954102 9:-0.970957 10:0.587208 11:-0.606158 
1024 1:-0.78286 2:-0.813196 3:-0.983513 4:-0.88678 5:-0.989879 6:-0.96879 7:-0.971085 8:-0.966756 9:-0.969069 10:0.570997 11:-0.627441 
-1024 1:-0.73555 2:-0.87379 3:-0.962031 4:-0.917926 5:-0.965888 6:-0.959409 7:-0.955528 8:-0.954133 9:-0.95634 10:0.607108 11:-0.721979 
1024 1:-0.721347 2:-0.863468 3:-0.960884 4:-0.911029 5:-0.965067 6:-0.951701 7:-0.955072 8:-0.950946 9:-0.95218 10:0.585752 11:-0.713605 
-1024 1:-0.682859 2:-0.887348 3:-0.922067 4:-0.917493 5:-0.938863 6:-0.951259 7:-0.914838 8:-0.947134 9:-0.913967 10:-0.12893 11:-0.469499 
-1024 1:-0.617682 2:-0.858056 3:-0.903145 4:-0.894675 5:-0.921013 6:-0.933948 7:-0.890349 8:-0.919545 9:-0.899186 10:-0.108889 11:-0.456597 
-1024 1:-0.603161 2:-0.864026 3:-0.891247 4:-0.877107 5:-0.917889 6:-0.910099 7:-0.903519 8:-0.908203 9:-0.902032 10:0.0505735 11:-0.415159 
1024 1:0.22328 2:-0.167527 3:-0.0823367 4:-0.399545 5:-0.108618 6:-0.336008 7:-0.100424 8:-0.346519 9:-0.0682269 10:-0.498027 11:0.130973 
-1024 1:-0.513475 2:-0.974836 3:-0.759618 4:-0.97497 5:-0.775303 6:-0.965568 7:-0.713454 8:-0.965256 9:-0.70013 10:0.878442 11:-0.205565 
1024 1:-0.401056 2:-0.921942 3:-0.670441 4:-0.932632 5:-0.691139 6:-0.922734 7:-0.611153 8:-0.923951 9:-0.594005 10:0.622564 11:-0.124834 
1024 1:-0.397495 2:-0.93165 3:-0.663151 4:-0.93723 5:-0.688212 6:-0.92782 7:-0.615391 8:-0.928731 9:-0.597673 10:0.618931 11:-0.123949 
1024 1:-0.366378 2:-0.947496 3:-0.636003 4:-0.956838 5:-0.659741 6:-0.943709 7:-0.572233 8:-0.944791 9:-0.551796 10:0.717051 11:-0.100763 
1024 1:-0.434284 2:-0.933268 3:-0.721967 4:-0.954235 5:-0.738531 6:-0.975898 7:-0.677458 8:-0.976504 9:-0.660111 10:0.63248 11:-0.127286 
-1024 1:-0.525687 2:-0.963844 3:-0.786749 4:-0.978484 5:-0.79567 6:-0.983384 7:-0.730996 8:-0.980566 9:-0.721618 10:0.906511 11:-0.248596 
1024 1:-0.526914 2:-0.965295 3:-0.789344 4:-0.978354 5:-0.798561 6:-0.983226 7:-0.733625 8:-0.982191 9:-0.723397 10:0.912962 11:-0.23982 
1024 1:-0.0829368 2:-0.852085 3:-0.361041 4:-0.872031 5:-0.393345 6:-0.807468 7:-0.289899 8:-0.813376 9:-0.261589 10:0.095306 11:0.0685397 
1024 1:-0.115246 2:-0.849742 3:-0.410342 4:-0.871467 5:-0.442665 6:-0.822946 7:-0.343732 8:-0.830779 9:-0.307384 10:0.117942 11:0.0754141 
1024 1:0.0623925 2:-0.815651 3:-0.208406 4:-0.848823 5:-0.232748 6:-0.768614 7:-0.149402 8:-0.783443 9:-0.0991583 10:0.257202 11:0.0882681 
1024 1:-0.602878 2:-0.819891 3:-0.917337 4:-0.866522 5:-0.918943 6:-0.892883 7:-0.91921 8:-0.89005 9:-0.917991 10:-0.515944 11:-0.166447 
-1024 1:-0.795389 2:-0.906933 3:-0.983778 4:-0.936102 5:-0.981668 6:-0.950153 7:-0.991873 8:-0.948196 9:-0.99094 10:0.887953 11:-0.484877 
1024 1:-0.777351 2:-0.88958 3:-0.975835 4:-0.922091 5:-0.973582 6:-0.939002 7:-0.984228 8:-0.937292 9:-0.983029 10:0.705578 11:-0.400766 
1024 1:-0.77778 2:-0.894546 3:-0.976188 4:-0.925214 5:-0.974189 6:-0.942509 7:-0.984845 8:-0.94076 9:-0.983686 10:0.663792 11:-0.399308 
1024 1:-0.77433 2:-0.896555 3:-0.975146 4:-0.926342 5:-0.973742 6:-0.944025 7:-0.982914 8:-0.94226 9:-0.98166 10:0.672541 11:-0.372755 
1024 1:-0.749074 2:-0.816376 3:-0.993875 4:-0.870036 5:-0.992449 6:-0.957355 7:-0.976262 8:-0.95557 9:-0.974735 10:0.69631 11:-0.398167 
-1024 1:-0.70935 2:-0.852532 3:-0.970186 4:-0.900314 5:-0.964889 6:-0.945794 7:-0.960383 8:-0.941041 9:-0.961815 10:0.7427 11:-0.514061 
-1024 1:-0.76622 2:-0.872786 3:-0.984202 4:-0.909815 5:-0.982418 6:-0.957261 7:-0.978837 8:-0.955101 9:-0.978074 10:0.789354 11:-0.508716 
-1024 1:-0.658693 2:-0.888241 3:-0.938519 4:-0.923522 5:-0.936935 6:-0.947184 7:-0.925326 8:-0.94326 9:-0.925026 10:-0.0304722 11:-0.217612 
-1024 1:-0.640002 2:-0.857107 3:-0.943302 4:-0.889513 5:-0.940613 6:-0.927694 7:-0.928813 8:-0.919358 9:-0.93321 10:-0.0750901 11:-0.195665 
-1024 1:-0.52331 2:-0.87591 3:-0.831284 4:-0.8837 5:-0.849131 6:-0.894873 7:-0.834129 8:-0.893425 9:-0.828919 10:0.390112 11:-0.137842 
-1024 1:0.0310697 2:-0.00979216 3:-0.327485 4:-0.122091 5:-0.400628 6:-0.165461 7:-0.450888 8:-0.197357 9:-0.403244 10:-0.81288 11:0.250544 
-1024 1:-0.646679 2:-0.941805 3:-0.840904 4:-0.959614 5:-0.850809 6:-0.952649 7:-0.818411 8:-0.951977 9:-0.806446 10:0.388278 11:-0.149302 
-1024 1:-0.577279 2:-0.880988 3:-0.790897 4:-0.911029 5:-0.803952 6:-0.911868 7:-0.766724 8:-0.912984 9:-0.75118 10:0.142539 11:-0.0419082 
-1024 1:-0.577005 2:-0.890361 3:-0.785372 4:-0.918143 5:-0.802756 6:-0.918817 7:-0.772866 8:-0.919733 9:-0.757066 10:0.162041 11:-0.0397033 
-1024 1:-0.555602 2:-0.89795 3:-0.768744 4:-0.919315 5:-0.786887 6:-0.919765 7:-0.746607 8:-0.920764 9:-0.726846 10:0.379252 11:-0.0135185 
-1024 1:-0.586419 2:-0.866704 3:-0.813544 4:-0.904132 5:-0.836207 6:-0.959503 7:-0.805322 8:-0.960413 9:-0.787641 10:0.101952 11:-0.050939 
-1024 1:-0.586479 2:-0.906988 3:-0.833138 4:-0.936102 5:-0.840527 6:-0.957766 7:-0.800923 8:-0.952196 9:-0.790543 10:0.589824 11:-0.207844 
-1024 1:-0.601325 2:-0.910392 3:-0.840145 4:-0.937577 5:-0.84806 6:-0.958461 7:-0.809828 8:-0.957101 9:-0.798125 10:0.507794 11:-0.197171 
-1024 1:-0.306813 2:-0.832557 3:-0.528839 4:-0.805271 5:-0.60428 6:-0.778943 7:-0.563784 8:-0.796754 9:-0.519168 10:-0.17594 11:0.185166 
-1024 1:-0.253633 2:-0.803097 3:-0.508592 4:-0.789871 5:-0.588358 6:-0.769309 7:-0.549434 8:-0.788255 9:-0.494122 10:-0.13896 11:0.215885 
-1024 1:-0.2401 2:-0.753438 3:-0.443492 4:-0.783928 5:-0.427564 6:-0.750892 7:-0.47425 8:-0.768259 9:-0.412852 10:0.114814 11:0.649432 
77.23373832855047 1:0.929725 2:0.770121 3:0.838063 4:0.191584 5:0.952983 6:0.438323 7:0.876589 8:0.443721 9:0.86694 10:-0.80264 11:-0.248601 
-1024 1:-0.11317 2:-0.881155 3:-0.41329 4:-0.940657 5:-0.398683 6:-0.886376 7:-0.269648 8:-0.88227 9:-0.259728 10:0.399401 11:-0.592536 
-1024 1:0.0529184 2:-0.79283 3:-0.229305 4:-0.887474 5:-0.209293 6:-0.808447 7:-0.0530283 8:-0.804315 9:-0.0410183 10:0.144932 11:-0.505945 
1024 1:0.115238 2:-0.884447 3:-0.151143 4:-0.938749 5:-0.124826 6:-0.862684 7:0.0384636 8:-0.857806 9:0.0495039 10:0.378922 11:-0.475524 
190.1174427864212 1:0.0169358 2:-0.911006 3:-0.320053 4:-0.954322 5:-0.280533 6:-0.895537 7:-0.175286 8:-0.88805 9:-0.170437 10:0.0869743 11:-0.505681 
-1024 1:-0.156996 2:-0.949616 3:-0.478743 4:-0.982648 5:-0.457767 6:-0.949048 7:-0.325814 8:-0.939729 9:-0.326846 10:0.631698 11:-0.624052 
1024 1:0.59125 2:-0.539462 3:0.440756 4:-0.733695 5:0.540395 6:-0.452222 7:0.6663 8:-0.420037 9:0.651762 10:-0.248014 11:-0.309993 
1024 1:0.565325 2:-0.563621 3:0.4066 4:-0.741677 5:0.489379 6:-0.467669 7:0.607344 8:-0.467123 9:0.624909 10:-0.226059 11:-0.29882 
422.0758900421916 1:0.680241 2:-0.588004 3:0.576816 4:-0.749572 5:0.68275 6:-0.51979 7:0.805268 8:-0.515708 9:0.822459 10:0.145148 11:-0.244873 
1024 1:0.15945 2:-0.215121 3:-0.120041 4:-0.359983 5:-0.133162 6:-0.323372 7:-0.146934 8:-0.359266 9:-0.079614 10:-0.602713 11:0.268673 
1024 1:-0.515029 2:-0.987558 3:-0.738612 4:-0.995272 5:-0.744101 6:-0.981837 7:-0.678853 8:-0.982316 9:-0.654363 10:0.824151 11:-0.106365 
1024 1:-0.40739 2:-0.950788 3:-0.653037 4:-0.966685 5:-0.659205 6:-0.947121 7:-0.580065 8:-0.95004 9:-0.545939 10:0.559059 11:-0.0111956 
1024 1:-0.400224 2:-0.9586 3:-0.643575 4:-0.971326 5:-0.651798 6:-0.952333 7:-0.580924 8:-0.954602 9:-0.545309 10:0.551657 11:-0.00970611 
1024 1:-0.370274 2:-0.970484 3:-0.617698 4:-0.979568 5:-0.624023 6:-0.959567 7:-0.540556 8:-0.962569 9:-0.497708 10:0.669825 11:0.0145106 
1024 1:-0.439459 2:-0.96602 3:-0.697095 4:-0.982215 5:-0.699404 6:-0.983953 7:-0.6387 8:-0.985752 9:-0.604954 10:0.55521 11:-0.0190622 
1024 1:-0.527721 2:-0.986107 3:-0.766026 4:-0.997874 5:-0.765539 6:-0.995641 7:-0.699346 8:-0.994126 9:-0.680339 10:0.862938 11:-0.153538 
1024 1:-0.534577 2:-0.989566 3:-0.771198 4:-0.999783 5:-0.771179 6:-0.997315 7:-0.705005 8:-0.996844 9:-0.685513 10:0.871431 11:-0.147582 
1024 1:-0.102357 2:-0.871279 3:-0.366936 4:-0.902223 5:-0.366945 6:-0.815049 7:-0.281745 8:-0.837059 9:-0.206788 10:0.0501758 11:0.182895 
1024 1:-0.122026 2:-0.866034 3:-0.406494 4:-0.900792 5:-0.40618 6:-0.821904 7:-0.32619 8:-0.845183 9:-0.24626 10:0.0545843 11:0.215942 
1024 1:-0.164316 2:-0.910001 3:-0.419486 4:-0.881531 5:-0.52665 6:-0.84967 7:-0.434633 8:-0.855775 9:-0.392514 10:0.242311 11:0.208408 
1024 1:-0.688729 2:-0.879704 3:-0.902615 4:-0.892116 5:-0.924244 6:-0.913131 7:-0.916394 8:-0.908484 9:-0.922781 10:-0.479388 11:-0.44301 
-1024 1:-0.859622 2:-0.989734 3:-0.981042 4:-0.999566 5:-0.983239 6:-0.992956 7:-0.978515 8:-0.989908 9:-0.980237 10:0.676471 11:-0.706508 
1024 1:-0.810493 2:-0.966132 3:-0.965403 4:-0.979351 5:-0.967548 6:-0.972044 7:-0.961966 8:-0.968443 9:-0.964306 10:0.49413 11:-0.638557 
1024 1:-0.809703 2:-0.971767 3:-0.964414 4:-0.983125 5:-0.966817 6:-0.977667 7:-0.963173 8:-0.974223 9:-0.965839 10:0.455262 11:-0.637203 
1024 1:-0.800821 2:-0.963621 3:-0.959895 4:-0.978007 5:-0.962907 6:-0.970907 7:-0.954241 8:-0.967568 9:-0.95738 10:0.552715 11:-0.615385 
1024 1:-0.807017 2:-0.914298 3:-0.974617 4:-0.950634 5:-0.978883 6:-0.999968 7:-0.960919 8:-0.996782 9:-0.962198 10:0.49171 11:-0.636076 
-1024 1:-0.800341 2:-0.953355 3:-0.970786 4:-0.975014 5:-0.973136 6:-0.991661 7:-0.96159 8:-0.987315 9:-0.962992 10:0.587714 11:-0.730505 
1024 1:-0.805292 2:-0.954192 3:-0.972993 4:-0.97484 5:-0.975884 6:-0.992229 7:-0.96505 8:-0.989377 9:-0.965757 10:0.553841 11:-0.723528 
343.4041512237427 1:-0.703858 2:-0.938904 3:-0.914901 4:-0.952847 5:-0.927618 6:-0.964873 7:-0.905128 8:-0.960319 9:-0.909943 10:-0.102734 11:-0.48412 
1024 1:-0.644473 2:-0.910559 3:-0.89123 4:-0.931678 5:-0.902752 6:-0.941972 7:-0.880049 8:-0.933761 9:-0.887169 10:-0.0149142 11:-0.468796 
1024 1:-0.667369 2:-0.930255 3:-0.888794 4:-0.937881 5:-0.875995 6:-0.947942 7:-0.888123 8:-0.944635 9:-0.890481 10:0.327476 11:-0.47708 
1024 1:-0.366996 2:-0.550007 3:-0.624388 4:-0.628544 5:-0.648567 6:-0.64785 7:-0.634784 8:-0.633938 9:-0.641497 10:-0.733924 11:-0.784038 
-1024 1:-0.749744 2:-0.965128 3:-0.916472 4:-0.980826 5:-0.913391 6:-0.977351 7:-0.89279 8:-0.974223 9:-0.889769 10:0.723132 11:-0.983627 
1024 1:-0.691389 2:-0.93059 3:-0.878238 4:-0.952847 5:-0.875031 6:-0.952238 7:-0.846843 8:-0.949134 9:-0.843099 10:0.51465 11:-0.936238 
-369.1127818532722 1:-0.692032 2:-0.938959 3:-0.876438 4:-0.958486 5:-0.8738 6:-0.958429 7:-0.850276 8:-0.955039 9:-0.846821 10:0.5132 11:-0.934857 
-1024 1:-0.672964 2:-0.93829 3:-0.863446 4:-0.957098 5:-0.860698 6:-0.956597 7:-0.826565 8:-0.953258 9:-0.823089 10:0.539679 11:-0.918977 
-1024 1:-0.715263 2:-0.932989 3:-0.922615 4:-0.958963 5:-0.918693 6:-0.98171 7:-0.89448 8:-0.976535 9:-0.893656 10:0.664277 11:-1 
-1024 1:-0.727938 2:-0.936616 3:-0.924362 4:-0.959354 5:-0.919978 6:-0.982658 7:-0.894855 8:-0.97966 9:-0.892863 10:0.637401 11:-0.994313 
-1024 1:-0.52071 2:-0.898898 3:-0.754693 4:-0.922004 5:-0.750116 6:-0.906403 7:-0.71045 8:-0.901736 9:-0.709054 10:-0.146685 11:-0.813896 
-1024 1:-0.43746 2:-0.854652 3:-0.727704 4:-0.885392 5:-0.724626 6:-0.878826 7:-0.68116 8:-0.876459 9:-0.673633 10:-0.0803277 11:-0.810186 
-1024 1:-0.367983 2:-0.84751 3:-0.650565 4:-0.86817 5:-0.639445 6:-0.868876 7:-0.606137 8:-0.862617 9:-0.606186 10:0.115003 11:-0.7775 
-1024 1:-0.660392 2:-0.870331 3:-0.891918 4:-0.930246 5:-0.884742 6:-0.927599 7:-0.885843 8:-0.924482 9:-0.888072 10:-0.776843 11:0.793011 
1024 1:-0.81323 2:-0.980471 3:-0.966709 4:-0.997744 5:-0.963461 6:-0.987396 7:-0.960168 8:-0.984753 9:-0.961295 10:0.640495 11:0.137653 
1024 1:-0.76743 2:-0.950732 3:-0.947451 4:-0.97766 5:-0.945807 6:-0.966674 7:-0.940186 8:-0.964537 9:-0.940382 10:0.551098 11:0.275708 
1024 1:-0.769284 2:-0.958655 3:-0.947345 4:-0.982431 5:-0.946075 6:-0.973876 7:-0.94209 8:-0.971411 9:-0.942462 10:0.554751 11:0.276808 
1024 1:-0.761037 2:-0.956591 3:-0.94325 4:-0.97753 5:-0.941434 6:-0.970212 7:-0.933668 8:-0.968005 9:-0.933703 10:0.627162 11:0.321295 
1024 1:-0.774158 2:-0.912177 3:-0.965861 4:-0.944952 5:-0.962782 6:-0.996841 7:-0.944933 8:-0.994251 9:-0.945172 10:0.512014 11:0.268704 
-1024 1:-0.749958 2:-0.941247 3:-0.958607 4:-0.967466 5:-0.9535 6:-0.984995 7:-0.941634 8:-0.979753 9:-0.943064 10:0.522004 11:0.0822839 
1024 1:-0.765165 2:-0.947273 3:-0.962031 4:-0.969591 5:-0.95923 6:-0.987996 7:-0.945818 8:-0.985065 9:-0.946294 10:0.512722 11:0.0849309 
1024 1:-0.666631 2:-0.923839 3:-0.892907 4:-0.950157 5:-0.885581 6:-0.955523 7:-0.878681 8:-0.952852 9:-0.877862 10:0.0961284 11:0.420623 
1024 1:-0.604895 2:-0.892537 3:-0.872201 4:-0.927253 5:-0.866874 6:-0.937581 7:-0.851644 8:-0.926513 9:-0.859166 10:0.096607 11:0.438457 
1024 1:-0.680396 2:-0.932431 3:-0.915377 4:-0.954929 5:-0.906108 6:-0.966358 7:-0.896653 8:-0.963538 9:-0.897543 10:0.32726 11:-0.4651 
1024 1:0.168856 2:-0.343228 3:-0.101471 4:-0.461403 5:-0.207776 6:-0.408946 7:-0.175688 8:-0.445345 9:-0.0902073 10:-0.480905 11:0.204081 
-1024 1:-0.519199 2:-0.98951 3:-0.760818 4:-0.980046 5:-0.787209 6:-0.973181 7:-0.72472 8:-0.974786 9:-0.698707 10:0.91373 11:-0.149395 
1024 1:-0.407604 2:-0.947887 3:-0.671853 4:-0.93992 5:-0.708579 6:-0.933001 7:-0.628212 8:-0.937604 9:-0.592418 10:0.658372 11:-0.0600965 
1024 1:-0.403399 2:-0.956758 3:-0.66331 4:-0.944258 5:-0.706258 6:-0.937865 7:-0.632343 8:-0.942322 9:-0.595073 10:0.650681 11:-0.0579631 
1024 1:-0.373098 2:-0.965183 3:-0.637874 4:-0.964082 5:-0.679305 6:-0.951038 7:-0.593101 8:-0.956289 9:-0.548429 10:0.744197 11:-0.0333267 
1024 1:-0.442866 2:-0.952741 3:-0.721243 4:-0.96521 5:-0.752615 6:-0.981489 7:-0.690253 8:-0.986346 9:-0.652419 10:0.673809 11:-0.0611362 
-1024 1:-0.535779 2:-0.979077 3:-0.790332 4:-0.986726 5:-0.807433 6:-0.990239 7:-0.74422 8:-0.989408 9:-0.723205 10:0.926706 11:-0.194678 
1024 1:-0.536294 2:-0.980192 3:-0.792274 4:-0.986639 5:-0.809682 6:-0.990018 7:-0.745829 8:-0.990658 9:-0.724328 10:0.938395 11:-0.187591 
1024 1:-0.111651 2:-0.897503 3:-0.37518 4:-0.875979 5:-0.44761 6:-0.816944 7:-0.344268 8:-0.846901 9:-0.26523 10:0.117194 11:0.140444 
1024 1:-0.1387 2:-0.891087 3:-0.421286 4:-0.876586 5:-0.488272 6:-0.827969 7:-0.391664 8:-0.858462 9:-0.306809 10:0.133695 11:0.164979 
-1024 1:-0.0183346 2:-0.874515 3:-0.268881 4:-0.872682 5:-0.345864 6:-0.808542 7:-0.250684 8:-0.831341 9:-0.172217 10:0.269039 11:0.126645 
1024 1:-0.296721 2:-0.503752 3:-0.653248 4:-0.583993 5:-0.659491 6:-0.631298 7:-0.678156 8:-0.647467 9:-0.651872 10:-0.694099 11:0.0909293 
-1024 1:-0.721107 2:-0.962505 3:-0.909235 4:-0.979265 5:-0.905983 6:-0.974161 7:-0.892736 8:-0.973192 9:-0.885636 10:0.498674 11:-0.56189 
1024 1:-0.66603 2:-0.927465 3:-0.877391 4:-0.951415 5:-0.874121 6:-0.948984 7:-0.856606 8:-0.948634 9:-0.847478 10:0.326478 11:-0.406311 
1024 1:-0.667172 2:-0.935779 3:-0.875343 4:-0.957749 5:-0.872389 6:-0.955871 7:-0.86122 8:-0.955351 9:-0.852022 10:0.343458 11:-0.404196 
1024 1:-0.651974 2:-0.936783 3:-0.865564 4:-0.955406 5:-0.864161 6:-0.954607 7:-0.842739 8:-0.954195 9:-0.831657 10:0.466007 11:-0.345877 
1024 1:-0.669866 2:-0.888911 3:-0.899455 4:-0.926299 5:-0.89738 6:-0.981331 7:-0.876133 8:-0.981128 9:-0.86653 10:0.297297 11:-0.402582 
-1024 1:-0.664468 2:-0.924062 3:-0.902527 4:-0.951806 5:-0.898344 6:-0.974698 7:-0.874578 8:-0.970505 9:-0.86924 10:0.51374 11:-0.61106 
1024 1:-0.674612 2:-0.928358 3:-0.907434 4:-0.953237 5:-0.904181 6:-0.974666 7:-0.881015 8:-0.973348 9:-0.874222 10:0.454757 11:-0.615916 
1024 1:-0.500105 2:-0.895104 3:-0.760165 4:-0.913675 5:-0.762611 6:-0.908867 7:-0.743603 8:-0.912952 9:-0.723589 10:0.0434618 11:-0.0862375 
1024 1:-0.44756 2:-0.86503 3:-0.744455 4:-0.887908 5:-0.74942 6:-0.893452 7:-0.725176 8:-0.889207 9:-0.708889 10:0.112644 11:-0.0873942 
1024 1:-0.362293 2:-0.853201 3:-0.679832 4:-0.879753 5:-0.666006 6:-0.865812 7:-0.662572 8:-0.868116 9:-0.6447 10:0.276049 11:0.0419843 
1024 1:-0.327263 2:-0.470777 3:-0.784419 4:-0.610801 5:-0.791386 6:-0.676817 7:-0.781128 8:-0.677743 9:-0.777787 10:-0.574745 11:0.606274 
-1024 1:-0.759329 2:-0.935388 3:-0.963072 4:-0.957749 5:-0.963015 6:-0.952143 7:-0.96556 8:-0.950915 9:-0.964169 10:0.73633 11:0.111446 
1024 1:-0.724634 2:-0.887516 3:-0.947204 4:-0.917189 5:-0.946271 6:-0.922766 7:-0.95019 8:-0.922576 9:-0.9478 10:0.575715 11:0.250528 
1024 1:-0.730452 2:-0.898228 3:-0.948192 4:-0.925344 5:-0.947646 6:-0.930916 7:-0.952685 8:-0.930137 9:-0.950482 10:0.577542 11:0.252683 
1024 1:-0.727191 2:-0.900683 3:-0.946886 4:-0.928728 5:-0.947181 6:-0.933316 7:-0.94783 8:-0.932543 9:-0.945473 10:0.792489 11:0.289744 
1024 1:-0.723338 2:-0.841094 3:-0.975093 4:-0.887821 5:-0.976438 6:-0.965821 7:-0.954402 8:-0.964225 9:-0.952782 10:0.574347 11:0.24594 
-1024 1:-0.688128 2:-0.884614 3:-0.953117 4:-0.920356 5:-0.951573 6:-0.95546 7:-0.937584 8:-0.949352 9:-0.938904 10:0.596295 11:0.0394726 
-1024 1:-0.720197 2:-0.897057 3:-0.961043 4:-0.927513 5:-0.961319 6:-0.96143 7:-0.948098 8:-0.959819 9:-0.94665 10:0.631078 11:0.0538232 
-1024 1:-0.595756 2:-0.886232 3:-0.892218 4:-0.916755 5:-0.89472 6:-0.923935 7:-0.879754 8:-0.924076 9:-0.875727 10:-0.0261108 11:0.501065 
-1024 1:-0.508524 2:-0.839252 3:-0.859951 4:-0.876109 5:-0.863143 6:-0.892472 7:-0.83547 8:-0.879958 9:-0.844166 10:-0.0119145 11:0.546097 
-1024 1:-0.030898 2:-0.761529 3:-0.457402 4:-0.815074 5:-0.463943 6:-0.732792 7:-0.445818 8:-0.73314 9:-0.432806 10:0.107763 11:0.641697 
1024 1:-0.651081 2:-0.842321 3:-0.908387 4:-0.874894 5:-0.933026 6:-0.914553 7:-0.916769 8:-0.912859 9:-0.91539 10:-0.661116 11:-0.436746 
1024 1:-0.809841 2:-0.911898 3:-0.969374 4:-0.934627 5:-0.9731 6:-0.947405 7:-0.976798 8:-0.945634 9:-0.974762 10:0.604903 11:-0.634584 
1024 1:-0.814595 2:-0.916808 3:-0.970186 4:-0.941568 5:-0.974671 6:-0.953502 7:-0.978113 8:-0.951602 9:-0.976103 10:0.612669 11:-0.63348 
1024 1:-0.810218 2:-0.914911 3:-0.968121 4:-0.945082 5:-0.973064 6:-0.955713 7:-0.974089 8:-0.953758 9:-0.972025 10:0.576908 11:-0.611421 
1024 1:-0.782594 2:-0.812861 3:-0.984431 4:-0.886346 5:-0.99045 6:-0.968443 7:-0.97189 8:-0.966537 9:-0.969671 10:0.570066 11:-0.632502 
-1024 1:-0.73319 2:-0.872507 3:-0.962102 4:-0.917016 5:-0.965621 6:-0.958587 7:-0.955635 8:-0.953446 9:-0.956094 10:0.545246 11:-0.725784 
1024 1:-0.722025 2:-0.86397 3:-0.961625 4:-0.911333 5:-0.965603 6:-0.951764 7:-0.955877 8:-0.951227 9:-0.952864 10:0.543629 11:-0.717791 
-1024 1:-0.681992 2:-0.886902 3:-0.923585 4:-0.917059 5:-0.93972 6:-0.950817 7:-0.916314 8:-0.946884 9:-0.91498 10:-0.18134 11:-0.474455 
-1024 1:-0.617553 2:-0.857274 3:-0.904892 4:-0.893981 5:-0.921852 6:-0.933538 7:-0.891905 8:-0.91917 9:-0.900417 10:-0.100685 11:-0.461183 
-1024 1:-0.602303 2:-0.864026 3:-0.892183 4:-0.87702 5:-0.918282 6:-0.909878 7:-0.90486 8:-0.907953 9:-0.902607 10:0.056074 11:-0.421914 
-1024 1:0.252912 2:-0.275269 3:0.00509254 4:-0.0486498 5:-0.32896 6:-0.185678 7:-0.243791 8:-0.163925 9:-0.253021 10:-0.630209 11:-0.437038 
1024 1:-0.549853 2:-0.979914 3:-0.815715 4:-0.968724 5:-0.830406 6:-0.958808 7:-0.78963 8:-0.955664 9:-0.784548 10:0.562672 11:-0.759605 
1024 1:-0.43268 2:-0.919654 3:-0.740695 4:-0.896844 5:-0.755239 6:-0.900685 7:-0.702913 8:-0.897674 9:-0.694957 10:0.385737 11:-0.691933 
1024 1:-0.437494 2:-0.933938 3:-0.737024 4:-0.906344 5:-0.757613 6:-0.912689 7:-0.711282 8:-0.909234 9:-0.703935 10:0.393624 11:-0.690331 
1024 1:-0.407046 2:-0.939908 3:-0.712399 4:-0.927557 5:-0.73896 6:-0.927346 7:-0.673569 8:-0.923263 9:-0.666352 10:0.635628 11:-0.661307 
1024 1:-0.480342 2:-0.923448 3:-0.794374 4:-0.936363 5:-0.814858 6:-0.976056 7:-0.764068 8:-0.973255 9:-0.757312 10:0.401342 11:-0.695206 
1024 1:-0.531428 2:-0.958042 3:-0.829802 4:-0.953411 5:-0.837135 6:-0.968001 7:-0.784507 8:-0.962725 9:-0.780086 10:0.591388 11:-0.782541 
1024 1:-0.553114 2:-0.966188 3:-0.838292 4:-0.963518 5:-0.847881 6:-0.976056 7:-0.795746 8:-0.972411 9:-0.790926 10:0.553949 11:-0.78004 
1024 1:-0.124763 2:-0.89131 3:-0.44381 4:-0.802061 5:-0.527543 6:-0.80513 7:-0.412344 8:-0.792973 9:-0.41203 10:0.0238526 11:-0.504852 
1024 1:-0.00774489 2:-0.835849 3:-0.364006 4:-0.749572 5:-0.455821 6:-0.755631 7:-0.323883 8:-0.732515 9:-0.331883 10:0.103982 11:-0.510602 
-1024 1:0.0793239 2:-0.851751 3:-0.20657 4:-0.787312 5:-0.338278 6:-0.755157 7:-0.237997 8:-0.75423 9:-0.219134 10:0.272996 11:-0.443666 
-1024 1:-0.0865239 2:-0.375868 3:-0.536235 4:-0.333304 5:-0.662222 6:-0.388003 7:-0.67668 8:-0.386074 9:-0.674372 10:-0.893292 11:-0.362759 
-1024 1:-0.801662 2:-0.977068 3:-0.971845 4:-0.98768 5:-0.971422 6:-0.97713 7:-0.974223 8:-0.97591 9:-0.971614 10:0.635959 11:-0.64513 
1024 1:-0.731697 2:-0.92886 3:-0.946586 4:-0.943 5:-0.945682 6:-0.939508 7:-0.949413 8:-0.93951 9:-0.94665 10:0.422306 11:-0.572482 
1024 1:-0.73736 2:-0.941135 3:-0.947451 4:-0.950157 5:-0.947128 6:-0.949743 7:-0.951532 8:-0.949196 9:-0.948758 10:0.419792 11:-0.571212 
1024 1:-0.72738 2:-0.939573 3:-0.943144 4:-0.950591 5:-0.943861 6:-0.947942 7:-0.943485 8:-0.947415 9:-0.940656 10:0.456301 11:-0.548251 
1024 1:-0.757527 2:-0.903139 3:-0.977635 4:-0.931548 5:-0.977759 6:-0.98806 7:-0.961456 8:-0.986721 9:-0.959242 10:0.457487 11:-0.570866 
-1024 1:-0.751503 2:-0.944706 3:-0.965844 4:-0.96252 5:-0.964532 6:-0.978899 7:-0.954428 8:-0.974286 9:-0.954123 10:0.511353 11:-0.670481 
-1024 1:-0.753296 2:-0.944874 3:-0.966868 4:-0.961349 5:-0.966531 6:-0.977762 7:-0.956547 8:-0.976816 9:-0.953959 10:0.491744 11:-0.664299 
-1024 1:-0.571358 2:-0.918148 3:-0.87086 4:-0.928294 5:-0.876709 6:-0.929242 7:-0.849928 8:-0.921295 9:-0.852022 10:-0.193339 11:-0.409504 
-1024 1:-0.499942 2:-0.878477 3:-0.841452 4:-0.891639 5:-0.848327 6:-0.905582 7:-0.809533 8:-0.877427 9:-0.832149 10:-0.107628 11:-0.392989 
-1024 1:-0.387077 2:-0.889134 3:-0.736247 4:-0.889036 5:-0.757667 6:-0.872098 7:-0.74599 8:-0.870241 9:-0.739164 10:0.0742947 11:-0.355505 
1024 1:-0.0779337 2:-0.568141 3:-0.382717 4:-0.456545 5:-0.57381 6:-0.573586 7:-0.485006 8:-0.515677 9:-0.539424 10:-0.508401 11:-0.533808 
1024 1:-0.623577 2:-0.985437 3:-0.858362 4:-0.982388 5:-0.873103 6:-0.97495 7:-0.832976 8:-0.96863 9:-0.837679 10:0.698008 11:-0.782516 
1024 1:-0.531248 2:-0.935723 3:-0.809237 4:-0.924911 5:-0.818214 6:-0.929842 7:-0.772544 8:-0.922388 9:-0.77442 10:0.517171 11:-0.724984 
1024 1:-0.539048 2:-0.949672 3:-0.806784 4:-0.935669 5:-0.822123 6:-0.942888 7:-0.780886 8:-0.934605 9:-0.783918 10:0.521997 11:-0.723558 
1024 1:-0.516608 2:-0.9485 3:-0.79178 4:-0.947554 5:-0.809985 6:-0.950216 7:-0.751623 8:-0.94076 9:-0.758708 10:0.622389 11:-0.706076 
1024 1:-0.569796 2:-0.924843 3:-0.845706 4:-0.944388 5:-0.8645 6:-0.989291 7:-0.810606 8:-0.981784 9:-0.815479 10:0.540467 11:-0.721648 
1024 1:-0.595404 2:-0.95581 3:-0.866994 4:-0.960134 5:-0.874567 6:-0.978867 7:-0.825599 8:-0.969943 9:-0.829522 10:0.678055 11:-0.803955 
1024 1:-0.62217 2:-0.964904 3:-0.876543 4:-0.971326 5:-0.885491 6:-0.987554 7:-0.837857 8:-0.980472 9:-0.841265 10:0.650836 11:-0.801439 
1024 1:-0.321642 2:-0.932878 3:-0.623558 4:-0.882139 5:-0.693799 6:-0.905676 7:-0.581031 8:-0.874553 9:-0.619353 10:0.121016 11:-0.591815 
1024 1:-0.190438 2:-0.874962 3:-0.546349 4:-0.826049 5:-0.623094 6:-0.855893 7:-0.490639 8:-0.808314 9:-0.541094 10:0.195118 11:-0.589092 
1024 1:0.0387244 2:-0.8426 3:-0.268245 4:-0.80744 5:-0.342205 6:-0.77809 7:-0.25916 8:-0.77307 9:-0.248122 10:0.257896 11:-0.523875 
935.614716891239 1:1 2:0.66623 3:0.982119 4:0.402928 5:1 6:0.406987 7:1 8:0.451626 9:0.964032 10:-0.788552 11:0.448563 
-1024 1:-0.0216127 2:-0.919375 3:-0.325155 4:-0.942739 5:-0.320321 6:-0.903908 7:-0.15659 8:-0.900798 9:-0.143448 10:0.421255 11:0.0107394 
-1024 1:0.151495 2:-0.84924 3:-0.129096 4:-0.888819 5:-0.122256 6:-0.830401 7:0.0746741 8:-0.826874 9:0.089961 10:0.169045 11:0.123715 
-1024 1:0.160497 2:-0.865588 3:-0.112733 4:-0.900835 5:-0.106512 6:-0.837793 7:0.0694437 8:-0.834528 9:0.0841306 10:0.200976 11:0.126324 
1024 1:0.212047 2:-0.928916 3:-0.0435205 4:-0.950114 5:-0.0367713 6:-0.886881 7:0.170082 8:-0.882208 9:0.183795 10:0.415377 11:0.156463 
-1024 1:0.110441 2:-0.941135 3:-0.219509 4:-0.961783 5:-0.21563 6:-0.911047 7:-0.060485 8:-0.906047 9:-0.0504619 10:0.098036 11:0.121671 
-1024 1:-0.06755 2:-0.973385 3:-0.383988 4:-0.989979 5:-0.373335 6:-0.959914 7:-0.208519 8:-0.954164 9:-0.201861 10:0.691112 11:-0.042394 
-159.5515600617861 1:-0.0712916 2:-0.976901 3:-0.387871 4:-0.989068 5:-0.383046 6:-0.961209 7:-0.212542 8:-0.954976 9:-0.208677 10:0.656458 11:-0.0368047 
1024 1:0.69465 2:-0.647873 3:0.597133 4:-0.711832 5:0.590411 6:-0.501785 7:0.865002 8:-0.478871 9:0.859851 10:-0.0496904 11:0.37512 
1024 1:0.667352 2:-0.629683 3:0.546243 4:-0.723371 5:0.54093 6:-0.483811 7:0.78955 8:-0.507116 9:0.840142 10:-0.0518071 11:0.397586 
-117.8833101924085 1:0.696718 2:-0.700879 3:0.596816 4:-0.817504 5:0.67727 6:-0.630256 7:0.880934 8:-0.611098 9:0.87507 10:0.190042 11:0.417221 
1024 1:0.697276 2:0.629349 3:0.77351 4:0.775209 5:0.448699 6:0.79638 7:0.457272 8:0.793723 9:0.466201 10:-0.839992 11:-0.149194 
-1024 1:-0.37145 2:-0.933603 3:-0.605783 4:-0.933847 5:-0.621791 6:-0.910194 7:-0.534252 8:-0.908391 9:-0.521823 10:0.487174 11:-0.536596 
1024 1:-0.222225 2:-0.858 3:-0.452583 4:-0.856979 5:-0.480311 6:-0.831633 7:-0.365672 8:-0.830404 9:-0.350168 10:0.21863 11:-0.443267 
1024 1:-0.215685 2:-0.872674 3:-0.439662 4:-0.867129 5:-0.472172 6:-0.839909 7:-0.370956 8:-0.83834 9:-0.355943 10:0.239655 11:-0.441359 
1024 1:-0.169963 2:-0.908439 3:-0.385224 4:-0.906865 5:-0.421174 6:-0.868118 7:-0.296953 8:-0.866617 9:-0.280449 10:0.40571 11:-0.41032 
-1024 1:-0.259992 2:-0.906933 3:-0.530392 4:-0.923305 5:-0.561137 6:-0.916195 7:-0.501234 8:-0.915202 9:-0.487443 10:0.139466 11:-0.444153 
-1024 1:-0.376427 2:-0.94002 3:-0.638209 4:-0.958616 5:-0.644997 6:-0.94949 7:-0.557615 8:-0.941291 9:-0.555026 10:0.697692 11:-0.570371 
1024 1:-0.381173 2:-0.945209 3:-0.637185 4:-0.958703 5:-0.647085 6:-0.947879 7:-0.562497 8:-0.944447 9:-0.553603 10:0.659269 11:-0.564243 
-1024 1:0.27985 2:-0.668238 3:0.215908 4:-0.653443 5:0.121434 6:-0.456202 7:0.255619 8:-0.439096 9:0.261206 10:-0.131491 11:-0.223494 
-1024 1:0.246674 2:-0.683861 3:0.151496 4:-0.682941 5:0.062886 6:-0.497078 7:0.178585 8:-0.513615 9:0.224827 10:-0.0883494 11:-0.212484 
-1024 1:0.42421 2:-0.626057 3:0.40517 4:-0.647327 5:0.324605 6:-0.48599 7:0.434419 8:-0.488494 9:0.464805 10:0.155003 11:-0.149342 
1024 1:-0.27386 2:-0.795453 3:-0.623152 4:-0.83633 5:-0.646942 6:-0.820608 7:-0.620782 8:-0.844808 9:-0.578786 10:-0.49167 11:-0.461215 
-1024 1:-0.629687 2:-0.983987 3:-0.874266 4:-0.987637 5:-0.880333 6:-0.976877 7:-0.858377 8:-0.97791 9:-0.841976 10:0.676572 11:-0.724878 
1024 1:-0.548008 2:-0.9432 3:-0.82763 4:-0.952456 5:-0.833333 6:-0.945604 7:-0.80111 8:-0.949102 9:-0.786464 10:0.493254 11:-0.656447 
1024 1:-0.553972 2:-0.954973 3:-0.828354 4:-0.959831 5:-0.836689 6:-0.955365 7:-0.806824 8:-0.959132 9:-0.790296 10:0.504451 11:-0.655155 
1024 1:-0.533127 2:-0.959381 3:-0.813897 4:-0.965644 5:-0.82464 6:-0.960672 7:-0.784534 8:-0.96535 9:-0.764183 10:0.514238 11:-0.633465 
1024 1:-0.576438 2:-0.936616 3:-0.86567 4:-0.954192 5:-0.869105 6:-0.987744 7:-0.831098 8:-0.989439 9:-0.816547 10:0.541519 11:-0.654946 
-1024 1:-0.611486 2:-0.959046 3:-0.886393 4:-0.970632 5:-0.885545 6:-0.980478 7:-0.85202 8:-0.980972 9:-0.841292 10:0.595385 11:-0.749719 
-1024 1:-0.612344 2:-0.956926 3:-0.888088 4:-0.967943 5:-0.888544 6:-0.978615 7:-0.854246 8:-0.981347 9:-0.842223 10:0.575122 11:-0.742901 
1024 1:-0.384297 2:-0.936114 3:-0.712011 4:-0.94673 5:-0.719878 6:-0.933001 7:-0.667695 8:-0.943572 9:-0.631205 10:-0.0277623 11:-0.501686 
1024 1:-0.394011 2:-0.925122 3:-0.728463 4:-0.935712 5:-0.740888 6:-0.934991 7:-0.680141 8:-0.933918 9:-0.660932 10:0.0330337 11:-0.492719 
-1024 1:-0.319445 2:-0.927465 3:-0.652383 4:-0.935538 5:-0.671932 6:-0.916164 7:-0.627085 8:-0.929543 9:-0.57958 10:0.204252 11:-0.447284 
-1024 1:-0.0181286 2:-0.629237 3:-0.273241 4:-0.32298 5:-0.601906 6:-0.490824 7:-0.493321 8:-0.464311 9:-0.513611 10:-0.504478 11:-0.553735 
1024 1:-0.618711 2:-0.988952 3:-0.855308 4:-0.975577 5:-0.878815 6:-0.971254 7:-0.839306 8:-0.967474 9:-0.838171 10:0.724972 11:-0.795089 
1024 1:-0.524812 2:-0.945432 3:-0.804153 4:-0.912027 5:-0.825194 6:-0.923587 7:-0.77756 8:-0.919764 9:-0.774831 10:0.540892 11:-0.740175 
1024 1:-0.531162 2:-0.957707 3:-0.800553 4:-0.922221 5:-0.829567 6:-0.935528 7:-0.785312 8:-0.931293 9:-0.783097 10:0.54433 11:-0.73882 
1024 1:-0.509107 2:-0.953355 3:-0.786166 4:-0.940137 5:-0.818018 6:-0.945636 7:-0.75983 8:-0.940979 9:-0.759009 10:0.629548 11:-0.722109 
1024 1:-0.561266 2:-0.92395 3:-0.839757 4:-0.939963 5:-0.872104 6:-0.986859 7:-0.815112 8:-0.982316 9:-0.81422 10:0.566325 11:-0.737948 
1024 1:-0.585569 2:-0.957763 3:-0.861804 4:-0.952673 5:-0.877673 6:-0.973876 7:-0.827182 8:-0.968068 9:-0.826648 10:0.699336 11:-0.815842 
1024 1:-0.612618 2:-0.966188 3:-0.871619 4:-0.965427 5:-0.888544 6:-0.983384 7:-0.83944 8:-0.979191 9:-0.83839 10:0.679424 11:-0.813176 
1024 1:-0.287539 2:-0.944985 3:-0.58859 4:-0.840581 5:-0.699564 6:-0.878826 7:-0.582479 8:-0.864273 9:-0.594279 10:0.11751 11:-0.611853 
1024 1:-0.166161 2:-0.891198 3:-0.515812 4:-0.791736 5:-0.632359 6:-0.83416 7:-0.498149 8:-0.805533 9:-0.519797 10:0.200012 11:-0.605792 
1024 1:-0.180956 2:-0.927856 3:-0.481126 4:-0.847869 5:-0.609564 6:-0.864927 7:-0.503567 8:-0.856025 9:-0.507425 10:0.341766 11:-0.541697 
1024 1:0.143995 2:-0.261096 3:-0.159422 4:-0.478798 5:-0.133876 6:-0.393436 7:-0.150743 8:-0.367265 9:-0.178841 10:-0.805937 11:-0.534254 
-1024 1:-0.565437 2:-0.935388 3:-0.798999 4:-0.964169 5:-0.796152 6:-0.955966 7:-0.744998 8:-0.951415 9:-0.748087 10:0.494279 11:-0.788224 
-1024 1:-0.476128 2:-0.89025 3:-0.722284 4:-0.933413 5:-0.718307 6:-0.923587 7:-0.65195 8:-0.917483 9:-0.656744 10:0.301402 11:-0.72295 
-1024 1:-0.473348 2:-0.898396 3:-0.717624 4:-0.939096 5:-0.714398 6:-0.928325 7:-0.655196 8:-0.922201 9:-0.661042 10:0.311216 11:-0.721662 
-1024 1:-0.447955 2:-0.920714 3:-0.692965 4:-0.950027 5:-0.687409 6:-0.941056 7:-0.61177 8:-0.93423 9:-0.619955 10:0.39053 11:-0.700956 
-1024 1:-0.492588 2:-0.874069 3:-0.77118 4:-0.918447 5:-0.760469 6:-0.964431 7:-0.71324 8:-0.959694 9:-0.717238 10:0.306612 11:-0.722425 
-1024 1:-0.550033 2:-0.922165 3:-0.816033 4:-0.953411 5:-0.807272 6:-0.970749 7:-0.75224 8:-0.963662 9:-0.758024 10:0.500022 11:-0.812097 
-1024 1:-0.55967 2:-0.924397 3:-0.818946 4:-0.953281 5:-0.811378 6:-0.971507 7:-0.756826 8:-0.967318 9:-0.761007 10:0.485381 11:-0.80625 
-1024 1:-0.214501 2:-0.826642 3:-0.467199 4:-0.892246 5:-0.436221 6:-0.835423 7:-0.353227 8:-0.806564 9:-0.387121 10:-0.0928523 11:-0.575369 
-1024 1:-0.157382 2:-0.801534 3:-0.459538 4:-0.86778 5:-0.435989 6:-0.827368 7:-0.346521 8:-0.799316 9:-0.372422 10:-0.0911806 11:-0.568487 
-1024 1:-0.0244532 2:-0.795732 3:-0.294794 4:-0.860796 5:-0.263825 6:-0.793253 7:-0.177619 8:-0.781319 9:-0.192774 10:0.145472 11:-0.534711 
-285.5589002996872 1:-0.596974 2:-0.792886 3:-0.870913 4:-0.836417 5:-0.88069 6:-0.87513 7:-0.872834 8:-0.874084 9:-0.870636 10:-0.721871 11:0.746955 
-1024 1:-0.812115 2:-0.89728 3:-0.968827 4:-0.929682 5:-0.968477 6:-0.950216 7:-0.96961 8:-0.948259 9:-0.968083 10:0.634408 11:0.127335 
-1024 1:-0.791012 2:-0.882773 3:-0.955906 4:-0.917623 5:-0.956356 6:-0.940613 7:-0.955153 8:-0.938886 9:-0.953329 10:0.567512 11:0.244281 
-1024 1:-0.790566 2:-0.886288 3:-0.955094 4:-0.920269 5:-0.956089 6:-0.943362 7:-0.956547 8:-0.941573 9:-0.954753 10:0.582867 11:0.24432 
920.2286818578202 1:-0.78316 2:-0.884447 3:-0.950293 4:-0.916408 5:-0.952072 6:-0.940929 7:-0.948742 8:-0.939167 9:-0.946732 10:0.668207 11:0.284487 
-1024 1:-0.773334 2:-0.804436 3:-0.972145 4:-0.860839 5:-0.97335 6:-0.95666 7:-0.956789 8:-0.954664 9:-0.955081 10:0.550262 11:0.234318 
-1024 1:-0.733584 2:-0.846227 3:-0.959913 4:-0.893547 5:-0.956892 6:-0.946173 7:-0.947079 8:-0.941666 9:-0.947088 10:0.505913 11:0.0700158 
-1024 1:-0.805387 2:-0.856382 3:-0.974352 4:-0.89884 5:-0.9736 6:-0.955397 7:-0.965023 8:-0.953321 9:-0.964251 10:0.530787 11:0.0807408 
-1024 1:-0.638895 2:-0.869326 3:-0.860516 4:-0.887995 5:-0.87612 6:-0.919607 7:-0.866128 8:-0.91892 9:-0.862807 10:0.105579 11:0.374756 
-1024 1:-0.587998 2:-0.832501 3:-0.862193 4:-0.862922 5:-0.876602 6:-0.901759 7:-0.862776 8:-0.898236 9:-0.863628 10:0.103429 11:0.384272 
-1024 1:-0.527781 2:-0.860622 3:-0.852537 4:-0.869776 5:-0.864803 6:-0.878668 7:-0.874417 8:-0.877302 9:-0.870964 10:-0.161812 11:0.836599 
1024 1:-0.235989 2:-0.336198 3:-0.664228 4:-0.642989 5:-0.416283 6:-0.56989 7:-0.690655 8:-0.562044 9:-0.695258 10:-0.595122 11:0.212265 
-1024 1:-0.718644 2:-0.944595 3:-0.917513 4:-0.974667 5:-0.895969 6:-0.966864 7:-0.897538 8:-0.963725 9:-0.895819 10:0.511744 11:-0.183567 
1024 1:-0.656299 2:-0.882494 3:-0.881715 4:-0.944822 5:-0.857699 6:-0.930663 7:-0.85658 8:-0.927387 9:-0.854349 10:0.318793 11:-0.0790292 
1024 1:-0.657637 2:-0.89449 3:-0.880656 4:-0.951025 5:-0.854147 6:-0.938813 7:-0.861488 8:-0.93573 9:-0.859495 10:0.315679 11:-0.0770546 
1024 1:-0.639299 2:-0.913851 3:-0.870736 4:-0.949507 5:-0.843276 6:-0.946078 7:-0.843329 8:-0.94326 9:-0.841374 10:0.434689 11:-0.0503354 
1024 1:-0.664777 2:-0.884503 3:-0.908987 4:-0.916278 5:-0.883992 6:-0.97713 7:-0.876965 8:-0.974536 9:-0.874714 10:0.329909 11:-0.0845683 
-1024 1:-0.6552 2:-0.907714 3:-0.907381 4:-0.947902 5:-0.882011 6:-0.966453 7:-0.872271 8:-0.961413 9:-0.871375 10:0.439185 11:-0.236338 
1024 1:-0.665095 2:-0.912289 3:-0.912588 4:-0.945516 5:-0.890757 6:-0.96778 7:-0.879406 8:-0.965256 9:-0.877753 10:0.432478 11:-0.229188 
1024 1:-0.417499 2:-0.772521 3:-0.727721 4:-0.872595 5:-0.657759 6:-0.8443 7:-0.69036 8:-0.845277 9:-0.687046 10:-0.0698322 11:0.141428 
1024 1:-0.375646 2:-0.78407 3:-0.716918 4:-0.858323 5:-0.66481 6:-0.853713 7:-0.676144 8:-0.847901 9:-0.675221 10:0.000940353 11:0.168173 
1024 1:-0.327478 2:-0.839866 3:-0.658915 4:-0.8706 5:-0.646496 6:-0.850586 7:-0.644386 8:-0.854275 9:-0.623568 10:0.245891 11:0.0904204 
1024 1:0.161381 2:-0.400809 3:-0.0400254 4:-0.402538 5:-0.278694 6:-0.433617 7:-0.161955 8:-0.46003 9:-0.10195 10:-0.440385 11:-0.425288 
-1024 1:-0.518092 2:-0.991073 3:-0.739795 4:-0.972151 5:-0.777587 6:-0.970086 7:-0.697629 8:-0.969443 9:-0.685267 10:0.763307 11:-0.790849 
1024 1:-0.411277 2:-0.951011 3:-0.650759 4:-0.925388 5:-0.702188 6:-0.929147 7:-0.601121 8:-0.930793 9:-0.582372 10:0.6924 11:-0.702143 
1024 1:-0.41023 2:-0.960776 3:-0.643752 4:-0.932242 5:-0.702813 6:-0.936412 7:-0.605869 8:-0.937698 9:-0.586669 10:0.701352 11:-0.700609 
1024 1:-0.382572 2:-0.965797 3:-0.617804 4:-0.956057 5:-0.67909 6:-0.951985 7:-0.569283 8:-0.953633 9:-0.544625 10:0.784973 11:-0.6693 
1024 1:-0.442952 2:-0.941359 3:-0.696283 4:-0.955189 5:-0.753222 6:-0.98092 7:-0.667588 8:-0.981409 9:-0.650202 10:0.697779 11:-0.707825 
-1024 1:-0.524503 2:-0.972437 3:-0.772963 4:-0.977052 5:-0.800257 6:-0.986133 7:-0.722842 8:-0.983034 9:-0.712612 10:0.786071 11:-0.822724 
1024 1:-0.524056 2:-0.972158 3:-0.77328 4:-0.976228 5:-0.800328 6:-0.985185 7:-0.721286 8:-0.983722 9:-0.711079 10:0.764163 11:-0.818102 
1024 1:-0.134298 2:-0.936839 3:-0.3621 4:-0.858323 5:-0.497787 6:-0.841425 7:-0.348077 8:-0.857556 9:-0.299747 10:0.186214 11:-0.495645 
1024 1:-0.132616 2:-0.913851 3:-0.390396 4:-0.847609 5:-0.514887 6:-0.841583 7:-0.368247 8:-0.852463 9:-0.319045 10:0.206928 11:-0.497653 
1024 1:0.037257 2:-0.86291 3:-0.249799 4:-0.864917 5:-0.308897 6:-0.799981 7:-0.199158 8:-0.802628 9:-0.171751 10:0.36569 11:-0.665201 
679.8805844898176 1:0.538104 2:1 3:0.0382602 4:0.353823 5:0.174307 6:0.54563 7:-0.102865 8:0.520739 9:-0.0940669 10:-0.841764 11:0.252417 
-1024 1:-0.562776 2:-0.897782 3:-0.809272 4:-0.938792 5:-0.798686 6:-0.915753 7:-0.77064 8:-0.913327 9:-0.768617 10:0.412087 11:-0.530528 
-1024 1:-0.467564 2:-0.776036 3:-0.742107 4:-0.851166 5:-0.730874 6:-0.845721 7:-0.697092 8:-0.843527 9:-0.694874 10:0.167642 11:-0.409511 
-1024 1:-0.470533 2:-0.790096 3:-0.739071 4:-0.860709 5:-0.730088 6:-0.855166 7:-0.703691 8:-0.852932 9:-0.701636 10:0.187744 11:-0.405413 
-1024 1:-0.455592 2:-0.828372 3:-0.726168 4:-0.888212 5:-0.716826 6:-0.880532 7:-0.681857 8:-0.878115 9:-0.681297 10:0.297573 11:-0.325751 
-1024 1:-0.50697 2:-0.845669 3:-0.794763 4:-0.889296 5:-0.766788 6:-0.949585 7:-0.777775 8:-0.946415 9:-0.778088 10:0.147993 11:-0.404256 
-1024 1:-0.528536 2:-0.876859 3:-0.812114 4:-0.924173 5:-0.797187 6:-0.936696 7:-0.765168 8:-0.927044 9:-0.765332 10:0.615574 11:-0.558711 
-1024 1:-0.53704 2:-0.881936 3:-0.816457 4:-0.923739 5:-0.801685 6:-0.936002 7:-0.771176 8:-0.93273 9:-0.770068 10:0.547046 11:-0.55216 
-1024 1:-0.16901 2:-0.719905 3:-0.479537 4:-0.824704 5:-0.452037 6:-0.752914 7:-0.443351 8:-0.736327 9:-0.456019 10:-0.176028 11:0.124966 
-1024 1:-0.176742 2:-0.709304 3:-0.505326 4:-0.81373 5:-0.484006 6:-0.764981 7:-0.465345 8:-0.74495 9:-0.470335 10:-0.0668258 11:0.155922 
-1024 1:0.140562 2:-0.647929 3:-0.216843 4:-0.759809 5:-0.141605 6:-0.649651 7:-0.182689 8:-0.645998 9:-0.183932 10:0.139553 11:0.0345819 
1024 1:-0.680216 2:-0.86888 3:-0.903198 4:-0.889079 5:-0.91664 6:-0.904982 7:-0.919532 8:-0.903892 9:-0.91602 10:-0.49653 11:-0.333479 
-1024 1:-0.861665 2:-0.990068 3:-0.983972 4:-1 5:-0.98422 6:-0.993051 7:-0.983799 8:-0.99022 9:-0.981469 10:0.699869 11:-0.622677 
1024 1:-0.811093 2:-0.965574 3:-0.968545 4:-0.979872 5:-0.967905 6:-0.971823 7:-0.967974 8:-0.968443 9:-0.964716 10:0.485927 11:-0.547066 
1024 1:-0.809738 2:-0.971154 3:-0.967627 4:-0.983516 5:-0.967138 6:-0.977193 7:-0.969181 8:-0.974161 9:-0.965976 10:0.49198 11:-0.545714 
1024 1:-0.800341 2:-0.963007 3:-0.962737 4:-0.977486 5:-0.962729 6:-0.969959 7:-0.960383 8:-0.966849 9:-0.956751 10:0.577219 11:-0.521352 
1024 1:-0.81051 2:-0.918817 3:-0.978659 4:-0.952109 5:-0.980222 6:-1 7:-0.966981 8:-0.997282 9:-0.963402 10:0.50439 11:-0.543685 
-1024 1:-0.804992 2:-0.956089 3:-0.974228 4:-0.976315 5:-0.974742 6:-0.992419 7:-0.966552 8:-0.988346 9:-0.964771 10:0.582032 11:-0.649169 
1024 1:-0.808467 2:-0.9562 3:-0.975905 4:-0.975621 5:-0.977188 6:-0.99245 7:-0.969342 8:-0.98997 9:-0.966851 10:0.544505 11:-0.64294 
1024 1:-0.702871 2:-0.938513 3:-0.917778 4:-0.954408 5:-0.923244 6:-0.962536 7:-0.910788 8:-0.960101 9:-0.905536 10:0.0262052 11:-0.379065 
1024 1:-0.643452 2:-0.907714 3:-0.89333 4:-0.932415 5:-0.899147 6:-0.938813 7:-0.88536 8:-0.93198 9:-0.884158 10:0.0809816 11:-0.36038 
-1024 1:-0.71147 2:-0.943702 3:-0.926339 4:-0.948726 5:-0.932616 6:-0.960609 7:-0.924226 8:-0.957007 9:-0.925819 10:0.0895156 11:-0.379711 
1024 1:-0.714405 2:-0.896722 3:-0.930381 4:-0.934627 5:-0.926368 6:-0.94453 7:-0.927955 8:-0.942916 9:-0.926887 10:-0.617947 11:0.889096 
-1024 1:-0.832041 2:-0.979021 3:-0.977529 4:-0.995011 5:-0.974171 6:-0.984711 7:-0.97645 8:-0.982972 9:-0.97479 10:0.541505 11:0.100039 
1024 1:-0.794394 2:-0.954638 3:-0.96302 4:-0.977009 5:-0.96189 6:-0.966706 7:-0.962287 8:-0.96535 9:-0.959899 10:0.389417 11:0.267247 
1024 1:-0.796779 2:-0.962338 3:-0.963214 4:-0.981347 5:-0.962318 6:-0.973371 7:-0.96395 8:-0.971755 9:-0.961705 10:0.393556 11:0.269049 
1024 1:-0.791141 2:-0.960497 3:-0.960937 4:-0.978657 5:-0.959944 6:-0.970938 7:-0.95864 8:-0.969443 9:-0.956094 10:0.443533 11:0.328963 
1024 1:-0.792025 2:-0.903083 3:-0.978359 4:-0.934454 5:-0.976117 6:-0.99602 7:-0.961 8:-0.994095 9:-0.958804 10:0.389937 11:0.268517 
-1024 1:-0.773961 2:-0.94147 3:-0.969568 4:-0.964689 5:-0.96521 6:-0.986701 7:-0.958023 8:-0.98269 9:-0.957298 10:0.484592 11:0.0379716 
1024 1:-0.767756 2:-0.940243 3:-0.967838 4:-0.960482 5:-0.965692 6:-0.983321 7:-0.957137 8:-0.981878 9:-0.955218 10:0.462907 11:0.0404345 
1024 1:-0.717477 2:-0.931148 3:-0.926939 4:-0.94955 5:-0.925922 6:-0.961367 7:-0.916314 8:-0.959382 9:-0.913228 10:-0.0295217 11:0.498788 
1024 1:-0.642929 2:-0.895104 3:-0.900868 4:-0.925301 5:-0.901539 6:-0.941719 7:-0.885494 8:-0.932105 9:-0.889441 10:0.00194474 11:0.517074 
1024 1:-0.692341 2:-0.918985 3:-0.920991 4:-0.936796 5:-0.912142 6:-0.950248 7:-0.920042 8:-0.94879 9:-0.917443 10:0.0688548 11:0.707213 
-1024 1:0.166865 2:-0.117757 3:-0.156863 4:-0.119011 5:-0.302738 6:-0.108001 7:-0.362078 8:-0.210167 9:-0.203148 10:-0.751511 11:-0.735088 
1024 1:-0.634218 2:-0.999386 3:-0.847542 4:-0.993059 5:-0.872961 6:-0.982468 7:-0.85041 8:-0.991439 9:-0.792869 10:0.842755 11:-0.952397 
1024 1:-0.528073 2:-0.961055 3:-0.777623 4:-0.955536 5:-0.812681 6:-0.943962 7:-0.779947 8:-0.959726 9:-0.706398 10:0.607674 11:-0.899405 
1024 1:-0.523825 2:-0.969424 3:-0.770933 4:-0.959918 5:-0.811503 6:-0.950122 7:-0.782522 8:-0.964912 9:-0.704893 10:0.593228 11:-0.898484 
1024 1:-0.496956 2:-0.974222 3:-0.751728 4:-0.970936 5:-0.792207 6:-0.956218 7:-0.758436 8:-0.971974 9:-0.666708 10:0.607451 11:-0.881215 
1024 1:-0.567797 2:-0.963789 3:-0.823923 4:-0.971847 5:-0.851862 6:-0.98708 7:-0.826941 8:-0.999531 9:-0.754356 10:0.672986 11:-0.899136 
1024 1:-0.638483 2:-0.985158 3:-0.868988 4:-0.991324 5:-0.884188 6:-0.991882 7:-0.856204 8:-0.997282 9:-0.807952 10:0.788201 11:-0.972253 
1024 1:-0.644834 2:-0.987669 3:-0.872784 4:-0.992756 5:-0.887276 6:-0.993272 7:-0.859423 8:-1 9:-0.812113 10:0.783045 11:-0.965918 
1024 1:-0.24857 2:-0.926796 3:-0.536376 4:-0.896107 5:-0.60171 6:-0.830117 7:-0.565662 8:-0.899236 9:-0.4036 10:0.0875472 11:-0.77336 
1024 1:-0.261597 2:-0.912568 3:-0.57175 4:-0.892723 5:-0.629556 6:-0.845279 7:-0.586396 8:-0.892487 9:-0.448956 10:0.0947802 11:-0.773327 
-11.50428889745843 1:0.913695 2:0.9278 3:1 4:1 5:0.663471 6:1 7:0.651011 8:1 9:0.671224 10:-0.855078 11:-0.205266 
-1024 1:-0.289213 2:-0.929307 3:-0.55747 4:-0.928598 5:-0.573632 6:-0.901349 7:-0.479427 8:-0.901048 9:-0.461274 10:0.443041 11:-0.56744 
-1024 1:-0.124377 2:-0.845725 3:-0.389125 4:-0.846394 5:-0.415033 6:-0.814701 7:-0.294673 8:-0.815563 9:-0.271963 10:0.177693 11:-0.479155 
-1024 1:-0.117246 2:-0.861292 3:-0.375692 4:-0.857759 5:-0.405359 6:-0.823072 7:-0.302773 8:-0.823499 9:-0.279792 10:0.199608 11:-0.477397 
-1024 1:-0.0648725 2:-0.902525 3:-0.314599 4:-0.900228 5:-0.347703 6:-0.854629 7:-0.219141 8:-0.854962 9:-0.193129 10:0.377587 11:-0.448257 
-1024 1:-0.168444 2:-0.910225 3:-0.472371 4:-0.926169 5:-0.508711 6:-0.906277 7:-0.436994 8:-0.908016 9:-0.411456 10:0.0939578 11:-0.478699 
-1024 1:-0.313833 2:-0.946492 3:-0.600787 4:-0.961132 5:-0.608029 6:-0.947215 7:-0.511963 8:-0.93951 9:-0.504688 10:0.676714 11:-0.599107 
-1024 1:0.433031 2:-0.63716 3:0.359028 4:-0.61219 5:0.257167 6:-0.387181 7:0.402178 8:-0.380731 9:0.42673 10:-0.155219 11:-0.275001 
-1024 1:0.384331 2:-0.660706 3:0.282879 4:-0.650146 5:0.18814 6:-0.436175 7:0.310418 8:-0.466842 9:0.3765 10:-0.11236 11:-0.266476 
-1024 1:0.608225 2:-0.590682 3:0.597186 4:-0.59731 5:0.491557 6:-0.416243 7:0.617402 8:-0.427442 9:0.66783 10:0.142162 11:-0.204384 
1024 1:0.456742 2:0.426642 3:0.0556296 4:-0.0620106 5:0.171647 6:0.0452664 7:0.0882195 8:0.101186 9:0.00171081 10:-0.426155 11:-0.30378 
-1024 1:-0.493085 2:-0.954303 3:-0.786943 4:-0.967162 5:-0.795884 6:-0.951164 7:-0.728287 8:-0.943728 9:-0.749511 10:0.731012 11:-0.609679 
1024 1:-0.362851 2:-0.876301 3:-0.689435 4:-0.920269 5:-0.701724 6:-0.900117 7:-0.611421 8:-0.889488 9:-0.639198 10:0.554899 11:-0.531243 
1024 1:-0.362302 2:-0.888966 3:-0.685957 4:-0.928077 5:-0.700653 6:-0.907888 7:-0.614398 8:-0.897768 9:-0.644098 10:0.556396 11:-0.52984 
-1024 1:-0.504447 2:-0.940075 3:-0.81185 4:-0.964082 5:-0.814912 6:-0.966011 7:-0.742503 8:-0.956414 9:-0.76369 10:0.700934 11:-0.636986 
-1024 1:-0.508781 2:-0.942196 3:-0.815627 4:-0.963605 5:-0.819732 6:-0.966169 7:-0.748565 8:-0.959569 9:-0.7664 10:0.699963 11:-0.630876 
1024 1:0.0302801 2:-0.781559 3:-0.309815 4:-0.850515 5:-0.309682 6:-0.757968 7:-0.164637 8:-0.709112 9:-0.247163 10:0.255294 11:-0.353947 
1024 1:-0.0464564 2:-0.800976 3:-0.409989 4:-0.863963 5:-0.417943 6:-0.807183 7:-0.273886 8:-0.76201 9:-0.352631 10:0.295632 11:-0.343008 
-1024 1:0.123699 2:-0.788199 3:-0.202545 4:-0.843401 5:-0.212506 6:-0.748997 7:-0.11303 8:-0.740295 9:-0.116978 10:0.418093 11:-0.243488 
1024 1:-0.0158545 2:-0.286986 3:-0.508998 4:-0.247023 5:-0.640213 6:-0.299049 7:-0.645271 8:-0.296683 9:-0.6421 10:-0.566918 11:-0.373302 
-1024 1:-0.777934 2:-0.959046 3:-0.96775 4:-0.974363 5:-0.966049 6:-0.965347 7:-0.969798 8:-0.963069 9:-0.968111 10:0.62975 11:-0.653585 
1024 1:-0.715194 2:-0.902023 3:-0.943126 4:-0.919271 5:-0.940309 6:-0.923871 7:-0.946435 8:-0.923138 9:-0.943721 10:0.442253 11:-0.582123 
1024 1:-0.722111 2:-0.914074 3:-0.944114 4:-0.926949 5:-0.941291 6:-0.933538 7:-0.949654 8:-0.932012 9:-0.947033 10:0.439496 11:-0.580655 
1024 1:-0.714662 2:-0.911396 3:-0.941096 4:-0.928121 5:-0.939167 6:-0.930947 7:-0.941956 8:-0.929575 9:-0.939095 10:0.512695 11:-0.557778 
1024 1:-0.734923 2:-0.868601 3:-0.977476 4:-0.908123 5:-0.976902 6:-0.977383 7:-0.958854 8:-0.974942 9:-0.956559 10:0.462185 11:-0.580186 
-1024 1:-0.711942 2:-0.918203 3:-0.956188 4:-0.942002 5:-0.954768 6:-0.964052 7:-0.943673 8:-0.958101 9:-0.943886 10:0.552223 11:-0.678506 
-1024 1:-0.719399 2:-0.919319 3:-0.95986 4:-0.942089 5:-0.959641 6:-0.964052 7:-0.948715 8:-0.963413 9:-0.945993 10:0.488326 11:-0.672477 
-1024 1:-0.543374 2:-0.896052 3:-0.865299 4:-0.908557 5:-0.871408 6:-0.912247 7:-0.843812 8:-0.902673 9:-0.846794 10:-0.147831 11:-0.41951 
-1024 1:-0.456176 2:-0.848738 3:-0.821417 4:-0.865741 5:-0.830459 6:-0.881385 7:-0.791857 8:-0.850244 9:-0.816821 10:-0.048349 11:-0.40264 
-1024 1:-0.297786 2:-0.848291 3:-0.688358 4:-0.850472 5:-0.708811 6:-0.824683 7:-0.714125 8:-0.822374 9:-0.70867 10:0.152428 11:-0.363072 
-1024 1:0.810776 2:0.650774 3:0.699726 4:0.134064 5:0.769519 6:0.301418 7:0.746366 8:0.353549 9:0.684527 10:-0.791788 11:-0.193402 
-1024 1:-0.156936 2:-0.89728 3:-0.446581 4:-0.942826 5:-0.440934 6:-0.900338 7:-0.309077 8:-0.890456 9:-0.312338 10:0.431804 11:-0.559499 
1024 1:0.00746169 2:-0.835291 3:-0.261555 4:-0.903698 5:-0.253186 6:-0.838235 7:-0.113835 8:-0.826311 9:-0.121139 10:0.197329 11:-0.464602 
1024 1:0.0579987 2:-0.898117 3:-0.202757 4:-0.940527 5:-0.190015 6:-0.878194 7:-0.0188831 8:-0.864929 9:-0.0319852 10:0.40476 11:-0.433514 
1024 1:-0.033996 2:-0.91653 3:-0.357546 4:-0.952586 5:-0.335904 6:-0.909467 7:-0.215332 8:-0.891925 9:-0.23438 10:0.120227 11:-0.467293 
-1024 1:-0.197029 2:-0.955698 3:-0.508945 4:-0.982475 5:-0.495859 6:-0.957419 7:-0.361086 8:-0.943853 9:-0.374338 10:0.653161 11:-0.593785 
765.7069890131698 1:-0.192283 2:-0.956368 3:-0.501884 4:-0.981347 5:-0.490147 6:-0.954828 7:-0.356231 8:-0.944135 9:-0.366947 10:0.610957 11:-0.587562 
-554.1077112739106 1:0.503958 2:-0.589678 3:0.345101 4:-0.741373 5:0.405983 6:-0.509777 7:0.563114 8:-0.44822 9:0.501403 10:-0.228661 11:-0.25837 
-1024 1:0.484452 2:-0.609485 3:0.317388 4:-0.747793 5:0.364464 6:-0.521875 7:0.511856 8:-0.492368 9:0.483309 10:-0.208196 11:-0.248394 
-1024 1:0.603273 2:-0.621537 3:0.493164 4:-0.751567 5:0.56783 6:-0.559497 7:0.719275 8:-0.536111 9:0.695449 10:0.151532 11:-0.188165 
1024 1:0.180063 2:-0.249826 3:-0.0485336 4:-0.318469 5:-0.272304 6:-0.322204 7:-0.207607 8:-0.386574 9:-0.0972969 10:-0.603151 11:0.534095 
-1024 1:-0.531265 2:-0.989622 3:-0.756194 4:-0.973365 5:-0.792778 6:-0.969233 7:-0.723835 8:-0.971599 9:-0.698625 10:0.784851 11:0.0873567 
1024 1:-0.426741 2:-0.946659 3:-0.671694 4:-0.924954 5:-0.721645 6:-0.926588 7:-0.635079 8:-0.932699 9:-0.599206 10:0.529237 11:0.202765 
1024 1:-0.425892 2:-0.956758 3:-0.664634 4:-0.931851 5:-0.722073 6:-0.93398 7:-0.64106 8:-0.939792 9:-0.603832 10:0.535816 11:0.205357 
1024 1:-0.397409 2:-0.956758 3:-0.639445 4:-0.952196 5:-0.698833 6:-0.944941 7:-0.606083 8:-0.951071 9:-0.559379 10:0.652804 11:0.2354 
-488.7571440151836 1:-0.458493 2:-0.935556 3:-0.714253 4:-0.952673 5:-0.768591 6:-0.977762 7:-0.696905 8:-0.983128 9:-0.659892 10:0.525118 11:0.196879 
-1024 1:-0.53577 2:-0.96842 3:-0.781736 4:-0.976185 5:-0.808897 6:-0.984743 7:-0.739606 8:-0.983628 9:-0.717484 10:0.81201 11:0.031526 
-116.0976190688992 1:-0.53704 2:-0.969536 3:-0.784119 4:-0.976358 5:-0.810931 6:-0.9843 7:-0.741055 8:-0.98494 9:-0.71899 10:0.812664 11:0.0387564 
-1024 1:-0.135516 2:-0.903027 3:-0.364518 4:-0.844616 5:-0.493003 6:-0.807341 7:-0.379406 8:-0.845995 9:-0.284911 10:-0.0235628 11:0.442825 
-1024 1:-0.142708 2:-0.886009 3:-0.397968 4:-0.838369 5:-0.517618 6:-0.811732 7:-0.405987 8:-0.845683 9:-0.309108 10:-0.00967654 11:0.471043 
-1024 1:0.0302115 2:-0.853815 3:-0.202245 4:-0.825355 5:-0.347828 6:-0.783871 7:-0.217504 8:-0.796066 9:-0.159707 10:0.169516 11:0.525184 
-1024 1:0.932583 2:0.585047 3:0.842158 4:0.329314 5:0.925083 6:0.316454 7:0.903546 8:0.36789 9:0.858811 10:-0.796378 11:0.696649 
-1024 1:-0.0390076 2:-0.91798 3:-0.349955 4:-0.95237 5:-0.335083 6:-0.911457 7:-0.177941 8:-0.907703 9:-0.167536 10:0.3878 11:0.19295 
-1024 1:0.127235 2:-0.848068 3:-0.165777 4:-0.905737 5:-0.145193 6:-0.843668 7:0.0422188 8:-0.838934 9:0.0531718 10:0.13989 11:0.323696 
1024 1:0.186886 2:-0.926071 3:-0.0832899 4:-0.957098 5:-0.0614758 6:-0.895094 7:0.135669 8:-0.889175 9:0.144433 10:0.389485 11:0.361061 
-1024 1:0.0881287 2:-0.941024 3:-0.251706 4:-0.967682 5:-0.230035 6:-0.919323 7:-0.0824795 8:-0.913484 9:-0.0773147 10:0.0725892 11:0.319732 
-1024 1:-0.0827223 2:-0.972381 3:-0.404782 4:-0.9941 5:-0.386937 6:-0.96421 7:-0.227617 8:-0.958226 9:-0.222719 10:0.638385 11:0.132389 
1024 1:-0.0873306 2:-0.976343 3:-0.409689 4:-0.99332 5:-0.397255 6:-0.965821 7:-0.232713 8:-0.959226 9:-0.230712 10:0.610094 11:0.13889 
859.2112594927723 1:0.64903 2:-0.639671 3:0.51184 4:-0.743542 5:0.539217 6:-0.537638 7:0.789067 8:-0.511678 9:0.773462 10:-0.0995864 11:0.60804 
-1024 1:0.623002 2:-0.62455 3:0.465345 4:-0.753302 5:0.491039 6:-0.522223 7:0.719248 8:-0.537642 9:0.75285 10:-0.098245 11:0.638045 
1024 1:0.0178797 2:-0.858056 3:-0.201751 4:-0.865524 5:-0.270287 6:-0.817228 7:-0.139612 8:-0.80369 9:-0.152289 10:0.148128 11:0.520389 
1024 1:-0.314116 2:-0.515302 3:-0.662286 4:-0.590673 5:-0.670986 6:-0.638532 7:-0.685049 8:-0.657184 9:-0.65877 10:-0.705686 11:0.131203 
-1024 1:-0.725466 2:-0.963733 3:-0.910276 4:-0.980002 5:-0.907501 6:-0.97495 7:-0.893675 8:-0.974254 9:-0.886567 10:0.557083 11:-0.395271 
1024 1:-0.671368 2:-0.930144 3:-0.878785 4:-0.952283 5:-0.87637 6:-0.950058 7:-0.858243 8:-0.950102 9:-0.849011 10:0.391757 11:-0.315686 
1024 1:-0.672432 2:-0.938401 3:-0.876649 4:-0.958703 5:-0.874603 6:-0.957008 7:-0.863044 8:-0.956789 9:-0.853747 10:0.405481 11:-0.313962 
1024 1:-0.657217 2:-0.938178 3:-0.866835 4:-0.956013 5:-0.866624 6:-0.955049 7:-0.844483 8:-0.954945 9:-0.833299 10:0.651847 11:-0.294531 
1024 1:-0.674689 2:-0.890752 3:-0.900656 4:-0.926906 5:-0.898897 6:-0.982058 7:-0.877635 8:-0.981409 9:-0.868063 10:0.364105 11:-0.32464 
-1024 1:-0.667197 2:-0.924843 3:-0.903286 4:-0.951979 5:-0.899629 6:-0.975171 7:-0.875758 8:-0.971192 9:-0.870417 10:0.55041 11:-0.433879 
1024 1:-0.678268 2:-0.930032 3:-0.907928 4:-0.953584 5:-0.905662 6:-0.975456 7:-0.882034 8:-0.974067 9:-0.875316 10:0.511832 11:-0.426687 
1024 1:-0.505795 2:-0.892482 3:-0.760501 4:-0.912287 5:-0.765324 6:-0.906687 7:-0.746768 8:-0.91064 9:-0.7266 10:-0.00195823 11:-0.0407377 
1024 1:-0.451628 2:-0.861961 3:-0.743767 4:-0.885652 5:-0.75108 6:-0.889819 7:-0.727536 8:-0.886769 9:-0.710176 10:0.0571324 11:-0.0410095 
1024 1:-0.311997 2:-0.838806 3:-0.649877 4:-0.870166 5:-0.638642 6:-0.849007 7:-0.629955 8:-0.850838 9:-0.611688 10:0.274196 11:0.0654907 
-1024 1:0.490288 2:0.748249 3:0.00574566 4:0.289101 5:0.0562458 6:0.397005 7:-0.13819 8:0.374014 9:-0.128666 10:-0.832152 11:0.163351 
-1024 1:-0.558443 2:-0.924508 3:-0.817904 4:-0.947294 5:-0.813662 6:-0.926051 7:-0.782093 8:-0.923794 9:-0.779977 10:0.465616 11:-0.201884 
-1024 1:-0.459394 2:-0.806333 3:-0.750245 4:-0.854246 5:-0.746135 6:-0.854598 7:-0.70935 8:-0.853088 9:-0.706481 10:0.224003 11:-0.103232 
-1024 1:-0.463959 2:-0.822904 3:-0.747421 4:-0.864657 5:-0.746314 6:-0.86578 7:-0.716888 8:-0.863805 9:-0.714473 10:0.237458 11:-0.101074 
-1024 1:-0.450401 2:-0.858725 3:-0.735382 4:-0.889253 5:-0.7353 6:-0.889756 7:-0.694383 8:-0.887332 9:-0.69252 10:0.416428 11:-0.0771225 
-1024 1:-0.508009 2:-0.856828 3:-0.805142 4:-0.895369 5:-0.796509 6:-0.953028 7:-0.784132 8:-0.950134 9:-0.783453 10:0.203302 11:-0.109021 
-1024 1:-0.536465 2:-0.897113 3:-0.825406 4:-0.929899 5:-0.817108 6:-0.945541 7:-0.780242 8:-0.935636 9:-0.780387 10:0.619464 11:-0.256171 
-1024 1:-0.541271 2:-0.900739 3:-0.828848 4:-0.929769 5:-0.820249 6:-0.943804 7:-0.784346 8:-0.940323 9:-0.78307 10:0.584903 11:-0.245842 
-1024 1:-0.161055 2:-0.76549 3:-0.482414 4:-0.826006 5:-0.487755 6:-0.767445 7:-0.451156 8:-0.752418 9:-0.461849 10:-0.194222 11:0.111217 
-1024 1:-0.186465 2:-0.763314 3:-0.518618 4:-0.816419 5:-0.522563 6:-0.783239 7:-0.487742 8:-0.764509 9:-0.49404 10:-0.11714 11:0.142489 
-1024 1:0.130161 2:-0.684084 3:-0.238961 4:-0.762629 5:-0.197422 6:-0.660423 7:-0.213937 8:-0.65834 9:-0.209936 10:0.117814 11:0.190908 
1024 1:0.298506 2:0.10777 3:-0.0781886 4:-0.198785 5:-0.068366 6:-0.178886 7:-0.116786 8:-0.161644 9:-0.115171 10:-0.413307 11:-0.307325 
-1024 1:-0.498354 2:-0.962617 3:-0.782671 4:-0.973192 5:-0.787976 6:-0.952965 7:-0.732364 8:-0.950602 9:-0.72534 10:0.924239 11:-0.62481 
1024 1:-0.376367 2:-0.881825 3:-0.69563 4:-0.919662 5:-0.705152 6:-0.898127 7:-0.633523 8:-0.895799 9:-0.623678 10:0.680421 11:-0.528481 
1024 1:-0.376668 2:-0.894769 3:-0.692629 4:-0.928164 5:-0.703545 6:-0.907761 7:-0.63988 8:-0.905235 9:-0.629946 10:0.682761 11:-0.527063 
-914.7922668542815 1:-0.345036 2:-0.917478 3:-0.666858 4:-0.937491 5:-0.679019 6:-0.920839 7:-0.596803 8:-0.918139 9:-0.585793 10:0.804939 11:-0.497297 
1024 1:-0.420296 2:-0.908941 3:-0.753263 4:-0.938401 5:-0.759273 6:-0.965853 7:-0.695268 8:-0.963506 9:-0.685814 10:0.695164 11:-0.528372 
-1024 1:-0.507039 2:-0.942196 3:-0.806236 4:-0.964776 5:-0.808147 6:-0.966516 7:-0.743898 8:-0.960788 9:-0.739766 10:1 11:-0.663674 
-1024 1:-0.511647 2:-0.94426 3:-0.811073 4:-0.964429 5:-0.813091 6:-0.966421 7:-0.749933 8:-0.963475 9:-0.743626 10:0.958928 11:-0.664293 
1024 1:-0.0369051 2:-0.82614 3:-0.390343 4:-0.868734 5:-0.396309 6:-0.788451 7:-0.292876 8:-0.777476 9:-0.28409 10:0.192981 11:-0.376573 
1024 1:-0.0782427 2:-0.826196 3:-0.445469 4:-0.869125 5:-0.456303 6:-0.813153 7:-0.349016 8:-0.797597 9:-0.34108 10:0.210386 11:-0.375895 
-1024 1:0.0693865 2:-0.789259 3:-0.278519 4:-0.849084 5:-0.274 6:-0.763528 7:-0.198004 8:-0.761603 9:-0.182591 10:0.243727 11:0.104101 
-357.0857857647667 1:0.419249 2:0.281294 3:0.404217 4:0.241818 5:0.22916 6:0.370692 7:0.207929 8:0.353299 9:0.223814 10:-0.805222 11:-0.37035 
-1024 1:-0.445775 2:-0.937676 3:-0.654713 4:-0.945863 5:-0.666238 6:-0.922545 7:-0.587281 8:-0.921545 9:-0.574981 10:0.370435 11:-0.647412 
1024 1:-0.316133 2:-0.868434 3:-0.523137 4:-0.880273 5:-0.543572 6:-0.853934 7:-0.440829 8:-0.855087 9:-0.424266 10:0.264003 11:-0.575287 
1024 1:-0.311344 2:-0.882048 3:-0.513164 4:-0.889556 5:-0.536236 6:-0.861895 7:-0.445952 8:-0.862242 9:-0.430069 10:0.283754 11:-0.57379 
1024 1:-0.273517 2:-0.914521 3:-0.467252 4:-0.921744 5:-0.492771 6:-0.886471 7:-0.382088 8:-0.88652 9:-0.364949 10:0.438275 11:-0.550704 
1024 1:-0.345516 2:-0.904031 3:-0.591238 4:-0.923219 5:-0.607083 6:-0.92662 7:-0.562255 8:-0.927013 9:-0.547608 10:0.192948 11:-0.573724 
-1024 1:-0.432508 2:-0.936337 3:-0.67639 4:-0.958096 5:-0.678751 6:-0.953407 7:-0.60324 8:-0.946322 9:-0.599069 10:0.510747 11:-0.672918 
1024 1:-0.439485 2:-0.941582 3:-0.676372 4:-0.957662 5:-0.682286 6:-0.952333 7:-0.608658 8:-0.949477 9:-0.599398 10:0.479031 11:-0.667224 
1024 1:0.10948 2:-0.707463 3:0.0252862 4:-0.724932 5:-0.0289172 6:-0.552105 7:0.0750496 8:-0.541204 9:0.0854445 10:-0.0940724 11:-0.413918 
1024 1:0.101482 2:-0.712652 3:-0.0120297 4:-0.739811 5:-0.0674735 6:-0.577597 7:0.0267153 8:-0.594382 9:0.0738384 10:-0.0502297 11:-0.398543 
930.2337431309543 1:0.252397 2:-0.675715 3:0.218891 4:-0.701724 5:0.161811 6:-0.559339 7:0.250282 8:-0.564075 9:0.280422 10:0.164016 11:-0.362818 
-1024 1:-0.165354 2:-0.270191 3:-0.465327 4:-0.338814 5:-0.527186 6:-0.407335 7:-0.553323 8:-0.43316 9:-0.513885 10:-0.812853 11:0.355085 
-1024 1:-0.677547 2:-0.945153 3:-0.851601 4:-0.962087 5:-0.861304 6:-0.958145 7:-0.829918 8:-0.957414 9:-0.820242 10:0.379515 11:-0.156566 
-1024 1:-0.617107 2:-0.898786 3:-0.807543 4:-0.924086 5:-0.820089 6:-0.924788 7:-0.784615 8:-0.92545 9:-0.771409 10:0.140079 11:-0.0500697 
-1024 1:-0.616214 2:-0.906486 3:-0.801841 4:-0.93029 5:-0.818625 6:-0.930758 7:-0.790435 8:-0.931387 9:-0.776938 10:0.158569 11:-0.0480765 
-1024 1:-0.595026 2:-0.909388 3:-0.785813 4:-0.927947 5:-0.803006 6:-0.92861 7:-0.76498 8:-0.929231 9:-0.748033 10:0.380027 11:-0.0219948 
-1024 1:-0.617132 2:-0.867764 3:-0.82327 4:-0.906561 5:-0.845079 6:-0.962883 7:-0.814683 8:-0.962756 9:-0.801163 10:0.0977731 11:-0.0593991 
-1024 1:-0.605642 2:-0.907379 3:-0.839492 4:-0.937057 5:-0.846899 6:-0.960735 7:-0.808621 8:-0.955476 9:-0.800315 10:0.585415 11:-0.214452 
-1024 1:-0.620479 2:-0.910057 3:-0.847083 4:-0.938098 5:-0.854753 6:-0.96143 7:-0.81766 8:-0.959319 9:-0.808937 10:0.502914 11:-0.20329 
-1024 1:-0.363409 2:-0.834565 3:-0.562589 4:-0.814337 5:-0.633251 6:-0.794485 7:-0.597768 8:-0.808595 9:-0.559871 10:-0.174538 11:0.233628 
-1024 1:-0.297314 2:-0.804715 3:-0.533269 4:-0.796118 5:-0.611064 6:-0.779828 7:-0.575774 8:-0.798503 9:-0.526011 10:-0.135394 11:0.247232 
-1024 1:-0.146114 2:-0.780723 3:-0.427094 4:-0.799892 5:-0.449841 6:-0.76277 7:-0.444799 8:-0.771164 9:-0.412523 10:0.0318271 11:0.353861 
-1024 1:-0.713838 2:-0.882996 3:-0.927822 4:-0.92426 5:-0.922691 6:-0.934043 7:-0.926721 8:-0.932949 9:-0.925683 10:-0.778683 11:0.982783 
-1024 1:-0.833594 2:-0.976956 3:-0.977159 4:-0.99397 5:-0.973475 6:-0.984869 7:-0.975699 8:-0.982909 9:-0.974187 10:0.556578 11:0.172384 
1024 1:-0.796728 2:-0.952071 3:-0.962455 4:-0.975664 5:-0.960926 6:-0.967022 7:-0.961483 8:-0.965287 9:-0.959269 10:0.517299 11:0.330532 
1024 1:-0.798453 2:-0.959548 3:-0.962402 4:-0.979742 5:-0.960997 6:-0.973213 7:-0.963253 8:-0.971317 9:-0.961158 10:0.543507 11:0.332497 
1024 1:-0.792463 2:-0.957372 3:-0.959683 4:-0.976749 5:-0.958373 6:-0.970465 7:-0.956977 8:-0.968662 9:-0.954506 10:0.627863 11:0.387401 
1024 1:-0.793776 2:-0.898396 3:-0.977935 4:-0.932111 5:-0.975153 6:-0.994819 7:-0.960303 8:-0.992751 9:-0.95801 10:0.50108 11:0.32096 
-1024 1:-0.767525 2:-0.93656 3:-0.967132 4:-0.962173 5:-0.962229 6:-0.984237 7:-0.955233 8:-0.97991 9:-0.954643 10:0.515775 11:0.107087 
1024 1:-0.768512 2:-0.937788 3:-0.967485 4:-0.959701 5:-0.96546 6:-0.983132 7:-0.956789 8:-0.981222 9:-0.954944 10:0.476159 11:0.112614 
1024 1:-0.704072 2:-0.917924 3:-0.915024 4:-0.940917 5:-0.910339 6:-0.950153 7:-0.906845 8:-0.949571 9:-0.903127 10:0.0547259 11:0.549998 
1024 1:-0.630983 2:-0.879593 3:-0.887841 4:-0.915801 5:-0.885295 6:-0.928262 7:-0.873719 8:-0.92042 9:-0.876247 10:0.0958385 11:0.596176 
-1024 1:-0.683605 2:-0.902636 3:-0.911635 4:-0.929899 5:-0.898611 6:-0.939002 7:-0.91575 8:-0.937667 9:-0.912982 10:-0.12837 11:0.793157 
-964.7572016228332 1:0.456862 2:-0.0996234 3:0.329603 4:-0.22529 5:0.288048 6:-0.0562593 7:0.0571321 8:-0.363203 9:0.994033 10:-0.901246 11:0.214241 
-1024 1:-0.135465 2:-0.970707 3:-0.308438 4:-0.982865 5:-0.288351 6:-0.882522 7:-0.385709 8:-0.983034 9:0.254116 10:-0.402488 11:-0.564064 
1024 1:-0.0179656 2:-0.932208 3:-0.184576 4:-0.951719 5:-0.162186 6:-0.830053 7:-0.283837 8:-0.954883 9:0.485554 10:0.335288 11:-0.335073 
1024 1:-0.0178712 2:-0.952741 3:-0.179986 4:-0.964429 5:-0.156046 6:-0.861326 7:-0.300547 8:-0.963413 9:0.493656 10:0.374156 11:-0.332221 
-1024 1:0.014696 2:-0.96178 3:-0.142106 4:-0.971326 5:-0.117275 6:-0.865275 7:-0.276192 8:-0.969661 9:0.56603 10:0.420924 11:-0.236602 
-1024 1:-0.0446629 2:-0.949951 3:-0.246181 4:-0.97137 5:-0.218825 6:-0.823325 7:-0.436752 8:-0.996938 9:0.443509 10:0.230953 11:-0.350066 
-1024 1:-0.160308 2:-0.973609 3:-0.362523 4:-0.987116 5:-0.343222 6:-0.916417 7:-0.418003 8:-0.989564 9:0.120263 10:0.778751 11:-0.660041 
-559.279532667091 1:-0.163947 2:-0.975729 3:-0.366495 4:-0.988591 5:-0.353254 6:-0.908772 7:-0.420283 8:-0.989189 9:0.114651 10:0.715036 11:-0.657409 
1024 1:0.214312 2:-0.866146 3:0.0479687 4:-0.889253 5:0.0678126 6:-0.585305 7:-0.153586 8:-0.87624 9:0.884788 10:-0.0981035 11:0.0546107 
182.4845925068594 1:0.263511 2:-0.840815 3:0.0940046 4:-0.868691 5:0.106797 6:-0.550494 7:-0.164101 8:-0.865679 9:1 10:-0.104393 11:0.0919069 
1024 1:0.236693 2:-0.808899 3:-0.129467 4:-0.937794 5:0.171861 6:-0.822188 7:0.109999 8:-0.841402 9:0.275193 10:0.197815 11:0.339776 
1024 1:-0.264034 2:-0.713489 3:-0.575598 4:-0.629107 5:-0.719378 6:-0.730107 7:-0.620702 8:-0.662246 9:-0.694847 10:-0.451204 11:-0.55873 
1024 1:-0.686145 2:-0.985214 3:-0.895978 4:-0.98781 5:-0.91282 6:-0.981584 7:-0.874712 8:-0.974067 9:-0.888455 10:0.776728 11:-0.800351 
1024 1:-0.611254 2:-0.94253 3:-0.862122 4:-0.937447 5:-0.872729 6:-0.942667 7:-0.832922 8:-0.934293 9:-0.843701 10:0.581317 11:-0.746487 
1024 1:-0.620136 2:-0.955419 3:-0.859986 4:-0.949246 5:-0.87728 6:-0.956313 7:-0.840003 8:-0.946322 9:-0.852104 10:0.560852 11:-0.744917 
1024 1:-0.603814 2:-0.950453 3:-0.852149 4:-0.956447 5:-0.868677 6:-0.959914 7:-0.818143 8:-0.948759 9:-0.835598 10:0.646056 11:-0.728401 
1024 1:-0.641418 2:-0.917924 3:-0.890259 4:-0.945386 5:-0.908697 6:-0.995167 7:-0.856097 8:-0.985315 9:-0.870362 10:0.606683 11:-0.743892 
1024 1:-0.649571 2:-0.949951 3:-0.900038 4:-0.961609 5:-0.908911 6:-0.983195 7:-0.864653 8:-0.972161 9:-0.876384 10:0.717854 11:-0.82026 
1024 1:-0.680379 2:-0.959436 3:-0.910099 4:-0.974103 5:-0.919764 6:-0.992482 7:-0.877421 8:-0.983815 9:-0.887908 10:0.69875 11:-0.817833 
1024 1:-0.454091 2:-0.944093 3:-0.735841 4:-0.915888 5:-0.795741 6:-0.944815 7:-0.694652 8:-0.911078 9:-0.747677 10:0.162425 11:-0.614352 
1024 1:-0.317309 2:-0.884001 3:-0.665958 4:-0.85867 5:-0.729446 6:-0.895979 7:-0.607827 8:-0.843121 9:-0.676288 10:0.233737 11:-0.607446 
1024 1:-0.254972 2:-0.925178 3:-0.559941 4:-0.874113 5:-0.653208 6:-0.892125 7:-0.546323 8:-0.868398 9:-0.583385 10:0.35843 11:-0.578631 
1024 1:-0.717314 2:-0.8941 3:-0.929905 4:-0.933066 5:-0.926011 6:-0.942667 7:-0.928062 8:-0.941573 9:-0.92686 10:-0.64152 11:0.690164 
-1024 1:-0.833783 2:-0.978965 3:-0.977706 4:-0.995185 5:-0.97385 6:-0.985185 7:-0.976369 8:-0.98319 9:-0.974926 10:0.536119 11:-0.0283137 
1024 1:-0.796282 2:-0.95475 3:-0.963161 4:-0.977399 5:-0.961462 6:-0.967432 7:-0.962126 8:-0.965818 9:-0.959899 10:0.299036 11:0.114207 
1024 1:-0.798358 2:-0.962338 3:-0.963161 4:-0.981477 5:-0.961694 6:-0.97375 7:-0.963789 8:-0.971911 9:-0.961705 10:0.352801 11:0.115795 
1024 1:-0.792531 2:-0.960385 3:-0.960778 4:-0.978571 5:-0.959266 6:-0.971191 7:-0.958103 8:-0.969474 9:-0.955656 10:0.468919 11:0.166966 
1024 1:-0.793312 2:-0.901688 3:-0.978218 4:-0.934194 5:-0.975438 6:-0.996083 7:-0.960759 8:-0.994032 9:-0.958557 10:0.365959 11:0.111889 
-1024 1:-0.775506 2:-0.941191 3:-0.969727 4:-0.965253 5:-0.964764 6:-0.98727 7:-0.957808 8:-0.983159 9:-0.957189 10:0.482004 11:-0.0845763 
1024 1:-0.767379 2:-0.939294 3:-0.967344 4:-0.960308 5:-0.965103 6:-0.983258 7:-0.956628 8:-0.981628 9:-0.954616 10:0.382569 11:-0.0783454 
1024 1:-0.715769 2:-0.924787 3:-0.921785 4:-0.947034 5:-0.919692 6:-0.957261 7:-0.913551 8:-0.955726 9:-0.910381 10:0.111403 11:0.373273 
1024 1:-0.637848 2:-0.887404 3:-0.894937 4:-0.921353 5:-0.893042 6:-0.935875 7:-0.880103 8:-0.927013 9:-0.88361 10:0.128168 11:0.41732 
-1024 1:-0.694367 2:-0.918371 3:-0.917425 4:-0.937491 5:-0.908518 6:-0.948384 7:-0.919935 8:-0.94679 9:-0.917224 10:-0.344166 11:0.505664 
-798.2745361200249 1:0.112003 2:-0.307965 3:-0.152132 4:-0.26637 5:-0.379904 6:-0.33247 7:-0.338501 8:-0.392917 9:-0.258113 10:-0.617974 11:0.223709 
-1024 1:-0.549887 2:-1 3:-0.785125 4:-0.980393 5:-0.826532 6:-0.976119 7:-0.769379 8:-0.982628 9:-0.737357 10:0.835954 11:-0.127288 
1024 1:-0.4452 2:-0.963007 3:-0.708198 4:-0.935625 5:-0.763361 6:-0.936412 7:-0.688804 8:-0.947197 9:-0.650284 10:0.56195 11:-0.0498081 
1024 1:-0.440738 2:-0.971712 3:-0.698666 4:-0.940831 5:-0.762058 6:-0.942761 7:-0.692962 8:-0.952696 9:-0.652036 10:0.562395 11:-0.0493162 
1024 1:-0.412418 2:-0.969201 3:-0.678155 4:-0.959614 5:-0.741405 6:-0.952459 7:-0.661526 8:-0.961819 9:-0.611907 10:0.658116 11:-0.0269947 
1024 1:-0.481998 2:-0.963063 3:-0.75351 4:-0.965991 5:-0.802863 6:-0.986986 7:-0.737058 8:-0.993782 9:-0.697557 10:0.586838 11:-0.0577276 
-1024 1:-0.554881 2:-0.984266 3:-0.809661 4:-0.984427 5:-0.838831 6:-0.98926 7:-0.779384 8:-0.993032 9:-0.749894 10:0.809368 11:-0.167446 
1024 1:-0.559395 2:-0.986163 3:-0.814674 4:-0.985728 5:-0.842401 6:-0.990429 7:-0.782603 8:-0.995126 9:-0.754137 10:0.815367 11:-0.162135 
1024 1:-0.158043 2:-0.907044 3:-0.43336 4:-0.862618 5:-0.546089 6:-0.824904 7:-0.455448 8:-0.869241 9:-0.360104 10:-0.0531485 11:0.13378 
1024 1:-0.173996 2:-0.89795 3:-0.471241 4:-0.864266 5:-0.569651 6:-0.837635 7:-0.474277 8:-0.865679 9:-0.398098 10:-0.0143952 11:0.153558 
-1024 1:0.0705879 2:-0.884837 3:-0.157498 4:-0.829216 5:-0.323444 6:-0.783334 7:-0.210584 8:-0.821156 9:-0.0889208 10:0.143881 11:0.496658 
-1024 1:-0.0426634 2:-0.443939 3:-0.488593 4:-0.362802 5:-0.627718 6:-0.393088 7:-0.615391 8:-0.393979 9:-0.613221 10:-1 11:-0.546853 
-1024 1:-0.747075 2:-0.940075 3:-0.949445 4:-0.959527 5:-0.951947 6:-0.957355 7:-0.947669 8:-0.955195 9:-0.946103 10:0.65395 11:-0.840262 
1024 1:-0.692564 2:-0.888353 3:-0.922668 4:-0.906474 5:-0.925083 6:-0.921755 7:-0.918164 8:-0.919983 9:-0.916458 10:0.428703 11:-0.776401 
1024 1:-0.695353 2:-0.896889 3:-0.922526 4:-0.912461 5:-0.92594 6:-0.927946 7:-0.920015 8:-0.926106 9:-0.918292 10:0.426007 11:-0.77472 
1024 1:-0.689406 2:-0.903585 3:-0.91889 4:-0.920746 5:-0.923423 6:-0.932874 7:-0.91221 8:-0.930918 9:-0.9106 10:0.422414 11:-0.753363 
1024 1:-0.705377 2:-0.844386 3:-0.958624 4:-0.893157 5:-0.962443 6:-0.968475 7:-0.938335 8:-0.966193 9:-0.936495 10:0.451083 11:-0.775111 
-1024 1:-0.680533 2:-0.896945 3:-0.940637 4:-0.925865 5:-0.941469 6:-0.955239 7:-0.924092 8:-0.949884 9:-0.924204 10:0.51562 11:-0.860071 
1024 1:-0.696074 2:-0.902357 3:-0.945844 4:-0.930376 5:-0.947967 6:-0.961083 7:-0.930342 8:-0.957601 9:-0.929296 10:0.498377 11:-0.860008 
-1024 1:-0.49856 2:-0.891366 3:-0.817128 4:-0.897278 5:-0.836993 6:-0.905076 7:-0.795344 8:-0.897611 9:-0.797687 10:-0.265972 11:-0.602188 
-1024 1:-0.413002 2:-0.844497 3:-0.781542 4:-0.851686 5:-0.805219 6:-0.874846 7:-0.747492 8:-0.844495 9:-0.771053 10:-0.190447 11:-0.581959 
-1024 1:-0.286475 2:-0.854596 3:-0.670318 4:-0.850472 5:-0.710542 6:-0.828253 7:-0.67955 8:-0.828373 9:-0.674098 10:-0.0620397 11:-0.561363 
1024 1:-0.585526 2:-0.829879 3:-0.886093 4:-0.876499 5:-0.891436 6:-0.895916 7:-0.885038 8:-0.892112 9:-0.885253 10:-0.616046 11:-0.200416 
-1024 1:-0.790558 2:-0.924787 3:-0.973822 4:-0.954408 5:-0.973725 6:-0.958524 7:-0.978864 8:-0.956632 9:-0.977472 10:0.763314 11:-0.512026 
-751.4107910266099 1:-0.760084 2:-0.902134 3:-0.960566 4:-0.934454 5:-0.96064 6:-0.942382 7:-0.965157 8:-0.940698 9:-0.963457 10:0.594839 11:-0.430448 
-1024 1:-0.762247 2:-0.907825 3:-0.961396 4:-0.939659 5:-0.961783 6:-0.947595 7:-0.965935 8:-0.945697 9:-0.964224 10:0.547579 11:-0.429094 
-1024 1:-0.757047 2:-0.90989 3:-0.95873 4:-0.939963 5:-0.960016 6:-0.948953 7:-0.961536 8:-0.94704 9:-0.959899 10:0.550821 11:-0.402815 
-1024 1:-0.71528 2:-0.880653 3:-0.962755 4:-0.924911 5:-0.959926 6:-0.958872 7:-0.950539 8:-0.953789 9:-0.951468 10:0.598122 11:-0.539822 
-1024 1:-0.746757 2:-0.893263 3:-0.971792 4:-0.932328 5:-0.971011 6:-0.964021 7:-0.962904 8:-0.96235 9:-0.961514 10:0.663603 11:-0.534273 
-1024 1:-0.64328 2:-0.899065 3:-0.913436 4:-0.932892 5:-0.915497 6:-0.949363 7:-0.894668 8:-0.944728 9:-0.894614 10:-0.0736947 11:-0.248371 
-1024 1:-0.590341 2:-0.862296 3:-0.907858 4:-0.893027 5:-0.91157 6:-0.926051 7:-0.885628 8:-0.912203 9:-0.894779 10:-0.0776718 11:-0.228054 
-1024 1:-0.592005 2:-0.874627 3:-0.914371 4:-0.886693 5:-0.922691 6:-0.906814 7:-0.920122 8:-0.905048 9:-0.917717 10:0.199392 11:-0.14937 
1024 1:-0.922474 2:-0.862463 3:-0.950557 4:-0.879189 5:-0.957035 6:-0.881543 7:-0.961295 8:-0.88177 9:-0.961924 10:-0.605867 11:1 
-1024 1:-0.999554 2:-0.985995 3:-0.995146 4:-0.994664 5:-0.995823 6:-0.988186 7:-0.997666 8:-0.985909 9:-0.997536 10:0.871317 11:0.366265 
-1024 1:-0.979095 2:-0.959436 3:-0.984502 4:-0.971673 5:-0.986416 6:-0.967022 7:-0.987179 8:-0.9651 9:-0.987135 10:0.634415 11:0.477667 
-1024 1:-0.979765 2:-0.969536 3:-0.984113 4:-0.978527 5:-0.986505 6:-0.976277 7:-0.988359 8:-0.974161 9:-0.988421 10:0.658399 11:0.477081 
1024 1:-0.971054 2:-0.956479 3:-0.98023 4:-0.968203 5:-0.982846 6:-0.965947 7:-0.982083 8:-0.9641 9:-0.982071 10:0.752738 11:0.511103 
-1024 1:-0.985935 2:-0.950509 3:-0.991104 4:-0.969765 5:-0.993538 6:-0.998294 7:-0.99021 8:-0.996469 9:-0.98979 10:0.62367 11:0.465091 
-1024 1:-0.987969 2:-0.960273 3:-1 4:-0.980826 5:-0.998947 6:-0.989765 7:-1 8:-0.986284 9:-1 10:0.835253 11:0.308144 
-1024 1:-0.996258 2:-0.965853 3:-0.999682 4:-0.981173 5:-1 6:-0.992103 7:-0.998578 8:-0.990502 9:-0.998303 10:0.868108 11:0.317722 
-1024 1:-0.921058 2:-0.924955 3:-0.948104 4:-0.935712 5:-0.956856 6:-0.934706 7:-0.957352 8:-0.936355 9:-0.956477 10:-0.0160332 11:0.552172 
-1024 1:-0.908563 2:-0.903083 3:-0.946215 4:-0.91515 5:-0.956107 6:-0.917333 7:-0.955367 8:-0.916327 9:-0.957161 10:0.00225483 11:0.555195 
-1024 1:-0.599008 2:-0.830548 3:-0.873613 4:-0.843444 5:-0.883653 6:-0.878321 7:-0.8911 8:-0.876584 9:-0.887799 10:0.0451808 11:0.220527 
