svm_type epsilon_svr
kernel_type rbf
gamma 0.05
nr_class 2
total_sv 2357
rho -44.5516
probA 4.89999
SV
-1024 1:-0.945695 2:-0.761153 3:-0.995396 4:-0.926138 5:-0.985384 6:-0.900473 7:-1 8:-0.879089 9:-1 10:1 11:-0.965679 12:1 13:-0.322176 14:-0.80292 15:-0.963303 16:-1 17:-0.926471 18:-0.917526 19:-0.836066 20:-0.571429 21:-0.666667 22:-1 23:-1 24:-1 25:-1 
1024 1:-0.732573 2:-0.925271 3:-0.931182 4:-0.962462 5:-0.855008 6:-0.959916 7:-0.853379 8:-0.958322 9:-0.852877 10:0.12063 11:-0.587494 12:0.192905 13:-0.723849 14:-0.562044 15:-0.211009 16:-0.125 17:-0.485294 18:-0.835052 19:-0.836066 20:-0.857143 21:-1 22:-0.391304 23:-0.346341 24:-0.343195 25:-0.346535 
1024 1:-0.515643 2:-0.905597 3:-0.871857 4:-0.957491 5:-0.692991 6:-0.927723 7:-0.750658 8:-0.929594 9:-0.750041 10:-0.19908 11:-0.452686 12:-0.037694 13:-0.958159 14:-0.642336 15:-0.100917 16:0.03125 17:0.205882 18:-0.56701 19:-0.803279 20:-0.714286 21:-0.333333 22:0.0652174 23:0.112195 24:0.130178 25:0.120792 
1024 1:-0.717241 2:-0.968828 3:-0.957011 4:-0.987596 5:-0.872641 6:-0.978818 7:-0.879117 8:-0.980427 9:-0.872353 10:0.0324983 11:-0.260111 12:-0.40133 13:0.556485 14:-0.708029 15:-0.431193 16:-0.229167 17:-0.279412 18:-0.525773 19:-0.737705 20:-0.428572 21:-1 22:-0.26087 23:-0.209756 24:-0.171598 25:-0.160396 
-1024 1:-0.783468 2:-0.963854 3:-0.965513 4:-0.984214 5:-0.899661 6:-0.981342 7:-0.898169 8:-0.980141 9:-0.897873 10:-0.188263 11:-0.709488 12:-0.144124 13:-0.640167 14:-0.459854 15:1.37615e-08 16:-0.09375 17:-0.0441176 18:-0.835052 19:-0.934426 20:-1 21:-1 22:-3.26087e-08 23:0.0146342 24:0.0118343 25:0.0138614 
-1024 1:-0.593348 2:-0.968868 3:-0.908141 4:-0.990334 5:-0.678504 6:-0.986326 7:-0.69071 8:-0.957724 9:-0.801792 10:0.536598 11:-0.72166 12:0.583149 13:-0.90795 14:-0.759124 15:-0.0733945 16:-0.354167 17:-0.852941 18:-0.917526 19:-1 20:-0.571429 21:-1 22:-0.652174 23:-0.541463 24:-0.532544 25:-0.540594 
1024 1:-0.715783 2:-0.962485 3:-0.907532 4:-0.940343 5:-0.741004 6:-0.944401 7:-0.780183 8:-0.941971 9:-0.778347 10:-0.725177 11:-0.131907 12:-1 13:-0.0125523 14:0.510949 15:-0.486239 16:-0.302083 17:0.617647 18:-0.752577 19:-0.770492 20:-0.428572 21:-1 22:0.5 23:0.463415 24:0.514793 25:0.706931 
1024 1:-0.929668 2:-0.982279 3:-0.991787 4:-0.989405 5:-0.977215 6:-0.98903 7:-0.966679 8:-0.989165 9:-0.966884 10:0.816487 11:-0.905195 12:0.858093 13:-0.464435 14:-0.781022 15:-0.889908 16:-0.802083 17:-0.794118 18:-0.773196 19:-0.737705 20:-0.428572 21:-1 22:-0.847826 23:-0.853659 24:-0.857988 25:-0.857426 
1024 1:-0.857169 2:-0.978473 3:-0.975311 4:-0.9911 5:-0.922592 6:-0.987076 7:-0.927659 8:-0.989779 9:-0.916937 10:0.799827 11:-0.906088 12:0.702882 13:-0.456067 14:-0.788321 15:-0.669725 16:-0.645833 17:-0.779412 18:-0.814433 19:-0.770492 20:-0.714286 21:-1 22:-0.847826 23:-0.795122 24:-0.781065 25:-0.782178 
-1024 1:-0.358951 2:-0.462761 3:-0.857348 4:-0.730754 5:-0.634879 6:-0.794097 7:-0.486343 8:-0.738024 9:-0.595225 10:-0.714341 11:-0.583271 12:0.476718 13:-0.380753 14:-0.576642 15:-0.541284 16:-0.729167 17:-0.75 18:-0.649485 19:-0.836066 20:-0.857143 21:-1 22:0.0434782 23:0.170732 24:0.289941 25:0.469307 
-1024 1:-0.852823 2:-0.975876 3:-0.972097 4:-0.989112 5:-0.94338 6:-0.98697 7:-0.9306 8:-0.986632 9:-0.933119 10:0.261464 11:-0.874983 12:0.117517 13:-0.338912 14:-0.474453 15:-0.284404 16:-0.5625 17:-0.544118 18:-0.690722 19:-0.803279 20:-0.142857 21:-1 22:-0.478261 23:-0.404878 24:-0.360947 25:-0.322772 
1024 1:-0.491036 2:-0.827425 3:-0.881768 4:-0.902463 5:-0.664282 6:-0.85174 7:-0.746184 8:-0.863287 9:-0.722645 10:-0.191338 11:-0.00394125 12:-0.206208 13:-0.623431 14:-0.547445 15:0.0917431 16:-0.0833333 17:-0.25 18:-0.525773 19:-0.704918 20:-0.285714 21:-1 22:-0.108696 23:-0.0439024 24:0.00591716 25:0.0138614 
-1024 1:-0.728573 2:-0.955316 3:-0.949026 4:-0.98075 5:-0.846161 6:-0.973027 7:-0.86328 8:-0.974952 9:-0.855488 10:0.0478234 11:-0.652565 12:0.365854 13:-0.514644 14:-0.788321 15:-0.412844 16:-0.395833 17:-0.352941 18:-0.752577 19:-0.803279 20:-0.714286 21:-1 22:-0.23913 23:-0.219512 24:-0.195266 25:-0.168317 
1024 1:-0.599409 2:-0.917156 3:-0.919039 4:-0.983374 5:-0.736693 6:-0.958971 7:-0.775938 8:-0.957347 9:-0.779425 10:-0.409675 11:-0.0979381 12:-0.685144 13:-0.464435 14:0.19708 15:-0.522936 16:-0.0104167 17:-0.161765 18:0.175258 19:-0.442623 20:-0.428572 21:-1 22:0.0434782 23:0.0731707 24:0.130178 25:0.172277 
-1024 1:-0.902462 2:-0.975151 3:-0.983148 4:-0.962535 5:-0.970468 6:-0.960893 7:-0.963023 8:-0.964035 9:-0.96599 10:0.250407 11:-0.772915 12:0.126386 13:-0.48954 14:-0.131387 15:-0.440367 16:-0.666667 17:-0.617647 18:-0.670103 19:-0.803279 20:-0.142857 21:-1 22:-0.478261 23:-0.356098 24:-0.266272 25:-0.19604 
1024 1:-0.741318 2:-0.960934 3:-0.921164 4:-0.960253 5:-0.765984 6:-0.958841 7:-0.803728 8:-0.957806 9:-0.794003 10:-0.613549 11:-0.191195 12:-0.960089 13:0.514644 14:0.138686 15:-0.614679 16:-0.458333 17:0.632353 18:-0.649485 19:-0.770492 20:-0.142857 21:-1 22:0.326087 23:0.346341 24:0.402367 25:0.611881 
-1024 1:-0.824069 2:-0.974547 3:-0.975234 4:-0.988737 5:-0.922309 6:-0.985781 7:-0.925941 8:-0.986304 9:-0.924323 10:-0.394586 11:-0.560471 12:-0.272727 13:-0.171548 14:-0.394161 15:-0.211009 16:-0.25 17:-0.5 18:-0.195876 19:-0.934426 20:-0.714286 21:-1 22:-0.0217391 23:0.0439025 24:0.0828402 25:0.152475 
-1024 1:-0.189648 2:-0.978191 3:-0.76358 4:-0.991166 5:0.277936 6:-0.96244 7:-0.630445 8:-0.967559 9:-0.586622 10:-0.383356 11:-0.348607 12:0.037694 13:-0.146444 14:-0.343066 15:-0.146789 16:-0.625 17:-0.779412 18:-0.85567 19:-0.868852 20:-1 21:-1 22:-0.130435 23:0.0926829 24:0.118343 25:0.20396 
1024 1:-0.875536 2:-0.961015 3:-0.983 4:-0.986162 5:-0.949698 6:-0.984356 7:-0.93844 8:-0.982296 9:-0.940355 10:0.0393281 11:-0.731254 12:-0.543237 13:0.539749 14:-0.547445 15:-0.376147 16:-0.177083 17:-0.411765 18:-0.381443 19:-0.540984 20:-0.857143 21:-1 22:-0.282609 23:-0.24878 24:-0.213018 25:-0.192079 
-1024 1:-0.735867 2:-0.9824 3:-0.95451 4:-0.995803 5:-0.837623 6:-0.992711 7:-0.84288 8:-0.987476 9:-0.880097 10:0.463348 11:-0.848069 12:0.467849 13:-0.497908 14:-0.773723 15:-0.458716 16:-0.385417 17:-0.602941 18:-0.835052 19:-0.868852 20:-0.714286 21:-1 22:-0.586957 23:-0.531707 24:-0.514793 25:-0.520792 
1024 1:-0.25219 2:-0.923922 3:-0.758863 4:-0.972168 5:-0.240089 6:-0.884079 7:-0.404691 8:-0.928144 9:-0.310257 10:-0.118344 11:-0.132659 12:-0.175166 13:-0.39749 14:-0.810219 15:-0.605505 16:0.708333 17:-0.0294118 18:-0.649485 19:-0.770492 20:-1 21:-1 22:0.0652174 23:0.112195 24:0.112426 25:0.0613861 
1024 1:0.0931519 2:-0.157865 3:-0.588809 4:-0.68148 5:0.370337 6:-0.452191 7:-0.0757943 8:-0.458837 9:-0.034251 10:-0.909902 11:-0.0564177 12:0.0554324 13:-0.238494 14:-0.167883 15:-0.146789 16:-0.739583 17:-0.823529 18:-0.876289 19:-0.934426 20:-1 21:-1 22:0.717391 23:0.795122 24:0.816568 25:0.873267 
1024 1:-0.829254 2:-0.936024 3:-0.979891 4:-0.97529 5:-0.953607 6:-0.978248 7:-0.941073 8:-0.977928 9:-0.941976 10:0.510299 11:-0.597782 12:0.450111 13:-0.623431 14:-0.744526 15:-0.522936 16:-0.604167 17:-0.338235 18:-0.443299 19:-0.737705 20:-0.571429 21:-0.666667 22:-0.652174 23:-0.629268 24:-0.627219 25:-0.639604 
-203.0707795888923 1:-0.815087 2:-0.984474 3:-0.968825 4:-0.991598 5:-0.923603 6:-0.989185 7:-0.918445 8:-0.989099 9:-0.915413 10:-0.221101 11:-0.579264 12:0.0997783 13:-0.799163 14:-0.722628 15:0.00917432 16:-0.291667 17:2.20588e-08 18:-0.649485 19:-0.836066 20:-0.571429 21:-1 22:-0.0434782 23:-0.00487804 24:0.0295858 25:0.0336634 
1024 1:-0.302646 2:-0.792628 3:-0.828178 4:-0.876669 5:-0.494722 6:-0.811672 7:-0.362914 8:-0.717247 9:-0.49026 10:-0.789459 11:-0.0716393 12:0.157428 13:-0.246862 14:-0.49635 15:-0.376147 16:-0.5625 17:-0.573529 18:-0.587629 19:-0.934426 20:-1 21:-1 22:0.326087 23:0.434146 24:0.52071 25:0.643564 
1024 1:-0.707748 2:-0.966089 3:-0.955618 4:-0.988704 5:-0.854571 6:-0.978867 7:-0.881794 8:-0.98019 9:-0.877592 10:-0.0602807 11:-0.175696 12:-0.396896 13:0.514644 14:-0.810219 15:-0.59633 16:-0.354167 17:0.0882353 18:0.072165 19:-0.803279 20:-1 21:-1 22:-0.0217391 23:-0.0341463 24:-0.0295858 25:-0.0138614 
-1024 1:-0.00355103 2:-0.884534 3:-0.397763 4:-0.800826 5:-0.544484 6:-0.784398 7:-0.557575 8:-0.787398 9:-0.552822 10:-0.679901 11:-0.0532108 12:-0.0953437 13:-0.748954 14:-0.182482 15:0.311927 16:-0.354167 17:-0.647059 18:-0.896907 19:-0.967213 20:-1 21:-1 22:0.391304 23:0.482927 24:0.532544 25:0.508911 
-1024 1:-0.799199 2:-0.984776 3:-0.970202 4:-0.993871 5:-0.911465 6:-0.990553 7:-0.910518 8:-0.990812 9:-0.910209 10:0.377625 11:-0.660082 12:0.552106 13:-0.58159 14:-0.759124 15:-0.706422 16:-0.520833 17:-0.338235 18:-0.670103 19:-0.770492 20:-0.714286 21:-1 22:-0.478261 23:-0.434146 24:-0.426036 25:-0.433663 
1024 1:-0.468805 2:-0.77968 3:-0.905782 4:-0.981858 5:-0.571855 6:-0.909122 7:-0.718905 8:-0.906342 9:-0.728559 10:-0.434279 11:0.0341602 12:-0.263858 13:-0.280335 14:-0.40146 15:-0.146789 16:-0.25 17:-0.0882353 18:-0.71134 19:-0.836066 20:-0.857143 21:-1 22:0.0869565 23:0.112195 24:0.147929 25:0.180198 
-828.913681863394 1:-0.685122 2:-0.787694 3:-0.896343 4:-0.946187 5:-0.660313 6:-0.907102 7:-0.753556 8:-0.908571 9:-0.738862 10:-0.487415 11:-0.176793 12:0.0332594 13:-0.824268 14:-0.635037 15:-0.165138 16:0.0833333 17:0.147059 18:-0.917526 19:-1 20:-1 21:-1 22:0.413043 23:0.346341 24:0.337278 25:0.334653 
1024 1:-0.49986 2:-0.875895 3:-0.869033 4:-0.965127 5:-0.562683 6:-0.918724 7:-0.674107 8:-0.929431 9:-0.648107 10:0.111608 11:-0.0912034 12:0.0155211 13:-0.263598 14:-0.627737 15:-0.53211 16:-0.302083 17:-0.0294118 18:-0.56701 19:-0.770492 20:-0.857143 21:-1 22:-0.282609 23:-0.219512 24:-0.230769 25:-0.235644 
-1024 1:-0.390885 2:-0.899556 3:-0.842059 4:-0.958379 5:-0.493264 6:-0.900172 7:-0.582643 8:-0.913579 9:-0.562118 10:-0.364192 11:-0.140204 12:-0.463415 13:-0.196653 14:-0.481752 15:-0.522936 16:0.177083 17:-0.0882353 18:0.113402 19:-0.639344 20:-0.857143 21:-1 22:0.173913 23:0.170732 24:0.189349 25:0.180198 
-1024 1:-0.388502 2:-0.905194 3:-0.874616 4:-0.993611 5:-0.264452 6:-0.961235 7:-0.59205 8:-0.960609 9:-0.592185 10:0.221944 11:-0.4014 12:0.232816 13:-0.824268 14:-0.627737 15:-0.357798 16:-0.177083 17:-0.411765 18:-0.319588 19:-0.803279 20:-0.571429 21:-1 22:-0.413043 23:-0.385366 24:-0.378698 25:-0.382178 
1024 1:-0.271278 2:-0.987616 3:-0.788625 4:-0.995705 5:-0.272724 6:-0.97328 7:-0.395566 8:-0.977346 9:-0.348621 10:-0.01329 11:-0.194698 12:0.0731707 13:-0.615063 14:-0.481752 15:0.0733945 16:-0.354167 17:-0.602941 18:-0.793814 19:-0.803279 20:-1 21:-1 22:-0.326087 23:-0.209756 24:-0.147929 25:-0.2 
-1024 1:-0.5078 2:-0.952255 3:-0.842641 4:-0.966064 5:-0.644266 6:-0.942227 7:-0.68716 8:-0.941561 9:-0.699831 10:-0.270083 11:-0.489256 12:0.192905 13:-0.623431 14:-0.489051 15:-0.40367 16:-0.0625 17:-0.588235 18:-0.835052 19:-0.836066 20:-0.857143 21:-1 22:0.0217391 23:0.0731707 24:0.0887574 25:0.136634 
-1024 1:-0.482261 2:-0.976238 3:-0.856837 4:-0.949365 5:-0.693617 6:-0.945973 7:-0.677762 8:-0.938119 9:-0.703502 10:0.104369 11:-0.699532 12:0.321508 13:-0.497908 14:-0.875912 15:-0.366972 16:0.0625 17:-0.588235 18:-0.917526 19:-0.901639 20:-1 21:-1 22:-0.217391 23:-0.170732 24:-0.16568 25:-0.188119 
-1024 1:-0.516004 2:-0.91637 3:-0.873681 4:-0.963334 5:-0.611305 6:-0.911818 7:-0.69692 8:-0.924865 9:-0.676422 10:-0.145397 11:-0.0316018 12:-0.24612 13:-0.271967 14:-0.744526 15:-0.568807 16:0.427083 17:0.176471 18:-0.546392 19:-0.901639 20:-1 21:-1 22:0.108696 23:0.131707 24:0.112426 25:0.0693069 
-1024 1:-0.805978 2:-0.963793 3:-0.971872 4:-0.981793 5:-0.923698 6:-0.975031 7:-0.923765 8:-0.975198 9:-0.922509 10:0.370919 11:-0.775345 12:0.662971 13:-0.564854 14:-0.70073 15:-0.733945 16:-0.6875 17:-0.602941 18:-0.56701 19:-0.868852 20:-0.714286 21:-1 22:-0.543478 23:-0.531707 24:-0.508876 25:-0.485149 
1024 1:-0.893894 2:-0.980668 3:-0.971694 4:-0.991875 5:-0.933384 6:-0.988297 7:-0.941549 8:-0.987804 9:-0.940084 10:-0.175372 11:-0.754188 12:-0.0643016 13:0.297071 14:-0.562044 15:-0.642202 16:-0.510417 17:-0.441176 18:-0.525773 19:-0.770492 20:-0.857143 21:-1 22:-0.282609 23:-0.219512 24:-0.159763 25:-0.0574257 
-1024 1:-0.764835 2:-0.981977 3:-0.956024 4:-0.992437 5:-0.862663 6:-0.987116 7:-0.868291 8:-0.987837 9:-0.866343 10:0.545039 11:-0.283977 12:0.268293 13:-0.238494 14:-0.773723 15:-0.642202 16:-0.604167 17:-0.0147059 18:-0.56701 19:-0.770492 20:-0.857143 21:-1 22:-0.586957 23:-0.55122 24:-0.550296 25:-0.572277 
1024 1:-0.70406 2:-0.991059 3:-0.940061 4:-0.989878 5:-0.858985 6:-0.986326 7:-0.85626 8:-0.98937 9:-0.840883 10:0.464407 11:-0.658166 12:0.348115 13:-0.58159 14:-0.729927 15:-0.458716 16:-0.40625 17:-0.191176 18:-0.752577 19:-0.803279 20:-0.857143 21:-1 22:-0.521739 23:-0.502439 24:-0.502959 25:-0.516832 
-1024 1:-0.787243 2:-0.985441 3:-0.95651 4:-0.993064 5:-0.901495 6:-0.990553 7:-0.894716 8:-0.989689 9:-0.89203 10:0.36298 11:-0.748759 12:0.365854 13:-0.34728 14:-0.583942 15:-0.504587 16:-0.583333 17:-0.764706 18:-0.71134 19:-0.672131 20:-0.428572 21:-1 22:-0.608696 23:-0.541463 24:-0.514793 25:-0.481188 
-1024 1:-0.473426 2:-0.890857 3:-0.868676 4:-0.964972 5:-0.549722 6:-0.914122 7:-0.668892 8:-0.921783 9:-0.654896 10:-0.171169 11:-0.0556332 12:-0.405765 13:0.0125523 14:-0.722628 15:-0.633028 16:0.03125 17:0.338235 18:0.072165 19:-0.803279 20:-1 21:-1 22:0.130435 23:0.131707 24:0.112426 25:0.0930693 
-1024 1:-0.587254 2:-0.960974 3:-0.898872 4:-0.984556 5:-0.699249 6:-0.973939 7:-0.716483 8:-0.967953 9:-0.750487 10:-0.0992244 11:-0.504336 12:0.667406 13:-0.757322 14:-0.810219 15:-0.541284 16:-0.427083 17:-0.485294 18:-0.814433 19:-0.967213 20:-1 21:-1 22:-0.173913 23:-0.131707 24:-0.106509 25:-0.0495049 
-1024 1:-0.813392 2:-0.974084 3:-0.977466 4:-0.989438 5:-0.920003 6:-0.985162 7:-0.931446 8:-0.984985 9:-0.931165 10:0.220968 11:-0.395626 12:0.2949 13:-0.899582 14:-0.423358 15:-0.559633 16:-0.364583 17:-0.308824 18:-0.505155 19:-0.639344 20:-2.14286e-07 21:-1 22:-0.478261 23:-0.414634 24:-0.384615 25:-0.386139 
1024 1:-0.905647 2:-0.981877 3:-0.987827 4:-0.992184 5:-0.962788 6:-0.991107 7:-0.955378 8:-0.990427 9:-0.957623 10:0.658707 11:-0.877706 12:0.538803 13:-0.238494 14:-0.693431 15:-0.761468 16:-0.708333 17:-0.720588 18:-0.690722 19:-0.704918 20:-0.428572 21:-1 22:-0.782609 23:-0.746341 24:-0.739645 25:-0.742574 
575.3245671677207 1:-0.029944 2:-0.465863 3:-0.751198 4:-0.956969 5:0.360942 6:-0.761302 7:-0.239917 8:-0.774711 9:-0.212169 10:-0.423123 11:0.28921 12:-0.432372 13:-0.447699 14:-0.70073 15:-0.110092 16:0.84375 17:-0.397059 18:-0.505155 19:-0.836066 20:-0.714286 21:-1 22:0.282609 23:0.346341 24:0.360947 25:0.306931 
-1024 1:-0.560323 2:-0.920035 3:-0.906155 4:-0.964271 5:-0.721117 6:-0.895131 7:-0.775216 8:-0.939725 9:-0.701785 10:-0.0738417 11:-0.645172 12:-0.210643 13:-0.263598 14:-0.751825 15:-0.247706 16:0.260417 17:-0.352941 18:-0.505155 19:-0.704918 20:-0.857143 21:-1 22:-0.108696 23:-0.0536585 24:-0.0118343 25:-0.0257426 
-1024 1:-0.418147 2:-0.94271 3:-0.825471 4:-0.973872 5:-0.500534 6:-0.937039 7:-0.596947 8:-0.950913 9:-0.560856 10:-0.30644 11:-0.461796 12:0.432373 13:-0.874477 14:-0.817518 15:-0.321101 16:-0.09375 17:-0.426471 18:-0.670103 19:-0.934426 20:-1 21:-1 22:0.0869565 23:0.121951 24:0.136095 25:0.160396 
1024 1:-0.435678 2:-0.649936 3:-0.865454 4:-0.887524 5:-0.504846 6:-0.771392 7:-0.672741 8:-0.836748 9:-0.533049 10:-0.812422 11:-0.4097 12:0.237251 13:-0.422594 14:-0.525547 15:-0.357798 16:-0.5625 17:-0.558824 18:-0.628866 19:-0.803279 20:-0.714286 21:-1 22:0.347826 23:0.463415 24:0.556213 25:0.69505 
1024 1:-0.405932 2:-0.70926 3:-0.854729 4:-0.889896 5:-0.48392 6:-0.767801 7:-0.643252 8:-0.821068 9:-0.548985 10:-0.843013 11:-0.274995 12:0.0199557 13:-0.213389 14:-0.160584 15:-0.137615 16:-0.708333 17:-0.808824 18:-0.876289 19:-0.967213 20:-1 21:-1 22:0.565217 23:0.629268 24:0.662722 25:0.710891 
-1024 1:-0.803955 2:-0.783183 3:-0.938109 4:-0.936521 5:-0.788144 6:-0.91922 7:-0.857607 8:-0.91912 9:-0.853078 10:-0.16499 11:0.1451 12:0.152993 13:-0.280335 14:-0.759124 15:-0.458716 16:-0.302083 17:-0.25 18:-0.587629 19:-0.901639 20:-0.714286 21:-1 22:-0.0652174 23:0.00487804 24:0.0295858 25:0.0653465 
1024 1:-0.764373 2:-0.987495 3:-0.944767 4:-0.99511 5:-0.821901 6:-0.990089 7:-0.915239 8:-0.990156 9:-0.914677 10:-0.0386875 11:-0.378317 12:-0.0953437 13:0.539749 14:-0.656934 15:-0.715596 16:-0.541667 17:-0.294118 18:-0.690722 19:-0.770492 20:-0.857143 21:-1 22:-0.347826 23:-0.307317 24:-0.284024 25:-0.227723 
-1024 1:-0.684179 2:-0.76502 3:-0.823458 4:-0.696378 5:-0.832951 6:-0.719295 7:-0.845769 8:-0.720116 9:-0.84571 10:0.0495038 11:0.333164 12:0.18847 13:-0.514644 14:-0.678832 15:-0.238532 16:-0.40625 17:-0.426471 18:-0.546392 19:-0.770492 20:-0.571429 21:-1 22:-0.217391 23:-0.141463 24:-0.112426 25:-0.0772277 
-1024 1:-0.914076 2:-0.983991 3:-0.991491 4:-0.99282 5:-0.973109 6:-0.991514 7:-0.965463 8:-0.99114 9:-0.965298 10:0.582224 11:-0.76108 12:0.547672 13:-0.506276 14:-0.635037 15:-0.678899 16:-0.739583 17:-0.617647 18:-0.628866 19:-0.47541 20:-0.571429 21:-1 22:-0.673913 23:-0.639024 24:-0.615385 25:-0.607921 
1024 1:-0.169274 2:-0.627725 3:-0.722272 4:-0.705123 5:-0.409496 6:-0.789162 7:-0.269363 8:-0.633818 9:-0.446306 10:-0.830984 11:0.196927 12:0.237251 13:-0.389121 14:-0.518248 15:-0.440367 16:-0.375 17:-0.529412 18:-0.814433 19:-0.967213 20:-1 21:-1 22:0.478261 23:0.521951 24:0.591716 25:0.734653 
-1024 1:-0.280918 2:-0.698185 3:-0.825046 4:-0.981288 5:-0.144971 6:-0.877581 7:-0.435018 8:-0.881065 9:-0.428364 10:-0.319444 11:-0.138435 12:-0.441242 13:-0.364017 14:-0.364964 15:-0.183486 16:0.28125 17:-0.352941 18:-0.42268 19:-0.803279 20:-0.714286 21:-1 22:0.0217391 23:0.0731707 24:0.106509 25:0.112871 
1024 1:-0.110454 2:-0.173975 3:-0.813865 4:-0.899024 5:-0.0563416 6:-0.653264 7:-0.475579 8:-0.647235 9:-0.479449 10:-0.927661 11:0.658306 12:-0.436807 13:0.322176 14:-0.145985 15:-0.266055 16:-0.322917 17:-0.632353 18:-0.814433 19:-1 20:-1 21:-1 22:0.695652 23:0.697561 24:0.792899 25:0.794059 
1024 1:-0.685183 2:-0.984353 3:-0.915803 4:-0.99238 5:-0.785392 6:-0.987198 7:-0.802398 8:-0.989951 9:-0.76341 10:0.421965 11:-0.553075 12:0.383592 13:-0.941423 14:-0.781022 15:-0.66055 16:-0.458333 17:0.426471 18:-0.402062 19:-0.573771 20:-0.428572 21:-1 22:-0.456522 23:-0.414634 24:-0.408284 25:-0.433663 
1024 1:-0.632092 2:-0.962827 3:-0.896914 4:-0.977702 5:-0.740284 6:-0.963556 7:-0.773912 8:-0.971239 9:-0.725904 10:-0.248529 11:-0.482371 12:-0.414634 13:0.104603 14:-0.635037 15:-0.33945 16:-0.28125 17:0.279412 18:-0.525773 19:-0.573771 20:-0.571429 21:-1 22:-0.0434782 23:0.0341463 24:0.0236686 25:0.0415842 
-1024 1:-0.81508 2:-0.980608 3:-0.975004 4:-0.99335 5:-0.923055 6:-0.989258 7:-0.92528 8:-0.989566 9:-0.920652 10:0.15884 11:-0.743471 12:0.206208 13:-0.0543933 14:-0.693431 15:-0.697248 16:-0.40625 17:-0.529412 18:-0.628866 19:-0.704918 20:-0.285714 21:-1 22:-0.391304 23:-0.346341 24:-0.301775 25:-0.267327 
-1024 1:-0.592957 2:-0.970419 3:-0.922255 4:-0.991549 5:-0.751651 6:-0.980064 7:-0.773331 8:-0.979321 9:-0.774843 10:-0.0469759 11:-0.00894796 12:-0.552106 13:0.76569 14:-0.744526 15:-0.53211 16:-0.135417 17:0.0882353 18:-0.649485 19:-0.704918 20:-1 21:-1 22:-0.152174 23:-0.102439 24:-0.100592 25:-0.10099 
1024 1:-0.516342 2:-0.97499 3:-0.86566 4:-0.984222 5:-0.636311 6:-0.969664 7:-0.681858 8:-0.971961 9:-0.663447 10:-0.13531 11:-0.457537 12:0.250554 13:-0.48954 14:-0.722628 15:-0.541284 16:-0.291667 17:-0.117647 18:-0.649485 19:-0.901639 20:-0.714286 21:-1 22:-0.0869565 23:-0.0439024 24:-0.0295858 25:-0.0019802 
-1024 1:-0.678287 2:-0.949838 3:-0.935331 4:-0.972739 5:-0.808631 6:-0.962367 7:-0.839251 8:-0.964166 9:-0.829503 10:-0.501779 11:-0.212899 12:-0.432372 13:-0.380753 14:-0.350365 15:-0.33945 16:0.0416667 17:-0.426471 18:0.402062 19:-0.704918 20:-0.714286 21:-1 22:0.217391 23:0.209756 24:0.260355 25:0.318812 
-675.736918192059 1:-0.447127 2:-0.567454 3:-0.874783 4:-0.932519 5:-0.527588 6:-0.808032 7:-0.754922 8:-0.823019 9:-0.738485 10:-0.105517 11:0.0284816 12:-0.170732 13:-0.58159 14:-0.510949 15:-0.146789 16:-0.09375 17:0.0294118 18:-0.56701 19:-0.836066 20:-0.857143 21:-1 22:-0.0869565 23:-0.0926829 24:-0.0710059 25:-0.0772277 
-505.1539240560897 1:-0.0215562 2:-0.123753 3:-0.718205 4:-0.630161 5:0.350518 6:-0.401821 7:-0.48496 8:-0.538774 9:-0.372127 10:-0.887821 11:-0.0410934 12:-0.0820399 13:-0.0878661 14:-0.233577 15:-0.12844 16:-0.708333 17:-0.617647 18:-0.876289 19:-0.836066 20:-1 21:-1 22:0.565217 23:0.746341 24:0.769231 25:0.837624 
-1024 1:-0.576637 2:-0.910551 3:-0.889211 4:-0.954646 5:-0.755903 6:-0.935793 7:-0.800336 8:-0.936102 9:-0.800679 10:0.0834705 11:-0.559402 12:0.192905 13:-0.682008 14:-0.518248 15:-0.192661 16:-0.34375 17:-0.426471 18:-0.752577 19:-0.868852 20:-0.714286 21:-1 22:-0.347826 23:-0.287805 24:-0.260355 25:-0.243564 
1024 1:-0.774505 2:-0.982742 3:-0.963206 4:-0.992388 5:-0.881042 6:-0.988704 7:-0.889246 8:-0.989058 9:-0.885398 10:0.465797 11:-0.800388 12:0.45898 13:-0.539749 14:-0.79562 15:-0.495413 16:-0.46875 17:-0.514706 18:-0.608247 19:-0.737705 20:-0.571429 21:-1 22:-0.586957 23:-0.521951 24:-0.502959 25:-0.49703 
-1024 1:-0.736393 2:-0.973117 3:-0.959713 4:-0.993333 5:-0.843941 6:-0.987051 7:-0.866715 8:-0.987017 9:-0.86827 10:0.429539 11:-0.693261 12:0.512195 13:-0.531381 14:-0.656934 15:-0.614679 16:-0.635417 17:-0.382353 18:-0.690722 19:-0.901639 20:-1 21:-1 22:-0.543478 23:-0.531707 24:-0.532544 25:-0.528713 
-1024 1:-0.359616 2:-0.594378 3:-0.83058 4:-0.800883 5:-0.516041 6:-0.784088 7:-0.532744 8:-0.672922 9:-0.675888 10:-0.774951 11:-0.0847328 12:0.108647 13:-0.188285 14:-0.284672 15:-0.422018 16:-0.510417 17:-0.691176 18:-0.896907 19:-1 20:-1 21:-1 22:0.347826 23:0.434146 24:0.532544 25:0.647525 
-1024 1:-0.450014 2:-0.765845 3:-0.866194 4:-0.894191 5:-0.562091 6:-0.830843 7:-0.750297 8:-0.83474 9:-0.724467 10:-0.082416 11:-0.14337 12:-0.121951 13:-0.832636 14:-0.635037 15:-0.0733945 16:0.03125 17:0.0294118 18:-0.443299 19:-0.639344 20:-0.285714 21:-1 22:-0.152174 23:-0.0731707 24:-0.0473373 25:-0.0495049 
1024 1:-0.718486 2:-0.924204 3:-0.954623 4:-0.977474 5:-0.844841 6:-0.961862 7:-0.86261 8:-0.959027 9:-0.852632 10:-0.22463 11:-0.16848 12:-0.108647 13:-0.665272 14:-0.583942 15:-0.0458716 16:-0.645833 17:-0.0441176 18:0.237113 19:-0.540984 20:-0.142857 21:-1 22:0.0434782 23:0.0536585 24:0.0710059 25:0.160396 
-1024 1:-0.775746 2:-0.977164 3:-0.965274 4:-0.993113 5:-0.859783 6:-0.988305 7:-0.888339 8:-0.988115 9:-0.887562 10:0.212163 11:-0.72274 12:0.104213 13:-0.138075 14:-0.635037 15:-0.559633 16:-0.479167 17:-0.352941 18:-0.546392 19:-0.606557 20:-0.571429 21:-1 22:-0.413043 23:-0.365854 24:-0.349112 25:-0.338614 
-1024 1:-0.860252 2:-0.835178 3:-0.947153 4:-0.952943 5:-0.848707 6:-0.938204 7:-0.891598 8:-0.941102 9:-0.88361 10:-0.0538796 11:-0.0315334 12:-0.911308 13:0.297071 14:0.0583942 15:0.0550459 16:-0.208333 17:-0.411765 18:-0.690722 19:-0.704918 20:-0.142857 21:-1 22:-0.152174 23:-0.00487804 24:0.0946746 25:0.172277 
946.9704965756483 1:-0.621433 2:-0.981413 3:-0.922102 4:-0.997099 5:-0.761698 6:-0.990504 7:-0.781223 8:-0.990206 9:-0.784822 10:0.073211 11:0.0273934 12:0.219512 13:-0.958159 14:-0.379562 15:-0.587156 16:-0.197917 17:0.0147059 18:-0.670103 19:-0.704918 20:-1 21:-1 22:-0.326087 23:-0.307317 24:-0.307692 25:-0.330693 
1024 1:-0.38061 2:-0.861114 3:-0.861678 4:-0.930115 5:-0.398814 6:-0.898396 7:-0.735958 8:-0.895039 9:-0.736207 10:-0.2144 11:-0.188138 12:-0.259423 13:-0.891213 14:-0.722628 15:-0.0275229 16:0.3125 17:-0.102941 18:0.195876 19:-0.672131 20:-0.714286 21:-1 22:0.108696 23:0.112195 24:0.153846 25:0.132673 
1024 1:0.0942497 2:0.302087 3:-0.673355 4:-0.560936 5:0.168022 6:-0.230644 7:-0.193586 8:-0.473598 9:0.16373 10:-0.926621 11:-0.104109 12:0.277162 13:-0.0460251 14:-0.467153 15:-0.550459 16:-0.65625 17:-0.720588 18:-0.896907 19:-1 20:-1 21:-1 22:0.565217 23:0.687805 24:0.792899 25:0.893069 
1024 1:-0.790029 2:-0.972734 3:-0.962044 4:-0.986015 5:-0.870061 6:-0.98407 7:-0.884763 8:-0.984058 9:-0.887895 10:0.178166 11:-0.725774 12:0.0953437 13:-0.430962 14:-0.50365 15:-0.302752 16:-0.447917 17:-0.441176 18:-0.525773 19:-0.868852 20:-0.428572 21:-1 22:-0.369565 23:-0.317073 24:-0.272189 25:-0.239604 
272.4690080744971 1:-0.750902 2:-0.966754 3:-0.951283 4:-0.989609 5:-0.852908 6:-0.983785 7:-0.85773 8:-0.983009 9:-0.85943 10:0.539624 11:-0.140616 12:0.348115 13:-0.364017 14:-0.613139 15:-0.642202 16:-0.46875 17:-0.558824 18:-0.649485 19:-0.672131 20:-0.857143 21:-1 22:-0.652174 23:-0.619512 24:-0.609467 25:-0.611881 
1024 1:-0.380403 2:-0.832258 3:-0.844917 4:-0.917239 5:-0.549242 6:-0.861317 7:-0.681541 8:-0.861123 9:-0.675669 10:-0.0370515 11:0.0407553 12:0.228381 13:-0.656904 14:-0.620438 15:-0.366972 16:-0.479167 17:-0.191176 18:-0.319588 19:-0.868852 20:-1 21:-1 22:-0.0869565 23:-0.102439 24:-0.0710059 25:-0.0534653 
-1024 1:-0.729231 2:-0.948811 3:-0.93377 4:-0.994026 5:-0.788367 6:-0.97916 7:-0.903339 8:-0.97828 9:-0.901018 10:-0.396981 11:-0.395939 12:-0.223947 13:0.00418411 14:-0.364964 15:-0.348624 16:-0.46875 17:-0.308824 18:-0.505155 19:-0.901639 20:-0.571429 21:-1 22:-0.108696 23:-0.0926829 24:-0.0118343 25:0.0574257 
-1024 1:-0.266128 2:-0.553157 3:-0.816015 4:-0.810794 5:-0.403178 6:-0.726657 7:-0.451559 8:-0.696756 9:-0.499293 10:-0.801497 11:-0.342902 12:0.277162 13:-0.322176 14:-0.50365 15:-0.495413 16:-0.520833 17:-0.602941 18:-0.690722 19:-0.967213 20:-1 21:-1 22:0.326087 23:0.434146 24:0.538462 25:0.687129 
1024 1:-0.777874 2:-0.979359 3:-0.968324 4:-0.991679 5:-0.902284 6:-0.985878 7:-0.909699 8:-0.985804 9:-0.911094 10:-0.234525 11:-0.43443 12:-0.40133 13:0.0209205 14:-0.59854 15:-0.348624 16:-0.260417 17:0.294118 18:-0.546392 19:-0.540984 20:-0.571429 21:-1 22:-0.0434782 23:0.0341463 24:0.0177515 25:0.0415842 
-1024 1:-0.10642 2:-0.962505 3:-0.703638 4:-0.988452 5:-0.0273586 6:-0.923309 7:-0.270772 8:-0.971297 9:-0.0447117 10:-0.373885 11:0.68921 12:-0.419069 13:0.104603 14:-0.715328 15:0.33945 16:-0.0208333 17:-0.647059 18:-0.773196 19:-0.868852 20:-1 21:-1 22:0.413043 23:0.463415 24:0.319527 25:0.271287 
1024 1:-0.298062 2:-0.790916 3:-0.825635 4:-0.876905 5:-0.489201 6:-0.808976 7:-0.357048 8:-0.711977 9:-0.47527 10:-0.787167 11:-0.0627479 12:0.148559 13:-0.230126 14:-0.474453 15:-0.40367 16:-0.552083 17:-0.544118 18:-0.670103 19:-0.901639 20:-1 21:-1 22:0.326087 23:0.42439 24:0.52071 25:0.651485 
1024 1:-0.917362 2:-0.899113 3:-0.997787 4:-0.988492 5:-0.978964 6:-0.961618 7:-0.987748 8:-0.959388 9:-0.987708 10:-0.578853 11:-0.918949 12:-0.955654 13:-0.481172 14:1 15:0.165138 16:-0.4375 17:-0.588235 18:-0.731959 19:-0.770492 20:-0.142857 21:-1 22:0.0217391 23:0.268293 24:0.497041 25:0.726733 
-1024 1:-0.881141 2:-0.946355 3:-0.976775 4:-0.980465 5:-0.938828 6:-0.979388 7:-0.927993 8:-0.979149 9:-0.929378 10:0.578582 11:-0.658357 12:0.4102 13:-0.531381 14:-0.678832 15:-0.550459 16:-0.395833 17:-0.485294 18:-0.690722 19:-0.836066 20:-0.857143 21:-1 22:-0.717391 23:-0.687805 24:-0.680473 25:-0.691089 
1024 1:-0.688303 2:-0.98095 3:-0.93996 4:-0.989837 5:-0.841206 6:-0.99013 7:-0.823687 8:-0.98414 9:-0.85066 10:0.0921088 11:-0.345856 12:0.215078 13:-0.39749 14:-0.569343 15:-0.587156 16:-0.427083 17:-0.205882 18:-0.608247 19:-0.901639 20:-1 21:-1 22:-0.304348 23:-0.297561 24:-0.284024 25:-0.271287 
-1024 1:-0.734344 2:-0.972452 3:-0.954722 4:-0.984442 5:-0.871878 6:-0.977026 7:-0.877531 8:-0.976846 9:-0.873623 10:0.535874 11:-0.297508 12:0.51663 13:-0.899582 14:-0.788321 15:-0.605505 16:-0.260417 17:-0.279412 18:-0.525773 19:-0.737705 20:-0.428572 21:-1 22:-0.543478 23:-0.502439 24:-0.497041 25:-0.512871 
1024 1:-0.345164 2:-0.579214 3:-0.782301 4:-0.687144 5:-0.531917 6:-0.632017 7:-0.628463 8:-0.717485 9:-0.539339 10:-0.915918 11:-0.254257 12:-0.00665188 13:-0.16318 14:-0.291971 15:-0.302752 16:-0.510417 17:-0.705882 18:-0.773196 19:-0.868852 20:-0.714286 21:-1 22:0.695652 23:0.726829 24:0.798817 25:0.877228 
-360.5395376115554 1:-0.73889 2:-0.966129 3:-0.949903 4:-0.98978 5:-0.815918 6:-0.984087 7:-0.841682 8:-0.984239 9:-0.836984 10:0.22526 11:-0.298154 12:-0.144124 13:-0.0460251 14:-0.817518 15:-0.697248 16:-0.510417 17:-0.132353 18:0.0309278 19:0.540984 20:-2.14286e-07 21:1 22:-0.282609 23:-0.268293 24:-0.272189 25:-0.279208 
1024 1:-0.34519 2:-0.672812 3:-0.783138 4:-0.835178 5:-0.342614 6:-0.762124 7:-0.676872 8:-0.763515 9:-0.669194 10:-0.114431 11:-0.00424078 12:-0.166297 13:-0.523013 14:-0.591241 15:-0.275229 16:-0.0833333 17:-0.176471 18:-0.237113 19:-0.606557 20:-2.14286e-07 21:-0.666667 22:-0.173913 23:-0.121951 24:-0.0946746 25:-0.0811881 
1024 1:-0.765332 2:-0.972674 3:-0.954554 4:-0.988378 5:-0.876319 6:-0.984478 7:-0.87466 8:-0.983657 9:-0.882603 10:0.247578 11:-0.678341 12:0.481153 13:-0.656904 14:-0.766423 15:-0.59633 16:-0.46875 17:-0.294118 18:-0.525773 19:-0.803279 20:-0.714286 21:-1 22:-0.369565 23:-0.336585 24:-0.313609 25:-0.306931 
693.2735046157544 1:-0.926562 2:-0.969955 3:-0.970169 4:-0.980742 5:-0.908422 6:-0.982157 7:-0.912174 8:-0.981985 9:-0.911488 10:-0.0321139 11:-0.361733 12:-0.383592 13:-0.0460251 14:-0.635037 15:-0.330275 16:-0.541667 17:-0.147059 18:0.0927835 19:0.278689 20:-0.142857 21:0.666667 22:-0.23913 23:-0.219512 24:-0.213018 25:-0.19604 
-1024 1:-0.523005 2:-0.947422 3:-0.868665 4:-0.976048 5:-0.625372 6:-0.946242 7:-0.690631 8:-0.96383 9:-0.621351 10:-0.251688 11:-0.265987 12:-0.432372 13:-0.297071 14:-0.437956 15:-0.633028 16:0.125 17:0.411765 18:-0.360825 19:-0.540984 20:-0.571429 21:-1 22:0.108696 23:0.180488 24:0.130178 25:0.108911 
-1024 1:-0.601902 2:-0.955638 3:-0.900363 4:-0.971068 5:-0.740379 6:-0.961781 7:-0.776299 8:-0.964674 9:-0.766327 10:-0.23313 11:-0.282732 12:0.356984 13:-0.422594 14:-0.905109 15:-0.66055 16:-0.458333 17:-0.308824 18:-0.134021 19:-0.737705 20:-2.14286e-07 21:-1 22:-0.0217391 23:-0.00487804 24:0.0414201 25:0.164356 
1024 1:-0.873483 2:-0.961961 3:-0.981947 4:-0.986618 5:-0.947726 6:-0.984893 7:-0.941593 8:-0.982747 9:-0.943299 10:0.0175377 11:-0.730926 12:-0.299335 13:0.230126 14:-0.569343 15:-0.33945 16:-0.291667 17:-0.397059 18:-0.463918 19:-0.704918 20:-0.857143 21:-1 22:-0.282609 23:-0.209756 24:-0.16568 25:-0.144554 
-1024 1:-0.847766 2:-0.979762 3:-0.981643 4:-0.992836 5:-0.940079 6:-0.990252 7:-0.937682 8:-0.989853 9:-0.93827 10:0.680078 11:-0.805404 12:0.676275 13:-0.698745 14:-0.875912 15:-0.724771 16:-0.510417 17:-0.544118 18:-0.381443 19:-0.704918 20:-0.571429 21:-1 22:-0.652174 23:-0.64878 24:-0.639053 25:-0.647525 
-1024 1:-0.905906 2:-0.977446 3:-0.987761 4:-0.986528 5:-0.978526 6:-0.984738 7:-0.969621 8:-0.984689 9:-0.969705 10:-0.00997369 11:-0.907983 12:-0.148559 13:-0.280335 14:-0.189781 15:-0.192661 16:-0.489583 17:-0.544118 18:-0.773196 19:-0.737705 20:-0.285714 21:-1 22:-0.369565 23:-0.24878 24:-0.171598 25:-0.112871 
1024 1:-0.671155 2:-0.974647 3:-0.915866 4:-0.989087 5:-0.781483 6:-0.98052 7:-0.80445 8:-0.986189 9:-0.762376 10:0.107074 11:-0.573773 12:0.059867 13:-0.564854 14:-0.868613 15:-0.256881 16:-0.364583 17:0.25 18:-0.42268 19:-0.540984 20:-0.571429 21:-1 22:-0.326087 23:-0.268293 24:-0.254438 25:-0.287129 
-1024 1:-0.883957 2:-0.966351 3:-0.99341 4:-0.98934 5:-0.978741 6:-0.983004 7:-0.976914 8:-0.978764 9:-0.978921 10:0.414509 11:-0.968823 12:0.689579 13:0.0460251 14:-0.868613 15:-0.825688 16:-0.885417 17:-0.852941 18:-0.773196 19:-0.836066 20:-0.857143 21:-1 22:-0.913044 23:-0.902439 24:-0.899408 25:-0.89703 
-1024 1:-0.215334 2:-0.895529 3:-0.672337 4:-0.883197 5:-0.534574 6:-0.855796 7:-0.545877 8:-0.851181 9:-0.556151 10:-0.653779 11:-0.167974 12:-0.0288248 13:-0.364017 14:-0.131387 15:-0.495413 16:-0.135417 17:-0.632353 18:-0.938144 19:-0.967213 20:-1 21:-1 22:0.391304 23:0.404878 24:0.485207 25:0.524752 
-1024 1:-0.433742 2:-0.959242 3:-0.829351 4:-0.966447 5:-0.610945 6:-0.958914 7:-0.605051 8:-0.955388 9:-0.62277 10:-0.182207 11:-0.363246 12:0.534368 13:-0.924686 14:-0.824818 15:-0.440367 16:-0.270833 17:-0.323529 18:-0.628866 19:-0.770492 20:-1 21:-1 22:-0.0434782 23:0.00487804 24:0.0295858 25:0.0534654 
-1024 1:-0.756598 2:-0.945529 3:-0.955243 4:-0.976366 5:-0.869889 6:-0.966219 7:-0.883397 8:-0.96633 9:-0.884119 10:-0.60871 11:-0.499121 12:-0.321508 13:-0.67364 14:-0.20438 15:0.00917432 16:-0.364583 17:-0.0294118 18:-0.319588 19:-0.770492 20:-0.571429 21:-1 22:0.173913 23:0.219512 24:0.295858 25:0.334653 
-1024 1:-0.703575 2:-0.986629 3:-0.938866 4:-0.990155 5:-0.856645 6:-0.988533 7:-0.845654 8:-0.985927 9:-0.852456 10:0.245799 11:-0.648179 12:0.228381 13:-0.665272 14:-0.715328 15:-0.412844 16:-0.177083 17:-0.176471 18:-0.587629 19:-0.836066 20:-0.857143 21:-1 22:-0.456522 23:-0.42439 24:-0.414201 25:-0.425743 
1024 1:-0.857113 2:-0.980326 3:-0.979032 4:-0.992192 5:-0.9444 6:-0.990936 7:-0.935868 8:-0.990591 9:-0.935905 10:0.812846 11:-0.897569 12:0.791574 13:-0.456067 14:-0.751825 15:-0.779817 16:-0.822917 17:-0.779412 18:-0.752577 19:-0.836066 20:-0.285714 21:-1 22:-0.891304 23:-0.853659 24:-0.846154 25:-0.845545 
1024 1:-0.531517 2:-0.985159 3:-0.882964 4:-0.995257 5:-0.609694 6:-0.984559 7:-0.677181 8:-0.986681 9:-0.667819 10:0.260306 11:-0.547656 12:0.490022 13:-0.76569 14:-0.890511 15:-0.559633 16:-0.114583 17:-0.279412 18:-0.71134 19:-0.803279 20:-1 21:-1 22:-0.304348 23:-0.239024 24:-0.230769 25:-0.259406 
-1024 1:-0.0878808 2:-0.855597 3:-0.607964 4:-0.719141 5:-0.235366 6:-0.689896 7:-0.278329 8:-0.628261 9:-0.313963 10:-0.58314 11:0.446909 12:-0.339246 13:-0.790795 14:-0.532847 15:-0.192661 16:0.458333 17:0.308824 18:-0.608247 19:-0.770492 20:-1 21:-1 22:0.434783 23:0.473171 24:0.455621 25:0.421782 
1024 1:-0.471719 2:-0.938521 3:-0.864905 4:-0.983586 5:-0.525273 6:-0.952545 7:-0.632937 8:-0.959666 9:-0.615358 10:-0.150813 11:-0.459761 12:0.450111 13:-0.832636 14:-0.744526 15:-0.366972 16:-0.208333 17:-0.426471 18:-0.835052 19:-0.836066 20:-0.714286 21:-1 22:-0.0652174 23:0.00487804 24:0.0236686 25:0.0376238 
1024 1:-0.755248 2:-0.935481 3:-0.966154 4:-0.979242 5:-0.905182 6:-0.966105 7:-0.908818 8:-0.965584 9:-0.910051 10:0.371135 11:-0.623827 12:0.361419 13:-0.430962 14:-0.744526 15:-0.568807 16:-0.572917 17:-0.308824 18:-0.505155 19:-0.704918 20:-0.571429 21:-1 22:-0.478261 23:-0.443902 24:-0.431953 25:-0.425743 
1024 1:-0.789157 2:-0.953826 3:-0.953427 4:-0.979813 5:-0.912262 6:-0.977067 7:-0.895368 8:-0.976837 9:-0.895928 10:0.412415 11:-0.564178 12:0.432373 13:-0.723849 14:-0.678832 15:-0.568807 16:-0.416667 17:-0.426471 18:-0.42268 19:-0.737705 20:-0.714286 21:-0.666667 22:-0.543478 23:-0.512195 24:-0.508876 25:-0.512871 
351.6229414541832 1:-0.869704 2:-0.969633 3:-0.984657 4:-0.988199 5:-0.952244 6:-0.985813 7:-0.948939 8:-0.985337 9:-0.949703 10:0.538175 11:-0.707259 12:0.645233 13:-0.58159 14:-0.788321 15:-0.733945 16:-0.6875 17:-0.455882 18:-0.525773 19:-0.672131 20:-1 21:-0.333333 22:-0.586957 23:-0.570732 24:-0.568047 25:-0.560396 
1024 1:-0.476821 2:-0.781492 3:-0.884494 4:-0.932862 5:-0.594503 6:-0.883127 7:-0.714149 8:-0.888818 9:-0.70373 10:-0.564982 11:-0.575998 12:0.152993 13:-0.322176 14:-0.510949 15:-0.165138 16:-0.541667 17:-0.602941 18:-0.85567 19:-0.868852 20:-1 21:-1 22:0.0869565 23:0.2 24:0.248521 25:0.342574 
-1024 1:-0.594303 2:-0.950201 3:-0.899105 4:-0.976447 5:-0.705909 6:-0.964664 7:-0.759123 8:-0.965543 9:-0.75577 10:-0.237299 11:-0.266234 12:0.299335 13:-0.305439 14:-0.875912 15:-0.633028 16:-0.479167 17:-0.25 18:-0.360825 19:-0.672131 20:-0.142857 21:-1 22:-0.0217391 23:0.00487804 24:0.0532544 25:0.176238 
1024 1:-0.615147 2:-0.971989 3:-0.900155 4:-0.962633 5:-0.810029 6:-0.970885 7:-0.774 8:-0.947684 9:-0.825753 10:-0.269245 11:-0.343657 12:-0.286031 13:0.0209205 14:-0.59854 15:-0.376147 16:0.03125 17:-0.426471 18:-0.42268 19:-0.770492 20:-0.714286 21:-1 22:0.0217391 23:0.0731707 24:0.112426 25:0.120792 
-1024 1:-0.656849 2:-0.911719 3:-0.917986 4:-0.960188 5:-0.809557 6:-0.956536 7:-0.803499 8:-0.953355 9:-0.802002 10:0.217825 11:-0.532869 12:0.228381 13:-0.464435 14:-0.722628 15:-0.357798 16:-0.208333 17:-0.382353 18:-0.835052 19:-0.836066 20:-0.857143 21:-1 22:-0.434783 23:-0.385366 24:-0.378698 25:-0.394059 
-1024 1:-0.766456 2:-0.973238 3:-0.956729 4:-0.994254 5:-0.8353 6:-0.989193 7:-0.857369 8:-0.989443 9:-0.854436 10:-0.0431125 11:-0.32663 12:-0.13969 13:-0.748954 14:-0.605839 15:-0.238532 16:-0.447917 17:-0.176471 18:0.0309278 19:0.573771 20:-2.14286e-07 21:1 22:-0.23913 23:-0.24878 24:-0.242604 25:-0.239604 
1024 1:-0.676099 2:-0.903704 3:-0.927011 4:-0.955966 5:-0.803977 6:-0.950127 7:-0.844236 8:-0.950101 9:-0.845088 10:0.197286 11:-0.569452 12:0.210643 13:-0.732218 14:-0.642336 15:-0.183486 16:-0.166667 17:-0.397059 18:-0.773196 19:-0.836066 20:-0.857143 21:-1 22:-0.478261 23:-0.404878 24:-0.402367 25:-0.421782 
-1024 1:0.325775 2:-0.569851 3:-0.373809 4:0.298691 5:0.277345 6:0.28827 7:0.260933 8:0.283864 9:0.260775 10:-0.814787 11:-0.106996 12:0.0643016 13:-0.481172 14:-0.0218978 15:-0.266055 16:-0.697917 17:-0.75 18:-0.793814 19:-0.737705 20:-0.857143 21:-1 22:0.304348 23:0.580488 24:0.781065 25:0.615842 
-1024 1:-0.502789 2:-0.918122 3:-0.882799 4:-0.972119 5:-0.611391 6:-0.947195 7:-0.70002 8:-0.946274 9:-0.702276 10:-0.344959 11:-0.239211 12:0.157428 13:-0.34728 14:-0.751825 15:-0.458716 16:-0.3125 17:-0.264706 18:-0.525773 19:-0.672131 20:-1 21:-1 22:0.0434782 23:0.0926829 24:0.12426 25:0.19604 
-1024 1:-0.614598 2:-0.936608 3:-0.911097 4:-0.977922 5:-0.726749 6:-0.95779 7:-0.777145 8:-0.959199 9:-0.776542 10:-0.297028 11:-0.354106 12:0.237251 13:-0.439331 14:-0.751825 15:-0.394495 16:-0.333333 17:-0.514706 18:-0.340206 19:-0.803279 20:-1 21:-1 22:-0.0217391 23:0.0536585 24:0.0887574 25:0.156436 
1024 1:-0.722956 2:-0.956423 3:-0.948357 4:-0.987604 5:-0.7788 6:-0.977686 7:-0.847495 8:-0.978083 9:-0.840533 10:-0.174993 11:-0.240368 12:-0.543237 13:0.364017 14:-0.635037 15:-0.678899 16:-0.395833 17:-0.0441176 18:0.0515464 19:0.409836 20:-2.14286e-07 21:1 22:-0.0217391 23:-0.0243902 24:-0.00591716 25:0.0257426 
-1024 1:-0.823321 2:-0.977426 3:-0.977233 4:-0.990628 5:-0.921109 6:-0.987524 7:-0.927896 8:-0.987288 9:-0.927669 10:-0.404999 11:-0.532222 12:-0.290466 13:-0.154812 14:-0.386861 15:-0.229358 16:-0.3125 17:-0.323529 18:-0.298969 19:-0.803279 20:-1 21:-1 22:0.0217391 23:0.0536585 24:0.112426 25:0.184158 
-1024 1:-0.680727 2:-0.959524 3:-0.944076 4:-0.988419 5:-0.774565 6:-0.980056 7:-0.820261 8:-0.977526 9:-0.831999 10:0.235106 11:-0.599073 12:0.609756 13:-0.690377 14:-0.80292 15:-0.706422 16:-0.479167 17:-0.382353 18:-0.587629 19:-0.704918 20:-0.857143 21:-1 22:-0.347826 23:-0.336585 24:-0.319527 25:-0.30297 
-1024 1:-0.7413 2:-0.956866 3:-0.957149 4:-0.984589 5:-0.867206 6:-0.979021 7:-0.876034 8:-0.978846 9:-0.875909 10:-0.475603 11:-0.483934 12:-0.286031 13:-0.146444 14:-0.270073 15:-0.275229 16:-0.354167 17:-0.205882 18:-0.56701 19:-0.934426 20:-1 21:-1 22:0.0652174 23:0.102439 24:0.147929 25:0.219802 
-1024 1:-0.717132 2:-0.690996 3:-0.885253 4:-0.761544 5:-0.806754 6:-0.777899 7:-0.839357 8:-0.775915 9:-0.841137 10:0.363103 11:0.343715 12:0.56541 13:-0.623431 14:-0.79562 15:-0.513761 16:-0.4375 17:-0.573529 18:-0.773196 19:-0.737705 20:-1 21:-1 22:-0.521739 23:-0.453659 24:-0.426036 25:-0.425743 
-1024 1:-0.61253 2:-0.97207 3:-0.906199 4:-0.983016 5:-0.738613 6:-0.976244 7:-0.750949 8:-0.969436 9:-0.770927 10:-0.0671351 11:-0.445654 12:0.529933 13:-0.790795 14:-0.781022 15:-0.385321 16:-0.364583 17:-0.470588 18:-0.71134 19:-0.934426 20:-0.857143 21:-1 22:-0.173913 23:-0.121951 24:-0.0887574 25:-0.0613861 
1024 1:-0.57426 2:-0.942589 3:-0.915668 4:-0.981581 5:-0.713882 6:-0.965103 7:-0.771164 8:-0.963527 9:-0.773424 10:-0.441577 11:-0.0721639 12:-0.263858 13:-0.0794979 14:-0.50365 15:-0.53211 16:-0.25 17:-0.308824 18:0.072165 19:-0.606557 20:-0.571429 21:-1 22:0.0869565 23:0.121951 24:0.171598 25:0.231683 
-1024 1:-0.259029 2:-0.505593 3:-0.813457 4:-0.793451 5:-0.413885 6:-0.72757 7:-0.43788 8:-0.683618 9:-0.492038 10:-0.807883 11:-0.377651 12:0.2949 13:-0.405858 14:-0.445255 15:-0.46789 16:-0.46875 17:-0.617647 18:-0.896907 19:-0.934426 20:-1 21:-1 22:0.413043 23:0.473171 24:0.550296 25:0.69505 
1024 1:-0.314485 2:-0.788016 3:-0.835615 4:-0.874794 5:-0.518227 6:-0.804253 7:-0.387093 8:-0.713042 9:-0.500913 10:-0.789917 11:-0.136583 12:0.144124 13:-0.221757 14:-0.49635 15:-0.366972 16:-0.572917 17:-0.573529 18:-0.587629 19:-0.934426 20:-1 21:-1 22:0.326087 23:0.434146 24:0.52071 25:0.647525 
1024 1:-0.637953 2:-0.994784 3:-0.883482 4:-0.997612 5:-0.763884 6:-0.991734 7:-0.863139 8:-0.991607 9:-0.870828 10:-0.314649 11:-0.538951 12:-0.201774 13:-0.0376569 14:-0.145985 15:-0.651376 16:-0.395833 17:-0.382353 18:-0.525773 19:-0.737705 20:-1 21:-1 22:-0.0869565 23:-0.0341463 24:-8.87574e-09 25:0.152475 
-1024 1:-0.579453 2:-0.980749 3:-0.902319 4:-0.992461 5:-0.683664 6:-0.984258 7:-0.736257 8:-0.986525 9:-0.725335 10:0.115082 11:-0.476651 12:0.223947 13:-0.90795 14:-0.532847 15:-0.440367 16:-0.21875 17:-0.0588235 18:-0.546392 19:-0.737705 20:-1 21:-1 22:-0.369565 23:-0.336585 24:-0.337278 25:-0.354455 
1024 1:-0.591405 2:-0.979541 3:-0.91212 4:-0.991516 5:-0.729097 6:-0.981774 7:-0.752394 8:-0.981649 9:-0.754999 10:-0.166335 11:-0.177237 12:0.330377 13:-0.757322 14:-0.817518 15:-0.605505 16:-0.28125 17:0.0294118 18:-0.113402 19:-0.934426 20:-1 21:-1 22:0.0217391 23:0.0146342 24:0.0236686 25:0.0376238 
-1024 1:-0.725287 2:-0.982843 3:-0.936589 4:-0.989821 5:-0.826385 6:-0.986823 7:-0.817266 8:-0.982313 9:-0.850967 10:0.301221 11:-0.644512 12:0.263858 13:-0.271967 14:-0.649635 15:-0.66055 16:-0.53125 17:-0.264706 18:-0.670103 19:-0.672131 20:-0.571429 21:-1 22:-0.478261 23:-0.414634 24:-0.39645 25:-0.394059 
-1024 1:-0.863501 2:-0.800723 3:-0.988161 4:-0.986504 5:-0.949989 6:-0.937349 7:-0.962918 8:-0.937258 9:-0.964422 10:0.672199 11:-0.775641 12:0.609756 13:-0.380753 14:-0.788321 15:-0.770642 16:-0.71875 17:-0.573529 18:-0.56701 19:-0.573771 20:-1 21:-1 22:-0.673913 23:-0.668293 24:-0.656805 25:-0.663366 
-1024 1:-0.827415 2:-0.978332 3:-0.963574 4:-0.990595 5:-0.922009 6:-0.988256 7:-0.916657 8:-0.988271 9:-0.91755 10:-0.534395 11:-0.391048 12:-0.490022 13:-0.297071 14:-0.233577 15:-0.192661 16:-0.09375 17:-0.544118 18:0.0515464 19:-0.47541 20:-0.428572 21:-1 22:0.130435 23:0.190244 24:0.266272 25:0.330693 
1024 1:-0.867482 2:-0.952919 3:-0.982394 4:-0.984108 5:-0.948017 6:-0.978345 7:-0.936775 8:-0.978173 9:-0.937525 10:0.243138 11:-0.71476 12:0.179601 13:-0.589958 14:-0.744526 15:-0.348624 16:-0.1875 17:-0.147059 18:-0.670103 19:-0.770492 20:-0.857143 21:-1 22:-0.391304 23:-0.365854 24:-0.360947 25:-0.382178 
-1024 1:-0.731374 2:-0.951188 3:-0.966143 4:-0.985298 5:-0.897947 6:-0.976049 7:-0.895852 8:-0.974813 9:-0.895438 10:0.435191 11:-0.189928 12:0.330377 13:-0.732218 14:-0.766423 15:-0.522936 16:-0.489583 17:-0.176471 18:-0.237113 19:-0.639344 20:0.571429 21:-0.666667 22:-0.521739 23:-0.502439 24:-0.497041 25:-0.512871 
-1024 1:-0.271737 2:-0.64019 3:-0.832955 4:-0.990774 5:-0.196088 6:-0.848368 7:-0.474654 8:-0.851222 9:-0.468182 10:-0.319927 11:-0.241603 12:-0.498891 13:-0.472803 14:-0.0948905 15:-0.348624 16:0.270833 17:-0.132353 18:-0.505155 19:-0.901639 20:-0.714286 21:-1 22:0.0652174 23:0.112195 24:0.130178 25:0.120792 
1012.970801189944 1:-0.234197 2:-0.811476 3:-0.775424 4:-0.950555 5:-0.163941 6:-0.875023 7:-0.418229 8:-0.862672 9:-0.448461 10:-0.150842 11:-0.063936 12:-0.148559 13:-0.782427 14:-0.708029 15:0.0733945 16:0.135417 17:-0.0588235 18:-0.42268 19:-0.836066 20:-1 21:-1 22:-0.0434782 23:0.00487804 24:0.0118343 25:0.00990099 
-1024 1:-0.698477 2:-0.978816 3:-0.939019 4:-0.996862 5:-0.82425 6:-0.989617 7:-0.913944 8:-0.989058 9:-0.914265 10:-0.136305 11:-0.197868 12:-0.13969 13:0.171548 14:-0.379562 15:-0.697248 16:-0.510417 17:-0.102941 18:-0.773196 19:-0.737705 20:-0.714286 21:-1 22:-0.173913 23:-0.15122 24:-0.130178 25:-0.0178218 
1024 1:-0.344171 2:-0.946173 3:-0.794642 4:-0.966643 5:-0.441299 6:-0.934433 7:-0.474126 8:-0.914817 9:-0.525164 10:-0.165078 11:-0.136123 12:-0.228381 13:-0.372385 14:-0.751825 15:-0.66055 16:0.625 17:0.132353 18:-0.587629 19:-0.737705 20:-1 21:-1 22:0.0869565 23:0.131707 24:0.130178 25:0.0811881 
-1024 1:-0.755804 2:-0.95014 3:-0.963461 4:-0.977335 5:-0.890677 6:-0.970022 7:-0.892576 8:-0.969248 9:-0.892389 10:0.262815 11:-0.698694 12:0.441242 13:-0.782427 14:-0.671533 15:-0.486239 16:-0.572917 17:-0.455882 18:-0.381443 19:-0.540984 20:-0.142857 21:-0.666667 22:-0.391304 23:-0.356098 24:-0.325444 25:-0.310891 
-1024 1:-0.49986 2:-0.875895 3:-0.869033 4:-0.965127 5:-0.562683 6:-0.918724 7:-0.674107 8:-0.929431 9:-0.648107 10:0.111608 11:-0.0912034 12:0.0155211 13:-0.263598 14:-0.627737 15:-0.53211 16:-0.302083 17:-0.0294118 18:-0.56701 19:-0.770492 20:-0.857143 21:-1 22:-0.282609 23:-0.219512 24:-0.230769 25:-0.235644 
1024 1:-0.824317 2:-0.976601 3:-0.973833 4:-0.98727 5:-0.933076 6:-0.985724 7:-0.917987 8:-0.983837 9:-0.933644 10:0.748963 11:-0.920677 12:0.756098 13:-0.464435 14:-0.715328 15:-0.844037 16:-0.760417 17:-0.764706 18:-0.690722 19:-0.737705 20:-0.571429 21:-1 22:-0.847826 23:-0.804878 24:-0.804734 25:-0.80198 
-1024 1:-0.488927 2:-0.704004 3:-0.888015 4:-0.88155 5:-0.53178 6:-0.822511 7:-0.812351 8:-0.824552 9:-0.804175 10:-0.0861512 11:-0.249211 12:-0.117517 13:-0.849372 14:-0.656934 15:-0.0458716 16:0.145833 17:-0.0735294 18:-0.484536 19:-0.704918 20:-0.142857 21:-1 22:-0.130435 23:-0.0634146 24:-0.0295858 25:-0.0336634 
1024 1:-0.648721 2:-0.909685 3:-0.892748 4:-0.920645 5:-0.763078 6:-0.904301 7:-0.783178 8:-0.907375 9:-0.777243 10:-0.481127 11:-0.441227 12:-0.184035 13:-0.665272 14:-0.459854 15:0.119266 16:-0.333333 17:-0.147059 18:-0.360825 19:-0.836066 20:-0.571429 21:-1 22:0.282609 23:0.307317 24:0.360947 25:0.370297 
1024 1:-0.779833 2:-0.96621 3:-0.937152 4:-0.982193 5:-0.84599 6:-0.985797 7:-0.785045 8:-0.957765 9:-0.892555 10:0.778534 11:-0.800636 12:0.68071 13:-0.656904 14:-0.810219 15:-0.59633 16:-0.510417 17:-0.676471 18:-0.731959 19:-0.770492 20:-0.714286 21:-1 22:-0.782609 23:-0.726829 24:-0.710059 25:-0.722772 
-1024 1:-0.796672 2:-0.696554 3:-0.945011 4:-0.950759 5:-0.775791 6:-0.903755 7:-0.87451 8:-0.901596 9:-0.87393 10:0.151024 11:0.317879 12:0.529933 13:-0.531381 14:-0.788321 15:-0.59633 16:-0.541667 17:-0.588235 18:-0.628866 19:-0.573771 20:-0.428572 21:-1 22:-0.413043 23:-0.336585 24:-0.289941 25:-0.251485 
1024 1:-0.474437 2:-0.628933 3:-0.883707 4:-0.931819 5:-0.580556 6:-0.816135 7:-0.762858 8:-0.844231 9:-0.740184 10:-0.104369 11:0.0333207 12:-0.175166 13:-0.539749 14:-0.467153 15:-0.155963 16:-0.166667 17:0.0147059 18:-0.587629 19:-0.836066 20:-0.857143 21:-1 22:-0.0869565 23:-0.0926829 24:-0.0769231 25:-0.0693069 
1024 1:-0.761519 2:-0.80171 3:-0.944295 4:-0.93851 5:-0.810029 6:-0.924245 7:-0.868485 8:-0.923874 9:-0.864494 10:0.467117 11:0.346837 12:0.676275 13:-0.723849 14:-0.759124 15:-0.651376 16:-0.604167 17:-0.632353 18:-0.56701 19:-0.672131 20:-0.285714 21:-1 22:-0.586957 23:-0.560976 24:-0.532544 25:-0.520792 
1024 1:-0.775351 2:-0.760247 3:-0.943478 4:-0.923489 5:-0.823813 6:-0.911622 7:-0.868503 8:-0.907924 9:-0.867499 10:0.306267 11:0.290022 12:0.636364 13:-0.774059 14:-0.788321 15:-0.59633 16:-0.583333 17:-0.514706 18:-0.587629 19:-0.540984 20:-0.285714 21:-1 22:-0.456522 23:-0.395122 24:-0.366864 25:-0.346535 
-1024 1:-0.858779 2:-0.955215 3:-0.981566 4:-0.982274 5:-0.958553 6:-0.980788 7:-0.948613 8:-0.980395 9:-0.949887 10:0.769664 11:-0.581553 12:0.485588 13:-0.523013 14:-0.824818 15:-0.587156 16:-0.677083 17:-0.514706 18:-0.278351 19:-0.606557 20:-0.142857 22:-0.717391 23:-0.697561 24:-0.686391 25:-0.69505 
-1024 1:-0.344171 2:-0.946173 3:-0.794642 4:-0.966643 5:-0.441299 6:-0.934433 7:-0.474126 8:-0.914817 9:-0.525164 10:-0.165078 11:-0.136123 12:-0.228381 13:-0.372385 14:-0.751825 15:-0.66055 16:0.625 17:0.132353 18:-0.587629 19:-0.737705 20:-1 21:-1 22:0.0869565 23:0.131707 24:0.130178 25:0.0811881 
-1024 1:-0.90603 2:-0.970519 3:-0.986653 4:-0.98683 5:-0.976469 6:-0.984062 7:-0.969013 8:-0.983272 9:-0.969433 10:0.757182 11:-0.870223 12:0.467849 13:-0.188285 14:-0.715328 15:-0.587156 16:-0.75 17:-0.661765 18:-0.752577 19:-0.836066 20:-0.285714 21:-1 22:-0.826087 23:-0.795122 24:-0.786982 25:-0.786139 
-1024 1:-0.221643 2:-0.382213 3:-0.81776 4:-0.751406 5:-0.354187 6:-0.715916 7:-0.467097 8:-0.705043 9:-0.500458 10:-0.804128 11:-0.274086 12:0.259424 13:-0.372385 14:-0.489051 15:-0.412844 16:-0.552083 17:-0.617647 18:-0.649485 19:-0.934426 20:-1 21:-1 22:0.347826 23:0.443902 24:0.544379 25:0.683168 
1024 1:-0.860846 2:-0.95594 3:-0.980321 4:-0.983342 5:-0.953975 6:-0.980862 7:-0.944288 8:-0.98019 9:-0.94548 10:0.359215 11:-0.571523 12:0.232816 13:-0.67364 14:-0.40146 15:-0.577982 16:-0.46875 17:-0.382353 18:-0.381443 19:-0.704918 20:-0.571429 21:-0.666667 22:-0.543478 23:-0.482927 24:-0.47929 25:-0.469307 
-1024 1:-0.515339 2:-0.968163 3:-0.879393 4:-0.978639 5:-0.690462 6:-0.969916 7:-0.692366 8:-0.960478 9:-0.716127 10:-0.138666 11:-0.469195 12:-0.152993 13:-0.506276 14:-0.649635 15:-0.46789 16:0.458333 17:-0.0882353 18:-0.649485 19:-0.836066 20:-0.857143 21:-1 22:-0.0434782 23:0.0243902 24:0.0177515 25:-0.0178218 
1024 1:-0.70453 2:-0.987012 3:-0.938451 4:-0.991117 5:-0.85842 6:-0.989079 7:-0.846738 8:-0.986624 9:-0.853271 10:0.223718 11:-0.645592 12:0.170732 13:-0.58159 14:-0.686131 15:-0.40367 16:-0.197917 17:-0.176471 18:-0.587629 19:-0.836066 20:-0.857143 21:-1 22:-0.413043 23:-0.395122 24:-0.384615 25:-0.39802 
1024 1:-0.874441 2:-0.937897 3:-0.961484 4:-0.98595 5:-0.867026 6:-0.976725 7:-0.893271 8:-0.975583 9:-0.896086 10:0.235175 11:0.0230794 12:0.157428 13:-0.196653 14:-0.437956 15:-0.495413 16:-0.5625 17:-0.617647 18:-0.690722 19:-0.836066 20:-0.428572 21:-1 22:-0.565217 23:-0.492683 24:-0.449704 25:-0.421782 
-1024 1:-0.656466 2:-0.962021 3:-0.931012 4:-0.985607 5:-0.782306 6:-0.974738 7:-0.809259 8:-0.976264 9:-0.811779 10:0.15577 11:-0.513151 12:0.574279 13:-0.67364 14:-0.759124 15:-0.633028 16:-0.489583 17:-0.426471 18:-0.608247 19:-0.770492 20:-1 21:-1 22:-0.326087 23:-0.297561 24:-0.272189 25:-0.243564 
-1024 1:-0.804936 2:-0.920096 3:-0.935871 4:-0.972005 5:-0.89276 6:-0.961536 7:-0.904555 8:-0.965814 9:-0.896778 10:-0.816443 11:-0.30494 12:-0.481153 13:0.439331 14:-0.350365 15:-0.33945 16:-0.4375 17:-0.205882 18:-0.608247 19:-0.868852 20:-1 21:-1 22:0.391304 23:0.473171 24:0.573964 25:0.706931 
1024 1:-0.590961 2:-0.96768 3:-0.908654 4:-0.977955 5:-0.766481 6:-0.982393 7:-0.723459 8:-0.940209 9:-0.812331 10:-0.342225 11:-0.339604 12:-0.0731707 13:-0.112971 14:-0.737226 15:-0.357798 16:-0.291667 17:-0.132353 18:-0.587629 19:-0.606557 20:-0.857143 21:-1 22:0.0217391 23:0.0829268 24:0.100592 25:0.144554 
-1024 1:-0.733822 2:-0.963512 3:-0.950189 4:-0.980522 5:-0.834794 6:-0.976822 7:-0.85781 8:-0.975485 9:-0.859386 10:-0.0316507 11:-0.448071 12:-0.0110865 13:-0.238494 14:-0.664234 15:-0.486239 16:-0.145833 17:-0.397059 18:-0.340206 19:-0.737705 20:-0.714286 21:-1 22:-0.173913 23:-0.131707 24:-0.106509 25:-0.0930693 
1024 1:-0.569474 2:-0.800542 3:-0.925475 4:-0.947067 5:-0.63998 6:-0.904871 7:-0.782068 8:-0.901449 9:-0.79014 10:-0.447712 11:-0.607267 12:0.268293 13:-0.322176 14:-0.583942 15:-0.522936 16:-0.427083 17:-0.617647 18:-0.670103 19:-0.737705 20:-1 21:-1 22:-0.0217391 23:0.0634146 24:0.136095 25:0.239604 
1024 1:0.102149 2:0.215075 3:-0.601289 4:-0.562851 5:0.0975916 6:-0.509769 7:0.0704037 8:-0.40752 9:-0.043599 10:-0.905905 11:0.00787394 12:0.228381 13:-0.313808 14:-0.262774 15:-0.477064 16:-0.604167 17:-0.705882 18:-0.917526 19:-0.934426 20:-1 21:-1 22:0.565217 23:0.678049 24:0.727811 25:0.837624 
1024 1:-0.684179 2:-0.985521 3:-0.934716 4:-0.993496 5:-0.809626 6:-0.988012 7:-0.815945 8:-0.987378 9:-0.825306 10:0.209699 11:-0.630859 12:0.45898 13:-0.497908 14:-0.759124 15:-0.669725 16:-0.458333 17:-0.205882 18:-0.731959 19:-0.868852 20:-1 21:-1 22:-0.369565 23:-0.326829 24:-0.325444 25:-0.322772 
1024 1:-0.425933 2:-0.942649 3:-0.844456 4:-0.978305 5:-0.494953 6:-0.937683 7:-0.612555 8:-0.950806 9:-0.566314 10:-0.0972829 11:-0.363606 12:-0.0820399 13:-0.665272 14:-0.635037 15:-0.321101 16:0.0625 17:0.0441177 18:-0.443299 19:-0.704918 20:-0.857143 21:-1 22:-0.108696 23:-0.0634146 24:-0.0532544 25:-0.0653465 
-1024 1:-0.297378 2:-0.991865 3:-0.752841 4:-0.936627 5:-0.564766 6:-0.933904 7:-0.541015 8:-0.934791 9:-0.552191 10:-0.804542 11:0.92612 12:-0.037694 13:-0.497908 14:0.408759 15:-0.477064 16:-0.697917 17:-0.823529 18:-0.85567 19:-0.868852 20:-0.714286 21:-1 22:0.282609 23:0.521951 24:0.627219 25:0.481188 
1024 1:-0.315944 2:-0.739768 3:-0.831452 4:-0.841885 5:-0.500619 6:-0.784349 7:-0.543517 8:-0.803561 9:-0.492038 10:-0.805084 11:-0.268333 12:0.228381 13:-0.34728 14:-0.467153 15:-0.412844 16:-0.614583 17:-0.544118 18:-0.670103 19:-0.868852 20:-0.857143 21:-1 22:0.282609 23:0.414634 24:0.526627 25:0.655446 
1024 1:-0.871889 2:-0.969533 3:-0.966876 4:-0.98762 5:-0.913094 6:-0.982482 7:-0.915125 8:-0.981624 9:-0.910191 10:0.0112204 11:-0.725555 12:-0.290466 13:0.205021 14:-0.569343 15:-0.348624 16:-0.28125 17:-0.397059 18:-0.484536 19:-0.639344 20:-0.857143 21:-1 22:-0.26087 23:-0.2 24:-0.159763 25:-0.136634 
170.6196180856897 1:-0.343141 2:-0.719188 3:-0.850511 4:-0.86904 5:-0.509355 6:-0.743752 7:-0.546106 8:-0.760318 9:-0.523823 10:-0.869214 11:0.192399 12:0.0332594 13:-0.0962343 14:-0.635037 15:-0.137615 16:-0.510417 17:-0.470588 18:-0.773196 19:-0.934426 20:-1 21:-1 22:0.543478 23:0.609756 24:0.668639 25:0.774257 
1024 1:-0.509496 2:-0.956161 3:-0.850802 4:-0.957442 5:-0.653087 6:-0.945395 7:-0.663889 8:-0.942971 9:-0.669291 10:-0.417111 11:0.0691355 12:-0.62306 13:-0.39749 14:-0.109489 15:-0.293578 16:-0.239583 17:0.529412 18:-0.237113 19:-0.704918 20:-0.714286 21:-1 22:0.130435 23:0.170732 24:0.16568 25:0.207921 
-1024 1:-0.720373 2:-0.987898 3:-0.948428 4:-0.994605 5:-0.84767 6:-0.992312 7:-0.847989 8:-0.991091 9:-0.854375 10:0.330506 11:-0.355959 12:0.290466 13:-0.690377 14:-0.40146 15:-0.678899 16:-0.395833 17:-0.147059 18:-0.690722 19:-0.836066 20:-1 21:-1 22:-0.543478 23:-0.502439 24:-0.502959 25:-0.520792 
-1024 1:-0.899996 2:-0.977748 3:-0.98764 4:-0.989079 5:-0.965325 6:-0.988379 7:-0.955713 8:-0.987722 9:-0.956686 10:0.643677 11:-0.835326 12:0.534368 13:-0.297071 14:-0.686131 15:-0.697248 16:-0.729167 17:-0.661765 18:-0.71134 19:-0.737705 20:-0.428572 21:-1 22:-0.73913 23:-0.736585 24:-0.721893 25:-0.726733 
1024 1:-0.508706 2:-0.922291 3:-0.887239 4:-0.963489 5:-0.681255 6:-0.932894 7:-0.707217 8:-0.917661 9:-0.749103 10:-0.207053 11:-0.457583 12:-0.263858 13:-0.615063 14:-0.510949 15:-0.266055 16:-0.0416667 17:0.308824 18:-0.340206 19:-0.737705 20:-0.857143 21:-1 22:-3.26087e-08 23:0.0146342 24:0.0295858 25:0.0257426 
1024 1:-0.437141 2:-0.72988 3:-0.909764 4:-0.984515 5:-0.555739 6:-0.889886 7:-0.716377 8:-0.890171 9:-0.719684 10:-0.293613 11:0.208479 12:-0.197339 13:-0.355649 14:-0.40146 15:-0.155963 16:-0.34375 17:-0.0735294 18:-0.608247 19:-0.868852 20:-1 21:-1 22:-3.26087e-08 23:0.0146342 24:0.0236686 25:0.0415842 
1024 1:-0.57082 2:-0.691419 3:-0.928234 4:-0.877345 5:-0.763335 6:-0.868557 7:-0.799235 8:-0.878688 9:-0.770243 10:-0.47441 11:-0.804461 12:0.605322 13:-0.430962 14:-0.649635 15:-0.66055 16:-0.666667 17:-0.764706 18:-0.814433 19:-0.803279 20:-0.571429 21:-1 22:-0.173913 23:-0.0829268 24:0.0177515 25:0.176238 
-1024 1:-0.38687 2:-0.896354 3:-0.871333 4:-0.993448 5:-0.27203 6:-0.957969 7:-0.582898 8:-0.957511 9:-0.583109 10:0.238452 11:-0.398778 12:0.272727 13:-0.857741 14:-0.678832 15:-0.348624 16:-0.166667 17:-0.411765 18:-0.319588 19:-0.803279 20:-0.571429 21:-1 22:-0.391304 23:-0.356098 24:-0.349112 25:-0.354455 
-1024 1:-0.574948 2:-0.978574 3:-0.899793 4:-0.991866 5:-0.673977 6:-0.982564 7:-0.734037 8:-0.984829 9:-0.722689 10:0.127317 11:-0.475614 12:0.263858 13:-0.958159 14:-0.59854 15:-0.412844 16:-0.1875 17:-0.0882353 18:-0.525773 19:-0.704918 20:-1 21:-1 22:-0.347826 23:-0.317073 24:-0.307692 25:-0.326733 
-752.3822376387484 1:-0.425298 2:-0.790916 3:-0.890458 4:-0.930686 5:-0.630876 6:-0.809848 7:-0.558085 8:-0.790824 9:-0.579569 10:-0.714932 11:-0.581086 12:0.268293 13:-0.221757 14:-0.40146 15:-0.559633 16:-0.614583 17:-0.661765 18:-0.876289 19:-0.803279 20:-1 21:-1 22:0.130435 23:0.239024 24:0.35503 25:0.489109 
-1024 1:-0.740615 2:-0.96625 3:-0.958931 4:-0.986431 5:-0.868792 6:-0.980512 7:-0.882323 8:-0.98037 9:-0.881876 10:0.249998 11:-0.686676 12:0.592018 13:-0.556485 14:-0.773723 15:-0.715596 16:-0.604167 17:-0.367647 18:-0.608247 19:-0.836066 20:-0.714286 21:-1 22:-0.413043 23:-0.385366 24:-0.366864 25:-0.346535 
-1024 1:-0.386479 2:-0.464815 3:-0.913549 4:-0.78297 5:-0.746859 6:-0.797013 7:-0.717328 8:-0.781997 9:-0.729654 10:-0.88922 11:-0.45355 12:0.654102 13:-0.573222 14:-0.686131 15:-0.688073 16:-0.791667 17:-0.411765 18:-0.670103 19:-0.868852 20:-1 21:-1 22:0.326087 23:0.434146 24:0.597633 25:0.865347 
-1024 1:-0.943225 2:-0.953685 3:-0.968027 4:-0.982038 5:-0.869444 6:-0.973671 7:-0.900758 8:-0.975485 9:-0.899363 10:0.343195 11:-0.514855 12:0.463415 13:-0.313808 14:-0.744526 15:-0.688073 16:-0.625 17:-0.529412 18:-0.608247 19:-0.704918 20:-0.428572 21:-1 22:-0.543478 23:-0.492683 24:-0.47929 25:-0.465347 
-1024 1:-0.754116 2:-0.955014 3:-0.96461 4:-0.976952 5:-0.895563 6:-0.979665 7:-0.892188 8:-0.979091 9:-0.887737 10:0.0128071 11:-0.547597 12:0.0199557 13:-0.682008 14:-0.554745 15:-0.256881 16:-0.385417 17:0.117647 18:-0.402062 19:-0.803279 20:-0.857143 21:-1 22:-0.282609 23:-0.268293 24:-0.266272 25:-0.267327 
1024 1:-0.687987 2:-0.910148 3:-0.937695 4:-0.957067 5:-0.829376 6:-0.940948 7:-0.832742 8:-0.940512 9:-0.830913 10:-0.202982 11:-0.198449 12:-0.201774 13:-0.606695 14:-0.532847 15:-0.46789 16:0.0520833 17:-0.176471 18:0.216495 19:-0.573771 20:-0.571429 21:-1 22:-0.0434782 23:-0.0341463 24:-8.87574e-09 25:0.0059406 
1024 1:-0.880344 2:-0.976339 3:-0.98591 4:-0.991182 5:-0.956873 6:-0.988028 7:-0.951317 8:-0.987616 9:-0.952454 10:0.664196 11:-0.881072 12:0.694013 13:-0.372385 14:-0.70073 15:-0.844037 16:-0.791667 17:-0.764706 18:-0.56701 19:-0.836066 20:-0.428572 21:-1 22:-0.782609 23:-0.77561 24:-0.775148 25:-0.774257 
-1024 1:-0.76032 2:-0.98385 3:-0.952196 4:-0.993285 5:-0.848458 6:-0.988167 7:-0.860796 8:-0.988402 9:-0.86049 10:0.528132 11:-0.328891 12:0.290466 13:-0.288703 14:-0.766423 15:-0.651376 16:-0.583333 17:-0.0588235 18:-0.525773 19:-0.770492 20:-0.857143 21:-1 22:-0.565217 23:-0.521951 24:-0.52071 25:-0.540594 
-1024 1:-0.746691 2:-0.987233 3:-0.945527 4:-0.995412 5:-0.8676 6:-0.991343 7:-0.925536 8:-0.991656 9:-0.923885 10:-0.181828 11:-0.358308 12:-0.108647 13:0.263598 14:-0.489051 15:-0.678899 16:-0.479167 17:-0.338235 18:-0.649485 19:-0.737705 20:-0.428572 21:-1 22:-0.26087 23:-0.190244 24:-0.136095 25:-0.029703 
1024 1:-0.517624 2:-0.955537 3:-0.86914 4:-0.966341 5:-0.676181 6:-0.957 7:-0.683091 8:-0.934676 9:-0.72339 10:-0.369169 11:-0.514389 12:-0.361419 13:-0.598326 14:-0.459854 15:0.0642202 16:0.21875 17:-0.132353 18:-0.649485 19:-0.836066 20:-0.857143 21:-1 22:0.0652174 23:0.141463 24:0.153846 25:0.152475 
-1024 1:-0.898075 2:-0.961578 3:-0.988746 4:-0.982942 5:-0.976709 6:-0.980943 7:-0.966811 8:-0.980272 9:-0.968548 10:0.591631 11:-0.84726 12:0.450111 13:-0.497908 14:-0.737226 15:-0.605505 16:-0.572917 17:-0.441176 18:-0.628866 19:-0.573771 20:-0.285714 21:-1 22:-0.630435 23:-0.580488 24:-0.556213 25:-0.552475 
1024 1:-0.872001 2:-0.964095 3:-0.969231 4:-0.985811 5:-0.912845 6:-0.979445 7:-0.908739 8:-0.978567 9:-0.903358 10:0.0333163 11:-0.726161 12:-0.543237 13:0.514644 14:-0.554745 15:-0.366972 16:-0.125 17:-0.441176 18:-0.402062 19:-0.508197 20:-0.857143 21:-1 22:-0.282609 23:-0.239024 24:-0.201183 25:-0.184158 
1024 1:-0.875295 2:-0.942508 3:-0.980735 4:-0.980188 5:-0.947246 6:-0.979836 7:-0.937409 8:-0.978846 9:-0.938489 10:0.324692 11:-0.643682 12:0.268293 13:-0.631799 14:-0.518248 15:-0.431193 16:-0.3125 17:-0.441176 18:-0.731959 19:-0.836066 20:-0.857143 21:-1 22:-0.543478 23:-0.512195 24:-0.485207 25:-0.50099 
-1024 1:-0.81955 2:-0.968304 3:-0.972566 4:-0.986023 5:-0.902516 6:-0.981733 7:-0.915574 8:-0.981485 9:-0.915658 10:-0.380266 11:-0.575881 12:-0.405765 13:-0.188285 14:-0.379562 15:-0.192661 16:-0.0833333 17:-0.544118 18:-0.0309278 19:-0.737705 20:-0.571429 21:-1 22:0.0217391 23:0.0829268 24:0.130178 25:0.188119 
-1024 1:-0.761418 2:-0.98087 3:-0.965392 4:-0.994833 5:-0.874553 6:-0.989869 7:-0.889132 8:-0.988648 9:-0.894492 10:0.114057 11:-0.724266 12:0.348115 13:-0.456067 14:-0.525547 15:-0.577982 16:-0.677083 17:-0.397059 18:-0.608247 19:-0.737705 20:-0.714286 21:-1 22:-0.413043 23:-0.37561 24:-0.337278 25:-0.306931 
-1024 1:-0.743514 2:-0.973983 3:-0.953213 4:-0.990913 5:-0.844387 6:-0.983574 7:-0.86409 8:-0.985157 9:-0.860131 10:0.168345 11:-0.614261 12:0.529933 13:-0.573222 14:-0.766423 15:-0.642202 16:-0.520833 17:-0.529412 18:-0.443299 19:-0.770492 20:-0.714286 21:-1 22:-0.369565 23:-0.326829 24:-0.295858 25:-0.275248 
1024 1:-0.549236 2:-0.980306 3:-0.880476 4:-0.977995 5:-0.671783 6:-0.966097 7:-0.693256 8:-0.964887 9:-0.704615 10:-0.0670957 11:-0.403102 12:-0.299335 13:0.271967 14:-0.715328 15:-0.449541 16:-0.145833 17:-0.147059 18:-0.505155 19:-0.770492 20:-0.857143 21:-1 22:-0.0869565 23:-0.0439024 24:-0.0236686 25:-0.00594059 
-1024 1:-0.846702 2:-0.948832 3:-0.959181 4:-0.98762 5:-0.836234 6:-0.979209 7:-0.881653 8:-0.978378 9:-0.879738 10:0.131821 11:-0.0830644 12:0.148559 13:-0.313808 14:-0.569343 15:-0.293578 16:-0.541667 17:-0.558824 18:-0.628866 19:-0.672131 20:-0.714286 21:-1 22:-0.456522 23:-0.37561 24:-0.337278 25:-0.314851 
1024 1:-0.711914 2:-0.931473 3:-0.942409 4:-0.972502 5:-0.813663 6:-0.975226 7:-0.856726 8:-0.977067 9:-0.84939 10:0.369593 11:-0.220268 12:0.348115 13:-0.439331 14:-0.832117 15:-0.568807 16:-0.489583 17:-0.102941 18:-0.546392 19:-0.770492 20:-0.857143 21:-1 22:-0.478261 23:-0.42439 24:-0.420118 25:-0.421782 
-499.2256518895765 1:-0.573238 2:-0.912565 3:-0.900037 4:-0.944638 5:-0.7549 6:-0.920059 7:-0.777594 8:-0.919226 9:-0.778146 10:-0.595731 11:-0.236979 12:-0.521064 13:-0.48954 14:-0.540146 15:0.12844 16:0.270833 17:-0.0882353 18:-0.360825 19:-0.639344 20:-1 21:-1 22:0.304348 23:0.37561 24:0.420118 25:0.429703 
1024 1:-0.929912 2:-0.986226 3:-0.991965 4:-0.995379 5:-0.974497 6:-0.994535 7:-0.964838 8:-0.99441 9:-0.965052 10:0.977126 11:-0.896678 12:0.78714 13:-0.380753 14:-0.832117 15:-0.752294 16:-0.802083 17:-0.808824 18:-0.690722 19:-0.770492 20:-1 21:-1 22:-0.934783 23:-0.912195 24:-0.911243 25:-0.912871 
-246.2664866660245 1:-0.0970018 2:-0.637733 3:-0.720182 4:-0.934581 5:0.140307 6:-0.791206 7:-0.320705 8:-0.76381 9:-0.349716 10:-0.397799 11:0.225256 12:-0.166297 13:-0.933054 14:-0.708029 15:0.0366973 16:0.604167 17:-0.0294118 18:-0.896907 19:-0.803279 20:-0.857143 21:-1 22:0.543478 23:0.434146 24:0.414201 25:0.346535 
1024 1:-0.763828 2:-0.97352 3:-0.958484 4:-0.989674 5:-0.869418 6:-0.986978 7:-0.854286 8:-0.982837 9:-0.889296 10:0.428455 11:-0.662219 12:0.578714 13:-0.790795 14:-0.817518 15:-0.577982 16:-0.5 17:-0.294118 18:-0.525773 19:-0.704918 20:-0.857143 21:-1 22:-0.434783 23:-0.395122 24:-0.384615 25:-0.390099 
-520.7755334934211 1:-0.650394 2:-0.943535 3:-0.937996 4:-0.988851 5:-0.799768 6:-0.97148 7:-0.822744 8:-0.969477 9:-0.825762 10:-0.280342 11:-0.167007 12:-0.67184 13:0.0376569 14:-0.153285 15:-0.568807 16:-0.104167 17:-0.176471 18:0.154639 19:-0.409836 20:-0.428572 21:-1 22:-0.0217391 23:-0.0146341 24:0.0118343 25:0.0534654 
1024 1:-0.884273 2:-0.974768 3:-0.987627 4:-0.991712 5:-0.95731 6:-0.988134 7:-0.954999 8:-0.987861 9:-0.954452 10:0.643042 11:-0.76087 12:0.791574 13:-0.497908 14:-0.861314 15:-0.761468 16:-0.854167 17:-0.676471 18:-0.608247 19:-0.540984 20:-0.571429 21:-1 22:-0.695652 23:-0.678049 24:-0.680473 25:-0.667327 
272.1135593567012 1:-0.77243 2:-0.965404 3:-0.928461 4:-0.953432 5:-0.813766 6:-0.952611 7:-0.834089 8:-0.952519 9:-0.831369 10:-0.676047 11:-0.182391 12:-0.933481 13:0.472803 14:0.00729927 15:-0.412844 16:-0.520833 17:0.529412 18:-0.505155 19:-0.704918 20:-0.285714 21:-1 22:0.369565 23:0.365854 24:0.431953 25:0.615842 
1024 1:-0.674685 2:-0.92368 3:-0.926852 4:-0.961256 5:-0.846855 6:-0.957692 7:-0.841065 8:-0.955413 9:-0.841304 10:0.104211 11:-0.486632 12:0.059867 13:-0.39749 14:-0.59854 15:-0.458716 16:-0.25 17:-0.323529 18:-0.463918 19:-0.704918 20:-0.714286 21:-0.666667 22:-0.391304 23:-0.346341 24:-0.331361 25:-0.326733 
1024 1:-0.673136 2:-0.984837 3:-0.937264 4:-0.987083 5:-0.818318 6:-0.985097 7:-0.816059 8:-0.980985 9:-0.831912 10:0.0457735 11:-0.296813 12:-0.215078 13:0.246862 14:-0.620438 15:-0.440367 16:-0.34375 17:-0.132353 18:-0.690722 19:-0.836066 20:-1 21:-1 22:-0.282609 23:-0.239024 24:-0.230769 25:-0.219802 
-1024 1:-0.695138 2:-0.968344 3:-0.952136 4:-0.990522 5:-0.851587 6:-0.982197 7:-0.860003 8:-0.982657 9:-0.858773 10:0.221299 11:-0.0810172 12:-0.35255 13:0.58159 14:-0.759124 15:-0.559633 16:-0.239583 17:-0.0294118 18:-0.587629 19:-0.836066 20:-0.857143 21:-1 22:-0.23913 23:-0.229268 24:-0.224852 25:-0.227723 
1024 1:-0.378591 2:-0.958538 3:-0.811129 4:-0.949813 5:-0.560848 6:-0.947993 7:-0.519171 8:-0.913153 9:-0.593368 10:-0.202223 11:-0.108632 12:-0.427938 13:0.0292887 14:-0.59854 15:-0.697248 16:0.489583 17:-0.117647 18:-0.402062 19:-0.803279 20:-0.571429 21:-1 22:0.130435 23:0.160976 24:0.159763 25:0.120792 
-1024 1:-0.623076 2:-0.858355 3:-0.915789 4:-0.969617 5:-0.730615 6:-0.9337 7:-0.780677 8:-0.934979 9:-0.77741 10:-0.414938 11:-0.156282 12:0.0155211 13:-0.648536 14:-0.708029 15:-0.229358 16:-0.0104167 17:0.0735294 18:-0.773196 19:-0.836066 20:-0.714286 21:-1 22:0.217391 23:0.229268 24:0.254438 25:0.271287 
-1024 1:-0.825306 2:-0.979239 3:-0.972777 4:-0.990318 5:-0.929278 6:-0.988989 7:-0.920982 8:-0.988419 9:-0.921642 10:0.555969 11:-0.816275 12:0.587583 13:-0.497908 14:-0.824818 15:-0.614679 16:-0.583333 17:-0.529412 18:-0.546392 19:-0.901639 20:-1 21:-1 22:-0.608696 23:-0.590244 24:-0.591716 25:-0.584158 
1024 1:-0.651214 2:-0.98967 3:-0.913044 4:-0.996007 5:-0.732346 6:-0.991677 7:-0.877258 8:-0.990935 9:-0.882743 10:-0.363212 11:-0.52099 12:-0.179601 13:-0.138075 14:-0.211679 15:-0.568807 16:-0.479167 17:-0.25 18:-0.525773 19:-0.606557 20:-0.714286 21:-1 22:-0.108696 23:-0.0439024 24:0.00591716 25:0.132673 
-1024 1:-0.855861 2:-0.97203 3:-0.981736 4:-0.991426 5:-0.94464 6:-0.987067 7:-0.938898 8:-0.987427 9:-0.937561 10:0.528911 11:-0.815982 12:0.485588 13:-0.422594 14:-0.678832 15:-0.642202 16:-0.666667 17:-0.455882 18:-0.56701 19:-0.868852 20:-1 21:-1 22:-0.673913 23:-0.64878 24:-0.64497 25:-0.651485 
1024 1:-0.358123 2:-0.592122 3:-0.785408 4:-0.690763 5:-0.558791 6:-0.6374 7:-0.630938 8:-0.72005 9:-0.559218 10:-0.916584 11:-0.233048 12:-0.0155211 13:-0.16318 14:-0.248175 15:-0.357798 16:-0.479167 17:-0.720588 18:-0.773196 19:-0.868852 20:-0.714286 21:-1 22:0.695652 23:0.726829 24:0.798817 25:0.877228 
-1024 1:-0.26606 2:-0.328789 3:-0.801876 4:-0.741145 5:-0.361122 6:-0.671385 7:-0.55369 8:-0.662914 9:-0.570046 10:-0.86023 11:0.305973 12:0.201774 13:-0.39749 14:-0.467153 15:-0.110092 16:-0.479167 17:-0.838235 18:-0.896907 19:-0.934426 20:-1 21:-1 22:0.608696 23:0.64878 24:0.692308 25:0.821782 
-1024 1:-0.794074 2:-0.982984 3:-0.971968 4:-0.987914 5:-0.922558 6:-0.985707 7:-0.918648 8:-0.986984 9:-0.917594 10:0.475159 11:-0.801662 12:0.463415 13:-0.640167 14:-0.883212 15:-0.220183 16:-0.447917 17:-0.647059 18:-0.546392 19:-0.836066 20:-0.571429 21:-1 22:-0.543478 23:-0.502439 24:-0.47929 25:-0.473267 
-1024 1:-0.511128 2:-0.914316 3:-0.890708 4:-0.960783 5:-0.635719 6:-0.940444 7:-0.710669 8:-0.933873 9:-0.715514 10:0.31115 11:0.0099789 12:0.268293 13:-0.414226 14:-0.635037 15:-0.59633 16:-0.479167 17:-0.25 18:-0.649485 19:-0.704918 20:-0.571429 21:-0.666667 22:-0.5 23:-0.463415 24:-0.449704 25:-0.453465 
-1024 1:-0.506375 2:-0.93244 3:-0.882676 4:-0.977335 5:-0.620152 6:-0.942504 7:-0.689442 8:-0.954404 9:-0.660854 10:-0.141139 11:-0.436797 12:-0.485588 13:0.39749 14:-0.649635 15:-0.385321 16:-0.0625 17:-0.0588235 18:-0.56701 19:-0.737705 20:-1 21:-1 22:-0.108696 23:-0.0829268 24:-0.0532544 25:-0.0574257 
1024 1:0.0883057 2:0.278104 3:-0.674734 4:-0.560048 5:0.154298 6:-0.247372 7:-0.195858 8:-0.47509 9:0.152524 10:-0.900938 11:-0.10534 12:0.0997783 13:0.0627615 14:-0.364964 15:-0.440367 16:-0.583333 17:-0.823529 18:-0.896907 19:-0.967213 20:-1 21:-1 22:0.586956 23:0.668293 24:0.751479 25:0.833663 
-345.1791602871438 1:-0.881754 2:-0.949899 3:-0.971995 4:-0.981369 5:-0.938794 6:-0.981359 7:-0.950859 8:-0.981018 9:-0.951885 10:0.317867 11:-0.674847 12:0.135255 13:0.0962343 14:-0.583942 15:-0.66055 16:-0.375 17:-0.602941 18:-0.85567 19:-0.836066 20:-0.857143 21:-1 22:-0.543478 23:-0.502439 24:-0.485207 25:-0.453465 
-1024 1:-0.581163 2:-0.971828 3:-0.89928 4:-0.979161 5:-0.754729 6:-0.970731 7:-0.756789 8:-0.970674 9:-0.755989 10:0.0273685 11:-0.484715 12:-0.037694 13:-0.523013 14:-0.708029 15:-0.504587 16:0.208333 17:0.0441177 18:-0.670103 19:-0.704918 20:-0.857143 21:-1 22:-0.130435 23:-0.0829268 24:-0.0769231 25:-0.10495 
-439.7477121038863 1:-0.468602 2:-0.632598 3:-0.859174 4:-0.894411 5:-0.361851 6:-0.790139 7:-0.850094 8:-0.787972 9:-0.848908 10:-0.31185 11:-0.0791685 12:-0.104213 13:-0.707113 14:-0.788321 15:-0.394495 16:-0.145833 17:-0.0441176 18:0.319588 19:-0.114754 20:-0.142857 21:0.666667 22:0.0869565 23:0.121951 24:0.142012 25:0.168317 
1024 1:-0.695037 2:-0.927265 3:-0.942853 4:-0.963065 5:-0.843247 6:-0.949508 7:-0.842977 8:-0.948495 9:-0.843836 10:-0.151379 11:-0.334013 12:-0.0997783 13:-0.665272 14:-0.489051 15:-0.541284 16:0.03125 17:-0.0735294 18:-0.0927835 19:-0.639344 20:-0.857143 21:-1 22:-0.0869565 23:-0.0634146 24:-0.035503 25:-0.0376238 
-1024 1:-0.717245 2:-0.984253 3:-0.94548 4:-0.993195 5:-0.846658 6:-0.986001 7:-0.866266 8:-0.989886 9:-0.835994 10:0.306316 11:-0.729225 12:0.667406 13:-0.732218 14:-0.824818 15:-0.633028 16:-0.447917 17:-0.367647 18:-0.835052 19:-0.836066 20:-1 21:-1 22:-0.391304 23:-0.37561 24:-0.360947 25:-0.362376 
-1024 1:-0.866072 2:-0.945509 3:-0.973745 4:-0.977425 5:-0.930899 6:-0.975316 7:-0.923986 8:-0.97328 9:-0.925943 10:0.729139 11:-0.652875 12:0.587583 13:-0.76569 14:-0.79562 15:-0.522936 16:-0.385417 17:-0.455882 18:-0.731959 19:-0.836066 20:-0.857143 21:-1 22:-0.804348 23:-0.746341 24:-0.745562 25:-0.750495 
1024 1:-0.693969 2:-0.948167 3:-0.95448 4:-0.98097 5:-0.857828 6:-0.968304 7:-0.873039 8:-0.968305 9:-0.872484 10:0.235037 11:-0.0961174 12:-0.0997783 13:-0.447699 14:-0.408759 15:-0.568807 16:-0.40625 17:-0.147059 18:-0.134021 19:-0.508197 20:0.571429 21:-0.666667 22:-0.369565 23:-0.326829 24:-0.319527 25:-0.306931 
1024 1:-0.851222 2:-0.953785 3:-0.983096 4:-0.983008 5:-0.960164 6:-0.980357 7:-0.950031 8:-0.980182 9:-0.950807 10:0.529606 11:-0.561739 12:0.272727 13:-0.665272 14:-0.364964 15:-0.715596 16:-0.5625 17:-0.470588 18:-0.257732 19:-0.639344 20:0.142857 22:-0.586957 23:-0.541463 24:-0.532544 25:-0.528713 
417.3757847336778 1:-0.729611 2:-0.915847 3:-0.960077 4:-0.964728 5:-0.889194 6:-0.960404 7:-0.89225 8:-0.956552 9:-0.893992 10:-0.197172 11:-0.685702 12:-0.210643 13:-0.589958 14:-0.467153 15:0.0183486 16:-0.0520833 17:-0.205882 18:-0.628866 19:-0.803279 20:-0.857143 21:-1 22:-0.130435 23:-0.0731707 24:-0.0591716 25:-0.0574257 
-1024 1:-0.785438 2:-0.871888 3:-0.928066 4:-0.951525 5:-0.783352 6:-0.943962 7:-0.852833 8:-0.944323 9:-0.852448 10:0.0456109 11:0.0153069 12:0.0509978 13:-0.188285 14:-0.591241 15:-0.376147 16:-0.302083 17:-0.529412 18:-0.670103 19:-0.803279 20:-0.714286 21:-1 22:-0.304348 23:-0.229268 24:-0.189349 25:-0.136634 
1024 1:-0.429471 2:-0.884977 3:-0.852055 4:-0.929977 5:-0.448534 6:-0.911989 7:-0.730452 8:-0.910227 9:-0.722601 10:-0.229592 11:-0.161979 12:-0.263858 13:-0.849372 14:-0.751825 15:-0.100917 16:0.395833 17:0.0441177 18:-0.0309278 19:-0.639344 20:-0.714286 21:-1 22:0.130435 23:0.131707 24:0.159763 25:0.136634 
1024 1:-0.755413 2:-0.853039 3:-0.945113 4:-0.949585 5:-0.791084 6:-0.921884 7:-0.857757 8:-0.92566 9:-0.852868 10:-0.153528 11:0.407909 12:-0.0199556 13:-0.0711297 14:-0.759124 15:-0.568807 16:-0.333333 17:0.102941 18:-0.690722 19:-0.606557 20:-0.571429 21:-1 22:-0.0869565 23:-0.0243902 24:-0.0118343 25:0.0059406 
1024 1:-0.228741 2:-0.872854 3:-0.652063 4:-0.879546 5:-0.312568 6:-0.834255 7:-0.369344 8:-0.816528 9:-0.388081 10:-0.271379 11:-0.115185 12:-0.0997783 13:-0.924686 14:-0.854015 15:-0.302752 16:0.90625 17:-0.0588235 18:-0.628866 19:-0.803279 20:-0.714286 21:-1 22:0.26087 23:0.336585 24:0.307692 25:0.239604 
-1024 1:-0.390547 2:-0.718181 3:-0.849409 4:-0.913253 5:-0.53118 6:-0.822577 7:-0.656596 8:-0.820667 9:-0.618319 10:-0.20789 11:0.148661 12:-0.263858 13:-0.648536 14:-0.576642 15:0.0366973 16:0.0208333 17:-0.0147059 18:-0.42268 19:-0.803279 20:-0.571429 21:-1 22:0.0217391 23:0.0634146 24:0.0946746 25:0.0970297 
1024 1:-0.503763 2:-0.962001 3:-0.842964 4:-0.960587 5:-0.653524 6:-0.948677 7:-0.671764 8:-0.946052 9:-0.677964 10:-0.399696 11:0.0721304 12:-0.423503 13:-0.297071 14:-0.350365 15:-0.275229 16:-0.21875 17:0.279412 18:-0.402062 19:-0.770492 20:-0.857143 21:-1 22:0.173913 23:0.180488 24:0.177515 25:0.219802 
1024 1:-0.443871 2:-0.908175 3:-0.853226 4:-0.945347 5:-0.601018 6:-0.920409 7:-0.60143 8:-0.879884 9:-0.698456 10:-0.35071 11:-0.163088 12:-0.2949 13:-0.456067 14:-0.459854 15:0.220183 16:-0.208333 17:-0.235294 18:-0.608247 19:-0.901639 20:-1 21:-1 22:-0.0217391 23:0.0341463 24:0.0591716 25:0.0891089 
-1024 1:-0.735213 2:-0.975634 3:-0.945784 4:-0.988452 5:-0.857399 6:-0.985805 7:-0.846553 8:-0.985714 9:-0.847612 10:0.801231 11:-0.199199 12:0.569845 13:-0.682008 14:-0.708029 15:-0.642202 16:-0.666667 17:-0.338235 18:-0.608247 19:-0.672131 20:-0.571429 21:-0.666667 22:-0.76087 23:-0.746341 24:-0.739645 25:-0.742574 
-1024 1:-0.737228 2:-0.975815 3:-0.967051 4:-0.99154 5:-0.895803 6:-0.988281 7:-0.895773 8:-0.988099 9:-0.893791 10:0.293352 11:-0.247808 12:0.166297 13:-0.606695 14:-0.751825 15:-0.577982 16:-0.416667 17:0.0147059 18:0.216495 19:-0.803279 20:-0.857143 21:-1 22:-0.282609 23:-0.307317 24:-0.313609 25:-0.334653 
1024 1:-0.291355 2:-0.626174 3:-0.828756 4:-0.808821 5:-0.473214 6:-0.740771 7:-0.473545 8:-0.746942 9:-0.451449 10:-0.804444 11:-0.284348 12:0.228381 13:-0.355649 14:-0.445255 15:-0.366972 16:-0.614583 17:-0.691176 18:-0.546392 19:-0.934426 20:-1 21:-1 22:0.347826 23:0.434146 24:0.532544 25:0.659406 
1024 1:0.00854765 2:-0.536302 3:-0.656986 4:-0.715123 5:-0.0846817 6:-0.481941 7:-0.133699 8:-0.625425 9:0.0562499 10:-0.865981 11:-0.184309 12:0.179601 13:-0.472803 14:-0.321168 15:-0.0550459 16:-0.708333 17:-0.779412 18:-0.876289 19:-0.770492 20:-1 21:-1 22:0.543478 23:0.629268 24:0.680473 25:0.754455 
-1024 1:-0.480065 2:-0.774303 3:-0.881908 4:-0.920058 5:-0.573673 6:-0.862791 7:-0.772415 8:-0.864394 9:-0.763935 10:-0.0722402 11:0.0282357 12:-0.13969 13:-0.807531 14:-0.532847 15:-0.0366973 16:0.03125 17:0.0147059 18:-0.525773 19:-0.901639 20:-0.857143 21:-1 22:-0.0869565 23:-0.0731707 24:-0.0591716 25:-0.0653465 
1024 1:-0.78237 2:-0.992147 3:-0.963596 4:-0.993969 5:-0.90759 6:-0.992556 7:-0.904449 8:-0.992894 9:-0.904488 10:0.397543 11:-0.616359 12:0.356984 13:-0.732218 14:-0.540146 15:-0.633028 16:-0.479167 17:-0.279412 18:-0.505155 19:-0.573771 20:-0.428572 21:-1 22:-0.543478 23:-0.502439 24:-0.491124 25:-0.50495 
-1024 1:-0.552928 2:-0.923902 3:-0.897531 4:-0.984295 5:-0.602664 6:-0.960795 7:-0.725168 8:-0.961806 9:-0.715277 10:-0.31767 11:-0.453842 12:-0.210643 13:0.0962343 14:-0.70073 15:-0.504587 16:-0.0729167 17:-0.0735294 18:-0.649485 19:-0.803279 20:-0.714286 21:-1 22:-0.0434782 23:-0.00487804 24:0.0177515 25:0.00990099 
1024 1:-0.875487 2:-0.979682 3:-0.985356 4:-0.991288 5:-0.955407 6:-0.988672 7:-0.949062 8:-0.98846 9:-0.948976 10:0.504864 11:-0.871579 12:0.56541 13:-0.0878661 14:-0.722628 15:-0.788991 16:-0.8125 17:-0.75 18:-0.670103 19:-0.836066 20:-0.714286 21:-1 22:-0.782609 23:-0.736585 24:-0.733728 25:-0.730693 
1024 1:-0.67614 2:-0.951751 3:-0.945121 4:-0.987262 5:-0.805717 6:-0.970942 7:-0.840334 8:-0.971272 9:-0.842486 10:0.259715 11:-0.644682 12:0.587583 13:-0.690377 14:-0.773723 15:-0.605505 16:-0.5625 17:-0.411765 18:-0.587629 19:-0.770492 20:-0.571429 21:-1 22:-0.413043 23:-0.37561 24:-0.35503 25:-0.342574 
1024 1:-0.654409 2:-0.969653 3:-0.942088 4:-0.991777 5:-0.817684 6:-0.982735 7:-0.832301 8:-0.980714 9:-0.836459 10:-0.155681 11:-0.188854 12:-0.201774 13:-0.539749 14:-0.50365 15:-0.486239 16:-0.0729167 17:-0.176471 18:0.175258 19:-0.47541 20:-0.428572 21:-1 22:-0.152174 23:-0.131707 24:-0.112426 25:-0.0930693 
1024 1:-0.873216 2:-0.964317 3:-0.98237 4:-0.984686 5:-0.947743 6:-0.985007 7:-0.938678 8:-0.985009 9:-0.936483 10:0.245784 11:-0.744712 12:0.059867 13:-0.531381 14:-0.50365 15:-0.33945 16:-0.34375 17:-0.411765 18:-0.443299 19:-0.508197 20:-0.857143 21:-1 22:-0.456522 23:-0.434146 24:-0.414201 25:-0.417822 
144.1786115258978 1:0.151337 2:-0.865585 3:-0.285841 4:-0.831315 5:-0.353698 6:-0.790335 7:-0.39088 8:-0.758474 9:-0.433156 10:-0.582248 11:-0.101463 12:0.0332594 13:-0.715481 14:0.452555 15:-0.33945 16:-0.708333 17:-0.852941 18:-0.938144 19:-0.934426 20:-1 21:-1 22:0.217391 23:0.326829 24:0.426035 25:0.405941 
1024 1:-0.422696 2:-0.892991 3:-0.849688 4:-0.945307 5:-0.579656 6:-0.905742 7:-0.600558 8:-0.87927 9:-0.680373 10:-0.249125 11:-0.165216 12:-0.179601 13:-0.623431 14:-0.510949 15:0.211009 16:-0.229167 17:-0.191176 18:-0.587629 19:-0.901639 20:-1 21:-1 22:-0.0869565 23:-0.0439024 24:-0.0177515 25:-0.0019802 
-1024 1:-0.66347 2:-0.960249 3:-0.9293 4:-0.987661 5:-0.765984 6:-0.974339 7:-0.805243 8:-0.97378 9:-0.812287 10:-0.224029 11:-0.369026 12:0.4102 13:-0.472803 14:-0.635037 15:-0.697248 16:-0.53125 17:-0.426471 18:-0.360825 19:-0.934426 20:-1 21:-1 22:-0.152174 23:-0.112195 24:-0.0710059 25:0.0376238 
-1024 1:-0.779137 2:-0.978675 3:-0.970597 4:-0.990245 5:-0.906767 6:-0.984836 7:-0.906422 8:-0.98446 9:-0.906845 10:-0.169006 11:-0.395614 12:-0.631929 13:0.355649 14:-0.386861 15:-0.559633 16:-0.21875 17:-0.147059 18:0.195876 19:-0.672131 20:-0.571429 21:-1 22:-0.0869565 23:-0.0829268 24:-0.0591716 25:-0.029703 
-1024 1:-0.702507 2:-0.972271 3:-0.941528 4:-0.988028 5:-0.805588 6:-0.980903 7:-0.835772 8:-0.979698 9:-0.836608 10:-0.0903151 11:-0.447542 12:0.498891 13:-0.589958 14:-0.708029 15:-0.669725 16:-0.5625 17:-0.397059 18:-0.381443 19:-0.836066 20:-1 21:-1 22:-0.217391 23:-0.190244 24:-0.147929 25:-0.0811881 
1024 1:-0.61109 2:-0.977346 3:-0.907622 4:-0.985461 5:-0.773579 6:-0.980707 7:-0.767094 8:-0.972993 9:-0.789877 10:0.0844856 11:-0.56348 12:0.0332594 13:-0.439331 14:-0.751825 15:-0.357798 16:-0.0104167 17:-0.161765 18:-0.546392 19:-0.934426 20:-0.857143 21:-1 22:-0.26087 23:-0.229268 24:-0.213018 25:-0.227723 
-1024 1:-0.823152 2:-0.830103 3:-0.977379 4:-0.987001 5:-0.922069 6:-0.944597 7:-0.938545 8:-0.942569 9:-0.936816 10:0.352041 11:-0.842481 12:0.303769 13:-0.305439 14:-0.532847 15:-0.541284 16:-0.604167 17:-0.617647 18:-0.731959 19:-0.737705 20:-0.285714 21:-1 22:-0.608696 23:-0.55122 24:-0.526627 25:-0.50099 
-1024 1:-0.175233 2:0.0757056 3:-0.826891 4:-0.700967 5:-0.0911281 6:-0.511756 7:-0.537483 8:-0.523792 9:-0.539321 10:-0.86228 11:-0.399628 12:0.0332594 13:-0.0878661 14:-0.284672 15:-0.33945 16:-0.625 17:-0.691176 18:-0.814433 19:-0.901639 20:-1 21:-1 22:0.434783 23:0.560976 24:0.64497 25:0.742574 
-282.7021601822578 1:-0.443495 2:-0.677866 3:-0.802405 4:-0.834534 5:-0.497088 6:-0.779292 7:-0.754437 8:-0.778809 9:-0.750181 10:0.333488 11:0.0598974 12:0.441242 13:-0.598326 14:-0.664234 15:-0.440367 16:-0.427083 17:-0.632353 18:-0.752577 19:-0.770492 20:-0.714286 21:-1 22:-0.543478 23:-0.482927 24:-0.473373 25:-0.469307 
-1024 1:-0.287054 2:-0.59319 3:-0.828956 4:-0.857085 5:-0.399183 6:-0.743173 7:-0.396447 8:-0.658578 9:-0.504269 10:-0.828742 11:-0.152737 12:0.166297 13:-0.430962 14:-0.452555 15:-0.293578 16:-0.5 17:-0.558824 18:-0.793814 19:-0.737705 20:-0.714286 21:-1 22:0.413043 23:0.512195 24:0.591716 25:0.69901 
1024 1:-0.872475 2:-0.943113 3:-0.979361 4:-0.98075 5:-0.944991 6:-0.980308 7:-0.940642 8:-0.97937 9:-0.941599 10:0.334074 11:-0.6432 12:0.339246 13:-0.48954 14:-0.715328 15:-0.40367 16:-0.354167 17:-0.470588 18:-0.793814 19:-0.836066 20:-0.857143 21:-1 22:-0.521739 23:-0.492683 24:-0.491124 25:-0.489109 
1024 1:-0.752613 2:-0.985682 3:-0.961591 4:-0.99595 5:-0.870987 6:-0.991164 7:-0.883626 8:-0.991033 9:-0.88298 10:-0.146737 11:-0.380399 12:-0.560976 13:0.238494 14:-0.364964 15:-0.541284 16:-0.197917 17:-0.294118 18:0.216495 19:-0.639344 20:-0.714286 21:-1 22:-0.130435 23:-0.121951 24:-0.0887574 25:-0.0574257 
-1024 1:-0.292765 2:-0.634249 3:-0.741578 4:-0.804575 5:-0.43583 6:-0.734329 7:-0.64445 8:-0.73273 9:-0.650341 10:0.0490554 11:-0.0283234 12:0.179601 13:-0.648536 14:-0.518248 15:-0.256881 16:-0.46875 17:-0.264706 18:-0.649485 19:-0.803279 20:-0.714286 21:-1 22:-0.282609 23:-0.239024 24:-0.218935 25:-0.19604 
234.3949883393666 1:-0.976051 2:-0.138614 3:-0.994362 4:-0.968778 5:-0.96271 6:-0.875276 7:-0.983696 8:-0.873893 9:-0.983959 10:0.980545 11:-0.956365 12:0.72949 13:-0.380753 14:-0.810219 15:-0.752294 16:-0.78125 17:-0.705882 18:-0.752577 19:-0.737705 20:-0.571429 21:-1 22:-0.891304 23:-0.882927 24:-0.881657 25:-0.881188 
-1024 1:-0.670031 2:-0.946073 3:-0.914862 4:-0.968974 5:-0.769713 6:-0.958743 7:-0.79639 8:-0.960625 9:-0.787205 10:-0.13188 11:-0.533674 12:0.24612 13:-0.640167 14:-0.605839 15:-0.495413 16:-0.34375 17:-0.294118 18:-0.56701 19:-0.606557 20:-0.428572 21:-1 22:-0.130435 23:-0.102439 24:-0.0710059 25:-0.0415842 
-1024 1:-0.719587 2:-0.968244 3:-0.947515 4:-0.977303 5:-0.877982 6:-0.97372 7:-0.870925 8:-0.972739 9:-0.875165 10:0.155188 11:-0.698453 12:0.290466 13:-0.598326 14:-0.613139 15:-0.394495 16:-0.5 17:-0.411765 18:-0.56701 19:-0.737705 20:-0.142857 21:-1 22:-0.369565 23:-0.336585 24:-0.295858 25:-0.279208 
1024 1:-0.677629 2:-0.984192 3:-0.928363 4:-0.98846 5:-0.820796 6:-0.983883 7:-0.823696 8:-0.983403 9:-0.824789 10:0.35618 11:-0.636504 12:0.67184 13:-0.824268 14:-0.927007 15:-0.495413 16:-0.416667 17:-0.529412 18:-0.525773 19:-0.770492 20:-1 21:-1 22:-0.391304 23:-0.365854 24:-0.349112 25:-0.346535 
1024 1:-0.791194 2:-0.968425 3:-0.966856 4:-0.986219 5:-0.910076 6:-0.98324 7:-0.902978 8:-0.980944 9:-0.907703 10:0.418693 11:-0.763145 12:0.583149 13:-0.539749 14:-0.781022 15:-0.66055 16:-0.541667 17:-0.573529 18:-0.608247 19:-0.672131 20:-1 21:-1 22:-0.521739 23:-0.482927 24:-0.473373 25:-0.465347 
-1024 1:-0.648108 2:-0.987837 3:-0.919949 4:-0.994776 5:-0.754909 6:-0.989918 7:-0.899358 8:-0.990009 9:-0.899634 10:-0.603482 11:-0.219894 12:-0.144124 13:0.171548 14:-0.489051 15:-0.53211 16:-0.583333 17:-0.514706 18:-0.134021 19:-0.704918 20:-0.571429 21:-1 22:0.0869565 23:0.131707 24:0.248521 25:0.441584 
1024 1:-0.0255001 2:-0.688237 3:-0.564488 4:-0.392871 5:-0.403984 6:-0.340709 7:-0.399961 8:-0.391808 9:-0.349173 10:-0.857786 11:0.14232 12:-0.104213 13:-0.188285 14:-0.175182 15:-0.247706 16:-0.479167 17:-0.676471 18:-0.731959 19:-0.934426 20:-1 21:-1 22:0.586956 23:0.678049 24:0.739645 25:0.80198 
1024 1:-0.645431 2:-0.980125 3:-0.918161 4:-0.989014 5:-0.819021 6:-0.989617 7:-0.815002 8:-0.98505 9:-0.829897 10:-0.0801443 11:-0.58238 12:0.144124 13:-0.380753 14:-0.729927 15:-0.412844 16:-0.135417 17:-0.352941 18:-0.628866 19:-0.934426 20:-0.857143 21:-1 22:-0.173913 23:-0.131707 24:-0.112426 25:-0.10495 
-1024 1:-0.857312 2:-0.970801 3:-0.977 4:-0.985827 5:-0.953572 6:-0.982588 7:-0.946534 8:-0.98214 9:-0.946602 10:0.28526 11:-0.787373 12:0.348115 13:-0.238494 14:-0.664234 15:-0.541284 16:-0.697917 17:-0.588235 18:-0.505155 19:-0.836066 20:-0.428572 21:-1 22:-0.521739 23:-0.463415 24:-0.431953 25:-0.394059 
-1024 1:-0.314011 2:-0.926298 3:-0.759159 4:-0.924834 5:-0.450711 6:-0.887345 7:-0.501185 8:-0.8894 9:-0.499564 10:-0.20481 11:-0.159858 12:-0.179601 13:-0.90795 14:-0.788321 15:-0.192661 16:0.583333 17:0.102941 18:-0.402062 19:-0.639344 20:-0.857143 21:-1 22:0.0652174 23:0.102439 24:0.112426 25:0.0732673 
1024 1:-0.575197 2:-0.69315 3:-0.91025 4:-0.826189 5:-0.781534 6:-0.808308 7:-0.822736 8:-0.802815 9:-0.822827 10:-0.915736 11:-0.204294 12:-0.13082 13:0.154812 14:-0.372263 15:-0.357798 16:-0.677083 17:-0.308824 18:-0.835052 19:-0.836066 20:-1 21:-1 22:0.565217 23:0.697561 24:0.792899 25:0.869307 
-1024 1:-0.866832 2:-0.97215 3:-0.982449 4:-0.991084 5:-0.940122 6:-0.98653 7:-0.935947 8:-0.986681 9:-0.941117 10:0.689544 11:-0.89617 12:0.649667 13:-0.497908 14:-0.737226 15:-0.669725 16:-0.625 17:-0.647059 18:-0.731959 19:-0.868852 20:-1 21:-1 22:-0.73913 23:-0.717073 24:-0.704142 25:-0.70297 
1024 1:-0.71009 2:-0.939407 3:-0.954574 4:-0.976455 5:-0.8634 6:-0.972425 7:-0.865068 8:-0.971198 9:-0.86367 10:0.495964 11:-0.138968 12:0.423503 13:-0.497908 14:-0.678832 15:-0.53211 16:-0.510417 17:-0.558824 18:-0.649485 19:-0.672131 20:-0.857143 21:-1 22:-0.630435 23:-0.619512 24:-0.60355 25:-0.60396 
1024 1:-0.421016 2:-0.626033 3:-0.788241 4:-0.831258 5:-0.3469 6:-0.74749 7:-0.659749 8:-0.761744 9:-0.638829 10:0.0146156 11:-0.111402 12:0.00221729 13:-0.497908 14:-0.474453 15:-0.431193 16:-0.322917 17:0.0294118 18:-0.628866 19:-0.770492 20:-0.857143 21:-1 22:-0.282609 23:-0.239024 24:-0.230769 25:-0.231683 
-1024 1:-0.359462 2:-0.885742 3:-0.842262 4:-0.960913 5:-0.440304 6:-0.910059 7:-0.561248 8:-0.92171 9:-0.558499 10:-0.132733 11:0.345234 12:-0.201774 13:-0.271967 14:-0.773723 15:-0.541284 16:0.479167 17:0.0441177 18:-0.71134 19:-0.803279 20:-1 21:-1 22:0.0869565 23:0.121951 24:0.0946746 25:0.0495049 
-1024 1:-0.604387 2:-0.978876 3:-0.932816 4:-0.996292 5:-0.781474 6:-0.988273 7:-0.794444 8:-0.987616 9:-0.798068 10:0.209132 11:0.0127938 12:0.170732 13:-0.631799 14:-0.759124 15:-0.449541 16:-0.0833333 17:-0.0147059 18:-0.670103 19:-0.704918 20:-1 21:-1 22:-0.326087 23:-0.307317 24:-0.289941 25:-0.322772 
-1024 1:-0.518899 2:-0.882903 3:-0.913694 4:-0.981044 5:-0.685387 6:-0.946934 7:-0.72944 8:-0.944848 9:-0.734945 10:-0.140849 11:-0.0991004 12:0.0155211 13:-0.732218 14:-0.620438 15:-0.137615 16:-0.15625 17:-0.0588235 18:-0.525773 19:-0.868852 20:-0.714286 21:-1 22:-0.195652 23:-0.112195 24:-0.16568 25:-0.156436 
1024 1:-0.636758 2:-0.965686 3:-0.924197 4:-0.980253 5:-0.772713 6:-0.969249 7:-0.80415 8:-0.972649 9:-0.791743 10:0.137444 11:-0.683762 12:0.476718 13:-0.690377 14:-0.824818 15:-0.449541 16:-0.354167 17:-0.455882 18:-0.628866 19:-0.737705 20:-0.714286 21:-1 22:-0.326087 23:-0.24878 24:-0.230769 25:-0.219802 
-508.6504783263074 1:-0.378591 2:-0.958538 3:-0.811129 4:-0.949813 5:-0.560848 6:-0.947993 7:-0.519171 8:-0.913153 9:-0.593368 10:-0.202223 11:-0.108632 12:-0.427938 13:0.0292887 14:-0.59854 15:-0.697248 16:0.489583 17:-0.117647 18:-0.402062 19:-0.803279 20:-0.571429 21:-1 22:0.130435 23:0.160976 24:0.159763 25:0.120792 
1024 1:-0.180956 2:-0.818242 3:-0.791513 4:-0.98357 5:-0.0176718 6:-0.917339 7:-0.34351 8:-0.918882 9:-0.337179 10:-0.198956 11:0.310717 12:-0.290466 13:-0.230126 14:-0.59854 15:-0.605505 16:0.541667 17:-0.25 18:-0.505155 19:-0.803279 20:-0.714286 21:-1 22:0.0869565 23:0.121951 24:0.118343 25:0.0693069 
-1024 1:-0.877382 2:-0.977326 3:-0.986527 4:-0.990106 5:-0.959642 6:-0.987515 7:-0.955845 8:-0.987017 9:-0.956721 10:0.692969 11:-0.693045 12:0.800443 13:-0.456067 14:-0.985401 15:-0.87156 16:-0.697917 17:-0.602941 18:-0.505155 19:-0.639344 20:-0.571429 21:-1 22:-0.630435 23:-0.619512 24:-0.609467 25:-0.611881 
-1024 1:-0.7503 2:-0.989609 3:-0.952207 4:-0.994654 5:-0.869169 6:-0.992247 7:-0.878033 8:-0.992148 9:-0.878582 10:0.0285561 11:-0.401883 12:-0.170732 13:-0.263598 14:-0.562044 15:-0.302752 16:-0.4375 17:-0.220588 18:0.0309278 19:-0.606557 20:-0.857143 21:-1 22:-0.26087 23:-0.258537 24:-0.254438 25:-0.239604 
1024 1:-0.479272 2:-0.915384 3:-0.828748 4:-0.939593 5:-0.581679 6:-0.882776 7:-0.692384 8:-0.926685 9:-0.596443 10:-0.4131 11:-0.337936 12:-0.396896 13:-0.631799 14:-0.620438 15:-0.211009 16:0.427083 17:0.294118 18:-0.546392 19:-0.573771 20:-0.571429 21:-1 22:0.195652 23:0.278049 24:0.266272 25:0.247525 
1024 1:-0.770114 2:-0.979098 3:-0.96279 4:-0.991435 5:-0.873944 6:-0.986367 7:-0.890118 8:-0.987329 9:-0.877697 10:0.361226 11:-0.652877 12:0.494457 13:-0.623431 14:-0.773723 15:-0.605505 16:-0.427083 17:-0.441176 18:-0.505155 19:-0.803279 20:-0.714286 21:-1 22:-0.434783 23:-0.404878 24:-0.39645 25:-0.386139 
1024 1:0.107988 2:0.251321 3:-0.603417 4:-0.533023 5:0.0602591 6:-0.490011 7:0.073742 8:-0.397127 9:-0.0126728 10:-0.908611 11:0.0441879 12:0.223947 13:-0.322176 14:-0.262774 15:-0.46789 16:-0.604167 17:-0.676471 18:-0.917526 19:-0.967213 20:-1 21:-1 22:0.586956 23:0.697561 24:0.739645 25:0.845545 
-1024 1:-0.704737 2:-0.950402 3:-0.948285 4:-0.978362 5:-0.83422 6:-0.96819 7:-0.862663 8:-0.969494 9:-0.837729 10:-0.0745908 11:-0.563307 12:0.0465632 13:0.0376569 14:-0.744526 15:-0.394495 16:-0.489583 17:-0.338235 18:-0.649485 19:-0.737705 20:-0.857143 21:-1 22:-0.130435 23:-0.102439 24:-0.0473373 25:0.0217822 
1024 1:-0.814783 2:-0.837896 3:-0.949421 4:-0.936782 5:-0.821336 6:-0.931396 7:-0.877337 8:-0.929537 9:-0.87506 10:0.228932 11:0.0837014 12:0.383592 13:-0.48954 14:-0.744526 15:-0.587156 16:-0.354167 17:-0.455882 18:-0.690722 19:-0.704918 20:-0.285714 21:-1 22:-0.456522 23:-0.37561 24:-0.349112 25:-0.338614 
-1024 1:-0.587487 2:-0.976601 3:-0.880339 4:-0.970995 5:-0.722591 6:-0.964786 7:-0.722296 8:-0.959437 9:-0.73746 10:-0.266722 11:-0.129756 12:-0.605322 13:-0.0878661 14:-0.182482 15:-0.40367 16:-0.21875 17:0.102941 18:-0.0927835 19:-0.672131 20:-0.714286 21:-1 22:-3.26087e-08 23:0.0439025 24:0.0650888 25:0.0851485 
1024 1:-0.770039 2:-0.971647 3:-0.940541 4:-0.97062 5:-0.840812 6:-0.965926 7:-0.871762 8:-0.967191 9:-0.828942 10:0.446529 11:-0.768653 12:0.396896 13:-0.523013 14:-0.868613 15:-0.688073 16:-0.364583 17:-0.205882 18:-0.381443 19:-0.704918 20:-0.571429 21:-1 22:-0.413043 23:-0.404878 24:-0.39645 25:-0.409901 
-1024 1:-0.449894 2:-0.926157 3:-0.848451 4:-0.956822 5:-0.592086 6:-0.905017 7:-0.640636 8:-0.912374 9:-0.619414 10:0.0335626 11:-0.0310393 12:0.0155211 13:-0.481172 14:-0.686131 15:-0.633028 16:0.5625 17:-0.382353 18:-0.835052 19:-0.868852 20:-0.571429 21:-1 22:-0.23913 23:-0.141463 24:-0.118343 25:-0.160396 
-1024 1:-0.473426 2:-0.890857 3:-0.868676 4:-0.964972 5:-0.549722 6:-0.914122 7:-0.668892 8:-0.921783 9:-0.654896 10:-0.171169 11:-0.0556332 12:-0.405765 13:0.0125523 14:-0.722628 15:-0.633028 16:0.03125 17:0.338235 18:0.072165 19:-0.803279 20:-1 21:-1 22:0.130435 23:0.131707 24:0.112426 25:0.0930693 
1024 1:-0.208525 2:-0.742366 3:-0.761262 4:-0.872969 5:-0.260826 6:-0.786857 7:-0.473915 8:-0.788554 9:-0.482314 10:-0.615249 11:0.140796 12:-0.503326 13:-0.598326 14:-0.525547 15:-0.0366973 16:0.291667 17:-0.161765 18:0.134021 19:-0.606557 20:-0.571429 21:-1 22:0.347826 23:0.395122 24:0.449704 25:0.449505 
1024 1:-0.446048 2:-0.934071 3:-0.852123 4:-0.969715 5:-0.540781 6:-0.948254 7:-0.61673 8:-0.937365 9:-0.637217 10:-0.29274 11:-0.340541 12:0.472284 13:-0.857741 14:-0.788321 15:-0.440367 16:-0.270833 17:-0.191176 18:-0.835052 19:-0.737705 20:-0.857143 21:-1 22:0.0434782 23:0.0829268 24:0.106509 25:0.148515 
1024 1:-0.70859 2:-0.982722 3:-0.945864 4:-0.992486 5:-0.842938 6:-0.987874 7:-0.837296 8:-0.987238 9:-0.851256 10:0.629761 11:-0.383414 12:0.578714 13:-0.90795 14:-0.737226 15:-0.623853 16:-0.4375 17:-0.191176 18:-0.505155 19:-0.868852 20:-1 21:-1 22:-0.565217 23:-0.55122 24:-0.568047 25:-0.584158 
-1024 1:-0.245416 2:-0.750702 3:-0.776463 4:-0.883246 5:-0.331727 6:-0.802062 7:-0.517374 8:-0.805709 9:-0.518453 10:-0.620211 11:0.100647 12:-0.485588 13:-0.556485 14:-0.583942 15:-0.0183486 16:0.28125 17:-0.161765 18:0.072165 19:-0.573771 20:-0.571429 21:-1 22:0.304348 23:0.385366 24:0.43787 25:0.441584 
1024 1:-0.450375 2:-0.4302 3:-0.889945 4:-0.78777 5:-0.63361 6:-0.756692 7:-0.758991 8:-0.750442 9:-0.748174 10:-0.709373 11:-0.0332858 12:0.254989 13:-0.531381 14:-0.715328 15:-0.357798 16:-0.3125 17:-0.205882 18:-0.752577 19:-0.967213 20:-1 21:-1 22:0.391304 23:0.434146 24:0.467456 25:0.611881 
-1024 1:-0.881859 2:-0.990797 3:-0.983763 4:-0.996854 5:-0.956641 6:-0.995244 7:-0.95344 8:-0.994976 9:-0.953269 10:0.270457 11:-0.773981 12:0.396896 13:-0.364017 14:-0.554745 15:-0.623853 16:-0.729167 17:-0.470588 18:-0.649485 19:-0.803279 20:-0.571429 21:-1 22:-0.586957 23:-0.521951 24:-0.497041 25:-0.481188 
-1024 1:-0.939319 2:-0.976641 3:-0.987141 4:-0.957328 5:-0.989319 6:-0.962904 7:-0.979045 8:-0.957962 9:-0.980262 10:0.295032 11:-0.871823 12:0.175166 13:-0.414226 14:-0.233577 15:-0.394495 16:-0.635417 17:-0.764706 18:-0.773196 19:-0.803279 20:-2.14286e-07 21:-1 22:-0.478261 23:-0.404878 24:-0.325444 25:-0.271287 
1024 1:-0.754485 2:-0.916934 3:-0.96313 4:-0.965706 5:-0.867249 6:-0.961748 7:-0.905779 8:-0.959199 9:-0.9085 10:0.0220761 11:-0.691236 12:-0.0155211 13:-0.732218 14:-0.649635 15:-0.137615 16:0.0416667 17:-0.132353 18:-0.56701 19:-0.868852 20:-0.857143 21:-1 22:-0.23913 23:-0.209756 24:-0.207101 25:-0.219802 
1024 1:-0.521907 2:-0.820598 3:-0.879906 4:-0.895234 5:-0.696205 6:-0.864322 7:-0.770838 8:-0.858722 9:-0.774221 10:0.228399 11:0.00637431 12:0.13969 13:-0.405858 14:-0.532847 15:-0.40367 16:-0.5 17:-0.308824 18:-0.690722 19:-0.672131 20:-0.571429 21:-0.666667 22:-0.5 23:-0.453659 24:-0.426036 25:-0.425743 
1024 1:-0.892428 2:-0.847844 3:-0.991093 4:-0.988541 5:-0.949929 6:-0.942439 7:-0.968387 8:-0.942905 9:-0.968855 10:0.790883 11:-0.780422 12:0.809313 13:-0.67364 14:-0.927007 15:-0.66055 16:-0.635417 17:-0.647059 18:-0.525773 19:-0.868852 20:-0.857143 21:-1 22:-0.73913 23:-0.707317 24:-0.698225 25:-0.706931 
1024 1:-0.209902 2:-0.0709935 3:-0.841415 4:-0.872545 5:-0.037894 6:-0.585165 7:-0.574777 8:-0.59664 9:-0.565727 10:-0.803039 11:-0.465462 12:0.00665189 13:-0.0878661 14:-0.364964 15:-0.302752 16:-0.625 17:-0.588235 18:-0.71134 19:-0.868852 20:-1 21:-1 22:0.326087 23:0.453659 24:0.56213 25:0.679208 
1024 1:-0.19369 2:-0.771826 3:-0.750438 4:-0.899081 5:-0.1801 6:-0.830533 7:-0.486237 8:-0.829773 9:-0.489375 10:-0.373235 11:0.175528 12:-0.166297 13:-0.832636 14:-0.773723 15:-0.12844 16:0.25 17:-0.147059 18:0.113402 19:-0.606557 20:-0.571429 21:-1 22:0.23913 23:0.278049 24:0.319527 25:0.310891 
1024 1:-0.362379 2:-0.932641 3:-0.795209 4:-0.952487 5:-0.445696 6:-0.912078 7:-0.522113 8:-0.907522 9:-0.546357 10:-0.0942178 11:-0.58873 12:-0.00221729 13:-0.857741 14:-0.642336 15:0.0642202 16:-0.208333 17:0.0441177 18:-0.71134 19:-0.803279 20:-0.285714 21:-0.333333 22:-0.0869565 23:-0.0439024 24:-0.0295858 25:-0.0217822 
-1024 1:-0.874802 2:-0.832197 3:-0.988831 4:-0.918877 5:-0.956658 6:-0.895481 7:-0.978385 8:-0.896556 9:-0.979035 10:0.822583 11:-0.813538 12:0.62306 13:-0.548117 14:-0.773723 15:-0.697248 16:-0.552083 17:-0.5 18:-0.731959 19:-0.803279 20:-0.857143 21:-1 22:-0.695652 23:-0.668293 24:-0.662722 25:-0.667327 
-1024 1:-0.685261 2:-0.977769 3:-0.939132 4:-0.991223 5:-0.811049 6:-0.986636 7:-0.824973 8:-0.984796 9:-0.830484 10:-0.0303646 11:-0.543125 12:0.13969 13:0.00418411 14:-0.722628 15:-0.504587 16:-0.46875 17:-0.485294 18:-0.690722 19:-0.737705 20:-0.571429 21:-1 22:-0.217391 23:-0.160976 24:-0.106509 25:-0.0217822 
357.4178408307379 1:-0.271748 2:-0.633383 3:-0.815903 4:-0.81746 5:-0.453352 6:-0.662988 7:-0.477059 8:-0.677913 9:-0.441531 10:-0.839007 11:-0.212039 12:0.161863 13:-0.439331 14:-0.445255 15:-0.311927 16:-0.46875 17:-0.617647 18:-0.608247 19:-0.868852 20:-0.857143 21:-1 22:0.434783 23:0.521951 24:0.591716 25:0.70297 
1024 1:-0.632648 2:-0.974667 3:-0.915663 4:-0.976308 5:-0.791744 6:-0.972783 7:-0.787908 8:-0.966502 9:-0.803649 10:-0.0520514 11:-0.577774 12:-0.436807 13:0.497908 14:-0.729927 15:-0.376147 16:-0.09375 17:-0.161765 18:-0.546392 19:-0.901639 20:-0.857143 21:-1 22:-0.195652 23:-0.141463 24:-0.12426 25:-0.120792 
1024 1:-0.458695 2:-0.917881 3:-0.863016 4:-0.97291 5:-0.568024 6:-0.926249 7:-0.650527 8:-0.927472 9:-0.644637 10:-0.0137631 11:-0.372331 12:-0.104213 13:-0.757322 14:-0.605839 15:-0.321101 16:-0.135417 17:0.176471 18:-0.0309278 19:-0.639344 20:-0.857143 21:-1 22:-0.130435 23:-0.102439 24:-0.100592 25:-0.108911 
-1024 1:-0.500672 2:-0.891924 3:-0.871948 4:-0.964336 5:-0.596972 6:-0.921379 7:-0.702487 8:-0.928103 9:-0.686576 10:-0.0276691 11:-0.0389243 12:-0.152993 13:-0.422594 14:-0.576642 15:-0.458716 16:-0.125 17:-0.102941 18:-0.216495 19:-0.573771 20:-2.14286e-07 21:-0.666667 22:-0.173913 23:-0.112195 24:-0.106509 25:-0.10099 
-1024 1:-0.846872 2:-0.979138 3:-0.981448 4:-0.990391 5:-0.932167 6:-0.989356 7:-0.935674 8:-0.988992 9:-0.933601 10:0.773744 11:-0.779911 12:0.725055 13:-0.707113 14:-0.868613 15:-0.697248 16:-0.625 17:-0.485294 18:-0.649485 19:-0.573771 20:-0.285714 21:-1 22:-0.673913 23:-0.64878 24:-0.639053 25:-0.647525 
1024 1:-0.822573 2:-0.970237 3:-0.975059 4:-0.988867 5:-0.920826 6:-0.983777 7:-0.920339 8:-0.985288 9:-0.918243 10:0.427558 11:-0.576929 12:0.494457 13:-0.648536 14:-0.788321 15:-0.66055 16:-0.53125 17:-0.426471 18:-0.360825 19:-0.47541 20:-0.285714 21:-1 22:-0.478261 23:-0.434146 24:-0.426036 25:-0.417822 
-1024 1:-0.325065 2:-0.748789 3:-0.842029 4:-0.991272 5:-0.223785 6:-0.898991 7:-0.486431 8:-0.901219 9:-0.480816 10:-0.17454 11:-0.276385 12:-0.405765 13:-0.146444 14:-0.452555 15:-0.284404 16:0.1875 17:-0.382353 18:-0.42268 19:-0.803279 20:-0.714286 21:-1 22:-0.0869565 23:-0.0536585 24:-0.0118343 25:-0.0019802 
1024 1:-0.706654 2:-0.935299 3:-0.932342 4:-0.963709 5:-0.863683 6:-0.961821 7:-0.856242 8:-0.960937 9:-0.857205 10:0.190727 11:-0.47645 12:0.0909091 13:-0.280335 14:-0.59854 15:-0.623853 16:-0.354167 17:-0.397059 18:-0.360825 19:-0.672131 20:-0.142857 22:-0.434783 23:-0.395122 24:-0.372781 25:-0.370297 
1024 1:-0.213221 2:-0.768423 3:-0.762771 4:-0.907084 5:-0.210361 6:-0.840819 7:-0.51282 8:-0.840682 9:-0.52441 10:-0.36743 11:0.140663 12:-0.166297 13:-0.849372 14:-0.781022 15:-0.0917431 16:0.239583 17:-0.147059 18:0.113402 19:-0.606557 20:-0.571429 21:-1 22:0.23913 23:0.278049 24:0.313609 25:0.306931 
1024 1:-0.563948 2:-0.990233 3:-0.888884 4:-0.996235 5:-0.596621 6:-0.989095 7:-0.837551 8:-0.989542 9:-0.833506 10:-0.350779 11:-0.533002 12:-0.157428 13:-0.138075 14:-0.248175 15:-0.513761 16:-0.40625 17:-0.352941 18:-0.587629 19:-0.672131 20:-0.857143 21:-1 22:-0.130435 23:-0.0634146 24:-0.0118343 25:0.0891089 
1024 1:-0.707455 2:-0.936105 3:-0.943379 4:-0.972649 5:-0.833886 6:-0.960535 7:-0.855502 8:-0.959781 9:-0.856224 10:0.224073 11:-0.867889 12:0.485588 13:-0.430962 14:-0.80292 15:-0.559633 16:-0.447917 17:-0.632353 18:-0.731959 19:-0.672131 20:-0.714286 21:-1 22:-0.478261 23:-0.414634 24:-0.384615 25:-0.378218 
1024 1:-0.798233 2:-0.825532 3:-0.943385 4:-0.929748 5:-0.760678 6:-0.91962 7:-0.864566 8:-0.922169 9:-0.859929 10:0.682798 11:0.180814 12:0.827051 13:-0.682008 14:-0.839416 15:-0.752294 16:-0.833333 17:-0.676471 18:-0.546392 19:-0.508197 20:-2.14286e-07 21:-1 22:-0.652174 23:-0.658537 24:-0.650888 25:-0.651485 
-1024 1:-0.109717 2:-0.429334 3:-0.758032 4:-0.809702 5:-0.0960057 6:-0.684154 7:-0.218583 8:-0.589066 9:-0.342051 10:-0.894187 11:0.0414734 12:0.135255 13:-0.263598 14:-0.394161 15:-0.266055 16:-0.46875 17:-0.691176 18:-0.979381 19:-0.967213 20:-1 21:-1 22:0.673913 23:0.707317 24:0.751479 25:0.833663 
1024 1:-0.864414 2:-0.924103 3:-0.979183 4:-0.974084 5:-0.942805 6:-0.969306 7:-0.933727 8:-0.968395 9:-0.934836 10:0.386697 11:-0.640026 12:0.432373 13:-0.774059 14:-0.70073 15:-0.376147 16:-0.302083 17:-0.470588 18:-0.731959 19:-0.836066 20:-0.857143 21:-1 22:-0.565217 23:-0.541463 24:-0.526627 25:-0.548515 
-1024 1:0.180245 2:0.0537561 3:-0.580941 4:-0.615581 5:0.329224 6:-0.299322 7:0.133003 8:-0.335951 9:0.243402 10:-0.936758 11:0.00150575 12:0.0421286 13:-0.205021 14:-0.145985 15:-0.137615 16:-0.760417 17:-0.867647 18:-0.896907 19:-0.901639 20:-1 21:-1 22:0.73913 23:0.834146 24:0.857988 25:0.889109 
-1024 1:-0.347412 2:-0.843716 3:-0.796441 4:-0.924875 5:-0.418154 6:-0.892582 7:-0.739675 8:-0.886655 9:-0.746063 10:-0.220692 11:-0.126947 12:-0.148559 13:-0.90795 14:-0.773723 15:-0.0733945 16:0.208333 17:-0.102941 18:0.175258 19:-0.704918 20:-0.571429 21:-1 22:0.130435 23:0.15122 24:0.189349 25:0.176238 
